digraph Tree {
node [shape=box] ;
0 [label="X[7] <= 0.5\nmse = 101.0563\nsamples = 35\nvalue = 16.9714"] ;
1 [label="X[9] <= 0.5\nmse = 65.61\nsamples = 20\nvalue = 22.7"] ;
0 -> 1 [labeldistance=2.5, labelangle=45, headlabel="True"] ;
2 [label="X[8] <= 0.5\nmse = 37.84\nsamples = 5\nvalue = 12.4"] ;
1 -> 2 ;
3 [label="mse = 11.5556\nsamples = 3\nvalue = 8.6667"] ;
2 -> 3 ;
4 [label="mse = 25.0\nsamples = 2\nvalue = 18.0"] ;
2 -> 4 ;
5 [label="X[8] <= 0.5\nmse = 27.7156\nsamples = 15\nvalue = 26.1333"] ;
1 -> 5 ;
6 [label="X[10] <= 0.5\nmse = 7.5833\nsamples = 6\nvalue = 20.5"] ;
5 -> 6 ;
7 [label="mse = 2.8889\nsamples = 3\nvalue = 18.3333"] ;
6 -> 7 ;
8 [label="mse = 2.8889\nsamples = 3\nvalue = 22.6667"] ;
6 -> 8 ;
9 [label="X[1] <= 0.5\nmse = 5.8765\nsamples = 9\nvalue = 29.8889"] ;
5 -> 9 ;
10 [label="X[3] <= 0.5\nmse = 1.25\nsamples = 4\nvalue = 27.5"] ;
9 -> 10 ;
11 [label="mse = 2.25\nsamples = 2\nvalue = 27.5"] ;
10 -> 11 ;
12 [label="mse = 0.25\nsamples = 2\nvalue = 27.5"] ;
10 -> 12 ;
13 [label="X[10] <= 0.5\nmse = 1.36\nsamples = 5\nvalue = 31.8"] ;
9 -> 13 ;
14 [label="mse = 0.25\nsamples = 2\nvalue = 30.5"] ;
13 -> 14 ;
15 [label="mse = 0.2222\nsamples = 3\nvalue = 32.6667"] ;
13 -> 15 ;
16 [label="X[10] <= 0.5\nmse = 46.2222\nsamples = 15\nvalue = 9.3333"] ;
0 -> 16 [labeldistance=2.5, labelangle=-45, headlabel="False"] ;
17 [label="X[9] <= 0.5\nmse = 21.8056\nsamples = 6\nvalue = 4.1667"] ;
16 -> 17 ;
18 [label="X[6] <= 0.5\nmse = 1.25\nsamples = 4\nvalue = 1.5"] ;
17 -> 18 ;
19 [label="mse = 0.25\nsamples = 2\nvalue = 0.5"] ;
18 -> 19 ;
20 [label="mse = 0.25\nsamples = 2\nvalue = 2.5"] ;
18 -> 20 ;
21 [label="mse = 20.25\nsamples = 2\nvalue = 9.5"] ;
17 -> 21 ;
22 [label="X[2] <= 0.5\nmse = 32.8395\nsamples = 9\nvalue = 12.7778"] ;
16 -> 22 ;
23 [label="X[1] <= 0.5\nmse = 11.25\nsamples = 4\nvalue = 18.5"] ;
22 -> 23 ;
24 [label="mse = 1.0\nsamples = 2\nvalue = 16.0"] ;
23 -> 24 ;
25 [label="mse = 9.0\nsamples = 2\nvalue = 21.0"] ;
23 -> 25 ;
26 [label="X[1] <= 0.5\nmse = 2.96\nsamples = 5\nvalue = 8.2"] ;
22 -> 26 ;
27 [label="mse = 0.6667\nsamples = 3\nvalue = 7.0"] ;
26 -> 27 ;
28 [label="mse = 1.0\nsamples = 2\nvalue = 10.0"] ;
26 -> 28 ;
}