digraph Tree {
node [shape=box] ;
0 [label="X[3] <= 15.0\nmse = 955.1381\nsamples = 108\nvalue = 53.0278"] ;
1 [label="X[3] <= 3.5\nmse = 229.3905\nsamples = 52\nvalue = 25.3846"] ;
0 -> 1 [labeldistance=2.5, labelangle=45, headlabel="True"] ;
2 [label="X[3] <= 1.5\nmse = 31.6275\nsamples = 20\nvalue = 9.35"] ;
1 -> 2 ;
3 [label="X[0] <= 6.5\nmse = 7.6735\nsamples = 7\nvalue = 3.5714"] ;
2 -> 3 ;
4 [label="X[0] <= 4.0\nmse = 2.1875\nsamples = 4\nvalue = 1.75"] ;
3 -> 4 ;
5 [label="mse = 0.25\nsamples = 2\nvalue = 0.5"] ;
4 -> 5 ;
6 [label="mse = 1.0\nsamples = 2\nvalue = 3.0"] ;
4 -> 6 ;
7 [label="mse = 4.6667\nsamples = 3\nvalue = 6.0"] ;
3 -> 7 ;
8 [label="X[0] <= 4.0\nmse = 16.8639\nsamples = 13\nvalue = 12.4615"] ;
2 -> 8 ;
9 [label="X[1] <= 0.5\nmse = 3.1875\nsamples = 4\nvalue = 7.25"] ;
8 -> 9 ;
10 [label="mse = 0.25\nsamples = 2\nvalue = 5.5"] ;
9 -> 10 ;
11 [label="mse = 0.0\nsamples = 2\nvalue = 9.0"] ;
9 -> 11 ;
12 [label="X[1] <= 0.5\nmse = 5.5062\nsamples = 9\nvalue = 14.7778"] ;
8 -> 12 ;
13 [label="X[0] <= 5.5\nmse = 2.0\nsamples = 5\nvalue = 13.0"] ;
12 -> 13 ;
14 [label="mse = 0.25\nsamples = 2\nvalue = 14.5"] ;
13 -> 14 ;
15 [label="mse = 0.6667\nsamples = 3\nvalue = 12.0"] ;
13 -> 15 ;
16 [label="X[0] <= 6.5\nmse = 1.0\nsamples = 4\nvalue = 17.0"] ;
12 -> 16 ;
17 [label="mse = 0.0\nsamples = 2\nvalue = 18.0"] ;
16 -> 17 ;
18 [label="mse = 0.0\nsamples = 2\nvalue = 16.0"] ;
16 -> 18 ;
19 [label="X[3] <= 7.5\nmse = 91.8662\nsamples = 32\nvalue = 35.4062"] ;
1 -> 19 ;
20 [label="X[1] <= 0.5\nmse = 25.6622\nsamples = 15\nvalue = 27.0667"] ;
19 -> 20 ;
21 [label="X[0] <= 5.5\nmse = 6.9136\nsamples = 9\nvalue = 23.5556"] ;
20 -> 21 ;
22 [label="X[0] <= 4.0\nmse = 1.6875\nsamples = 4\nvalue = 26.25"] ;
21 -> 22 ;
23 [label="mse = 0.25\nsamples = 2\nvalue = 27.5"] ;
22 -> 23 ;
24 [label="mse = 0.0\nsamples = 2\nvalue = 25.0"] ;
22 -> 24 ;
25 [label="X[2] <= 2.5\nmse = 0.64\nsamples = 5\nvalue = 21.4"] ;
21 -> 25 ;
26 [label="mse = 0.6667\nsamples = 3\nvalue = 21.0"] ;
25 -> 26 ;
27 [label="mse = 0.0\nsamples = 2\nvalue = 22.0"] ;
25 -> 27 ;
28 [label="X[0] <= 4.0\nmse = 7.5556\nsamples = 6\nvalue = 32.3333"] ;
20 -> 28 ;
29 [label="mse = 0.0\nsamples = 2\nvalue = 36.0"] ;
28 -> 29 ;
30 [label="X[0] <= 6.0\nmse = 1.25\nsamples = 4\nvalue = 30.5"] ;
28 -> 30 ;
31 [label="mse = 0.25\nsamples = 2\nvalue = 31.5"] ;
30 -> 31 ;
32 [label="mse = 0.25\nsamples = 2\nvalue = 29.5"] ;
30 -> 32 ;
33 [label="X[1] <= 0.5\nmse = 34.7682\nsamples = 17\nvalue = 42.7647"] ;
19 -> 33 ;
34 [label="X[0] <= 5.5\nmse = 18.2344\nsamples = 8\nvalue = 38.375"] ;
33 -> 34 ;
35 [label="X[0] <= 3.5\nmse = 7.76\nsamples = 5\nvalue = 41.2"] ;
34 -> 35 ;
36 [label="mse = 0.25\nsamples = 2\nvalue = 44.5"] ;
35 -> 36 ;
37 [label="mse = 0.6667\nsamples = 3\nvalue = 39.0"] ;
35 -> 37 ;
38 [label="mse = 0.2222\nsamples = 3\nvalue = 33.6667"] ;
34 -> 38 ;
39 [label="X[0] <= 5.5\nmse = 17.1111\nsamples = 9\nvalue = 46.6667"] ;
33 -> 39 ;
40 [label="X[0] <= 3.5\nmse = 6.4722\nsamples = 6\nvalue = 49.1667"] ;
39 -> 40 ;
41 [label="mse = 0.25\nsamples = 2\nvalue = 52.5"] ;
40 -> 41 ;
42 [label="X[2] <= 3.0\nmse = 1.25\nsamples = 4\nvalue = 47.5"] ;
40 -> 42 ;
43 [label="mse = 0.25\nsamples = 2\nvalue = 46.5"] ;
42 -> 43 ;
44 [label="mse = 0.25\nsamples = 2\nvalue = 48.5"] ;
42 -> 44 ;
45 [label="mse = 0.8889\nsamples = 3\nvalue = 41.6667"] ;
39 -> 45 ;
46 [label="X[3] <= 75.0\nmse = 260.6043\nsamples = 56\nvalue = 78.6964"] ;
0 -> 46 [labeldistance=2.5, labelangle=-45, headlabel="False"] ;
47 [label="X[3] <= 35.0\nmse = 103.6049\nsamples = 35\nvalue = 68.2286"] ;
46 -> 47 ;
48 [label="X[1] <= 0.5\nmse = 27.7924\nsamples = 17\nvalue = 59.1765"] ;
47 -> 48 ;
49 [label="X[0] <= 5.5\nmse = 11.9844\nsamples = 8\nvalue = 54.625"] ;
48 -> 49 ;
50 [label="mse = 3.5556\nsamples = 3\nvalue = 58.3333"] ;
49 -> 50 ;
51 [label="X[0] <= 6.5\nmse = 3.84\nsamples = 5\nvalue = 52.4"] ;
49 -> 51 ;
52 [label="mse = 0.0\nsamples = 3\nvalue = 54.0"] ;
51 -> 52 ;
53 [label="mse = 0.0\nsamples = 2\nvalue = 50.0"] ;
51 -> 53 ;
54 [label="X[0] <= 5.5\nmse = 7.0617\nsamples = 9\nvalue = 63.2222"] ;
48 -> 54 ;
55 [label="X[0] <= 4.5\nmse = 1.8056\nsamples = 6\nvalue = 64.8333"] ;
54 -> 55 ;
56 [label="mse = 0.1875\nsamples = 4\nvalue = 65.75"] ;
55 -> 56 ;
57 [label="mse = 0.0\nsamples = 2\nvalue = 63.0"] ;
55 -> 57 ;
58 [label="mse = 2.0\nsamples = 3\nvalue = 60.0"] ;
54 -> 58 ;
59 [label="X[1] <= 0.5\nmse = 24.7284\nsamples = 18\nvalue = 76.7778"] ;
47 -> 59 ;
60 [label="X[0] <= 5.5\nmse = 4.1094\nsamples = 8\nvalue = 71.875"] ;
59 -> 60 ;
61 [label="X[2] <= 2.5\nmse = 0.1875\nsamples = 4\nvalue = 73.75"] ;
60 -> 61 ;
62 [label="mse = 0.25\nsamples = 2\nvalue = 73.5"] ;
61 -> 62 ;
63 [label="mse = 0.0\nsamples = 2\nvalue = 74.0"] ;
61 -> 63 ;
64 [label="X[0] <= 6.5\nmse = 1.0\nsamples = 4\nvalue = 70.0"] ;
60 -> 64 ;
65 [label="mse = 0.0\nsamples = 2\nvalue = 71.0"] ;
64 -> 65 ;
66 [label="mse = 0.0\nsamples = 2\nvalue = 69.0"] ;
64 -> 66 ;
67 [label="X[0] <= 5.5\nmse = 6.61\nsamples = 10\nvalue = 80.7"] ;
59 -> 67 ;
68 [label="X[0] <= 4.0\nmse = 2.25\nsamples = 6\nvalue = 82.5"] ;
67 -> 68 ;
69 [label="mse = 0.0\nsamples = 3\nvalue = 84.0"] ;
68 -> 69 ;
70 [label="mse = 0.0\nsamples = 3\nvalue = 81.0"] ;
68 -> 70 ;
71 [label="X[0] <= 6.5\nmse = 1.0\nsamples = 4\nvalue = 78.0"] ;
67 -> 71 ;
72 [label="mse = 0.0\nsamples = 2\nvalue = 79.0"] ;
71 -> 72 ;
73 [label="mse = 0.0\nsamples = 2\nvalue = 77.0"] ;
71 -> 73 ;
74 [label="X[1] <= 0.5\nmse = 35.2653\nsamples = 21\nvalue = 96.1429"] ;
46 -> 74 ;
75 [label="X[0] <= 4.5\nmse = 10.8889\nsamples = 12\nvalue = 91.6667"] ;
74 -> 75 ;
76 [label="mse = 1.6875\nsamples = 4\nvalue = 87.75"] ;
75 -> 76 ;
77 [label="X[0] <= 5.5\nmse = 3.9844\nsamples = 8\nvalue = 93.625"] ;
75 -> 77 ;
78 [label="mse = 0.0\nsamples = 3\nvalue = 96.0"] ;
77 -> 78 ;
79 [label="X[0] <= 6.5\nmse = 0.96\nsamples = 5\nvalue = 92.2"] ;
77 -> 79 ;
80 [label="mse = 0.0\nsamples = 3\nvalue = 93.0"] ;
79 -> 80 ;
81 [label="mse = 0.0\nsamples = 2\nvalue = 91.0"] ;
79 -> 81 ;
82 [label="X[0] <= 3.5\nmse = 5.4321\nsamples = 9\nvalue = 102.1111"] ;
74 -> 82 ;
83 [label="mse = 0.0\nsamples = 2\nvalue = 99.0"] ;
82 -> 83 ;
84 [label="X[2] <= 3.5\nmse = 3.4286\nsamples = 7\nvalue = 103.0"] ;
82 -> 84 ;
85 [label="X[0] <= 6.5\nmse = 0.96\nsamples = 5\nvalue = 102.2"] ;
84 -> 85 ;
86 [label="mse = 0.0\nsamples = 3\nvalue = 103.0"] ;
85 -> 86 ;
87 [label="mse = 0.0\nsamples = 2\nvalue = 101.0"] ;
85 -> 87 ;
88 [label="mse = 4.0\nsamples = 2\nvalue = 105.0"] ;
84 -> 88 ;
}