digraph Tree {
node [shape=box] ;
0 [label="X[0] <= 2.5\nmse = 1302.0\nsamples = 125\nvalue = 62.0"] ;
1 [label="X[1] <= 15.5\nmse = 431.1572\nsamples = 61\nvalue = 33.918"] ;
0 -> 1 [labeldistance=2.5, labelangle=45, headlabel="True"] ;
2 [label="X[1] <= 3.0\nmse = 166.8887\nsamples = 31\nvalue = 18.5806"] ;
1 -> 2 ;
3 [label="X[0] <= 1.5\nmse = 5.1389\nsamples = 6\nvalue = 2.8333"] ;
2 -> 3 ;
4 [label="X[1] <= 1.5\nmse = 2.1875\nsamples = 4\nvalue = 1.75"] ;
3 -> 4 ;
5 [label="mse = 0.25\nsamples = 2\nvalue = 0.5"] ;
4 -> 5 ;
6 [label="mse = 1.0\nsamples = 2\nvalue = 3.0"] ;
4 -> 6 ;
7 [label="mse = 4.0\nsamples = 2\nvalue = 5.0"] ;
3 -> 7 ;
8 [label="X[0] <= 1.5\nmse = 131.9104\nsamples = 25\nvalue = 22.36"] ;
2 -> 8 ;
9 [label="X[0] <= 0.5\nmse = 48.1111\nsamples = 18\nvalue = 16.6667"] ;
8 -> 9 ;
10 [label="X[1] <= 7.5\nmse = 14.04\nsamples = 10\nvalue = 11.6"] ;
9 -> 10 ;
11 [label="mse = 2.8889\nsamples = 3\nvalue = 7.3333"] ;
10 -> 11 ;
12 [label="X[1] <= 14.5\nmse = 7.6735\nsamples = 7\nvalue = 13.4286"] ;
10 -> 12 ;
13 [label="X[1] <= 11.0\nmse = 2.0\nsamples = 5\nvalue = 12.0"] ;
12 -> 13 ;
14 [label="mse = 1.5556\nsamples = 3\nvalue = 11.3333"] ;
13 -> 14 ;
15 [label="mse = 1.0\nsamples = 2\nvalue = 13.0"] ;
13 -> 15 ;
16 [label="mse = 4.0\nsamples = 2\nvalue = 17.0"] ;
12 -> 16 ;
17 [label="X[1] <= 11.0\nmse = 18.5\nsamples = 8\nvalue = 23.0"] ;
9 -> 17 ;
18 [label="X[1] <= 7.5\nmse = 2.5\nsamples = 4\nvalue = 19.0"] ;
17 -> 18 ;
19 [label="mse = 0.25\nsamples = 2\nvalue = 17.5"] ;
18 -> 19 ;
20 [label="mse = 0.25\nsamples = 2\nvalue = 20.5"] ;
18 -> 20 ;
21 [label="X[1] <= 14.5\nmse = 2.5\nsamples = 4\nvalue = 27.0"] ;
17 -> 21 ;
22 [label="mse = 0.25\nsamples = 2\nvalue = 25.5"] ;
21 -> 22 ;
23 [label="mse = 0.25\nsamples = 2\nvalue = 28.5"] ;
21 -> 23 ;
24 [label="X[1] <= 7.5\nmse = 49.7143\nsamples = 7\nvalue = 37.0"] ;
8 -> 24 ;
25 [label="mse = 34.8889\nsamples = 3\nvalue = 30.3333"] ;
24 -> 25 ;
26 [label="X[2] <= 3.5\nmse = 2.5\nsamples = 4\nvalue = 42.0"] ;
24 -> 26 ;
27 [label="mse = 2.25\nsamples = 2\nvalue = 42.5"] ;
26 -> 27 ;
28 [label="mse = 2.25\nsamples = 2\nvalue = 41.5"] ;
26 -> 28 ;
29 [label="X[0] <= 1.5\nmse = 209.9789\nsamples = 30\nvalue = 49.7667"] ;
1 -> 29 ;
30 [label="X[1] <= 28.5\nmse = 156.1814\nsamples = 21\nvalue = 43.9048"] ;
29 -> 30 ;
31 [label="X[1] <= 20.5\nmse = 48.7438\nsamples = 11\nvalue = 33.7273"] ;
30 -> 31 ;
32 [label="X[0] <= 0.5\nmse = 25.84\nsamples = 5\nvalue = 28.6"] ;
31 -> 32 ;
33 [label="mse = 2.8889\nsamples = 3\nvalue = 24.6667"] ;
32 -> 33 ;
34 [label="mse = 2.25\nsamples = 2\nvalue = 34.5"] ;
32 -> 34 ;
35 [label="X[0] <= 0.5\nmse = 27.6667\nsamples = 6\nvalue = 38.0"] ;
31 -> 35 ;
36 [label="X[1] <= 23.5\nmse = 12.5\nsamples = 4\nvalue = 35.0"] ;
35 -> 36 ;
37 [label="mse = 0.25\nsamples = 2\nvalue = 31.5"] ;
36 -> 37 ;
38 [label="mse = 0.25\nsamples = 2\nvalue = 38.5"] ;
36 -> 38 ;
39 [label="mse = 4.0\nsamples = 2\nvalue = 44.0"] ;
35 -> 39 ;
40 [label="X[0] <= 0.5\nmse = 35.09\nsamples = 10\nvalue = 55.1"] ;
30 -> 40 ;
41 [label="X[1] <= 35.5\nmse = 33.8889\nsamples = 6\nvalue = 52.3333"] ;
40 -> 41 ;
42 [label="mse = 11.5556\nsamples = 3\nvalue = 49.6667"] ;
41 -> 42 ;
43 [label="mse = 42.0\nsamples = 3\nvalue = 55.0"] ;
41 -> 43 ;
44 [label="X[2] <= 2.5\nmse = 8.1875\nsamples = 4\nvalue = 59.25"] ;
40 -> 44 ;
45 [label="mse = 6.25\nsamples = 2\nvalue = 57.5"] ;
44 -> 45 ;
46 [label="mse = 4.0\nsamples = 2\nvalue = 61.0"] ;
44 -> 46 ;
47 [label="X[1] <= 20.5\nmse = 68.2469\nsamples = 9\nvalue = 63.4444"] ;
29 -> 47 ;
48 [label="mse = 16.2222\nsamples = 3\nvalue = 53.6667"] ;
47 -> 48 ;
49 [label="X[1] <= 30.0\nmse = 22.5556\nsamples = 6\nvalue = 68.3333"] ;
47 -> 49 ;
50 [label="mse = 6.2222\nsamples = 3\nvalue = 64.3333"] ;
49 -> 50 ;
51 [label="mse = 6.8889\nsamples = 3\nvalue = 72.3333"] ;
49 -> 51 ;
52 [label="X[1] <= 3.0\nmse = 663.9919\nsamples = 64\nvalue = 88.7656"] ;
0 -> 52 [labeldistance=2.5, labelangle=-45, headlabel="False"] ;
53 [label="X[1] <= 1.5\nmse = 469.8056\nsamples = 6\nvalue = 34.8333"] ;
52 -> 53 ;
54 [label="mse = 96.8889\nsamples = 3\nvalue = 17.3333"] ;
53 -> 54 ;
55 [label="mse = 230.2222\nsamples = 3\nvalue = 52.3333"] ;
53 -> 55 ;
56 [label="X[0] <= 5.5\nmse = 352.0535\nsamples = 58\nvalue = 94.3448"] ;
52 -> 56 ;
57 [label="X[1] <= 15.5\nmse = 244.7587\nsamples = 39\nvalue = 85.4359"] ;
56 -> 57 ;
58 [label="X[0] <= 4.5\nmse = 146.9689\nsamples = 17\nvalue = 72.8235"] ;
57 -> 58 ;
59 [label="X[1] <= 11.0\nmse = 75.41\nsamples = 10\nvalue = 65.3"] ;
58 -> 59 ;
60 [label="X[2] <= 4.5\nmse = 67.84\nsamples = 5\nvalue = 59.6"] ;
59 -> 60 ;
61 [label="mse = 10.6667\nsamples = 3\nvalue = 54.0"] ;
60 -> 61 ;
62 [label="mse = 36.0\nsamples = 2\nvalue = 68.0"] ;
60 -> 62 ;
63 [label="X[0] <= 3.5\nmse = 18.0\nsamples = 5\nvalue = 71.0"] ;
59 -> 63 ;
64 [label="mse = 1.5556\nsamples = 3\nvalue = 67.6667"] ;
63 -> 64 ;
65 [label="mse = 1.0\nsamples = 2\nvalue = 76.0"] ;
63 -> 65 ;
66 [label="X[1] <= 11.0\nmse = 52.8163\nsamples = 7\nvalue = 83.5714"] ;
58 -> 66 ;
67 [label="X[1] <= 7.5\nmse = 18.64\nsamples = 5\nvalue = 79.6"] ;
66 -> 67 ;
68 [label="mse = 12.6667\nsamples = 3\nvalue = 77.0"] ;
67 -> 68 ;
69 [label="mse = 2.25\nsamples = 2\nvalue = 83.5"] ;
67 -> 69 ;
70 [label="mse = 0.25\nsamples = 2\nvalue = 93.5"] ;
66 -> 70 ;
71 [label="X[0] <= 4.5\nmse = 102.4215\nsamples = 22\nvalue = 95.1818"] ;
57 -> 71 ;
72 [label="X[1] <= 35.5\nmse = 63.25\nsamples = 16\nvalue = 91.0"] ;
71 -> 72 ;
73 [label="X[0] <= 3.5\nmse = 34.41\nsamples = 10\nvalue = 87.7"] ;
72 -> 73 ;
74 [label="X[1] <= 33.5\nmse = 19.6875\nsamples = 4\nvalue = 84.75"] ;
73 -> 74 ;
75 [label="mse = 20.25\nsamples = 2\nvalue = 82.5"] ;
74 -> 75 ;
76 [label="mse = 9.0\nsamples = 2\nvalue = 87.0"] ;
74 -> 76 ;
77 [label="X[1] <= 23.5\nmse = 34.5556\nsamples = 6\nvalue = 89.6667"] ;
73 -> 77 ;
78 [label="X[1] <= 20.5\nmse = 9.5\nsamples = 4\nvalue = 86.0"] ;
77 -> 78 ;
79 [label="mse = 6.25\nsamples = 2\nvalue = 83.5"] ;
78 -> 79 ;
80 [label="mse = 0.25\nsamples = 2\nvalue = 88.5"] ;
78 -> 80 ;
81 [label="mse = 4.0\nsamples = 2\nvalue = 97.0"] ;
77 -> 81 ;
82 [label="X[0] <= 3.5\nmse = 62.9167\nsamples = 6\nvalue = 96.5"] ;
72 -> 82 ;
83 [label="mse = 28.6667\nsamples = 3\nvalue = 90.0"] ;
82 -> 83 ;
84 [label="mse = 12.6667\nsamples = 3\nvalue = 103.0"] ;
82 -> 84 ;
85 [label="X[1] <= 30.0\nmse = 35.8889\nsamples = 6\nvalue = 106.3333"] ;
71 -> 85 ;
86 [label="mse = 6.8889\nsamples = 3\nvalue = 100.6667"] ;
85 -> 86 ;
87 [label="mse = 0.6667\nsamples = 3\nvalue = 112.0"] ;
85 -> 87 ;
88 [label="X[1] <= 20.5\nmse = 74.9695\nsamples = 19\nvalue = 112.6316"] ;
56 -> 88 ;
89 [label="X[0] <= 7.5\nmse = 44.9844\nsamples = 8\nvalue = 104.625"] ;
88 -> 89 ;
90 [label="X[1] <= 11.0\nmse = 28.3333\nsamples = 6\nvalue = 102.0"] ;
89 -> 90 ;
91 [label="mse = 9.0\nsamples = 2\nvalue = 95.0"] ;
90 -> 91 ;
92 [label="X[2] <= 3.5\nmse = 1.25\nsamples = 4\nvalue = 105.5"] ;
90 -> 92 ;
93 [label="mse = 0.25\nsamples = 2\nvalue = 106.5"] ;
92 -> 93 ;
94 [label="mse = 0.25\nsamples = 2\nvalue = 104.5"] ;
92 -> 94 ;
95 [label="mse = 12.25\nsamples = 2\nvalue = 112.5"] ;
89 -> 95 ;
96 [label="X[1] <= 30.0\nmse = 16.2479\nsamples = 11\nvalue = 118.4545"] ;
88 -> 96 ;
97 [label="mse = 13.5556\nsamples = 3\nvalue = 114.3333"] ;
96 -> 97 ;
98 [label="X[0] <= 6.5\nmse = 8.5\nsamples = 8\nvalue = 120.0"] ;
96 -> 98 ;
99 [label="X[2] <= 2.5\nmse = 3.25\nsamples = 4\nvalue = 117.5"] ;
98 -> 99 ;
100 [label="mse = 0.25\nsamples = 2\nvalue = 117.5"] ;
99 -> 100 ;
101 [label="mse = 6.25\nsamples = 2\nvalue = 117.5"] ;
99 -> 101 ;
102 [label="X[1] <= 35.5\nmse = 1.25\nsamples = 4\nvalue = 122.5"] ;
98 -> 102 ;
103 [label="mse = 0.25\nsamples = 2\nvalue = 121.5"] ;
102 -> 103 ;
104 [label="mse = 0.25\nsamples = 2\nvalue = 123.5"] ;
102 -> 104 ;
}