digraph Tree {
node [shape=box] ;
0 [label="X[2] <= 2.0\nmse = 884.0\nsamples = 103\nvalue = 51.0"] ;
1 [label="X[0] <= 5500.0\nmse = 138.9844\nsamples = 16\nvalue = 17.625"] ;
0 -> 1 [labeldistance=2.5, labelangle=45, headlabel="True"] ;
2 [label="X[0] <= 5.5\nmse = 46.5\nsamples = 8\nvalue = 25.5"] ;
1 -> 2 ;
3 [label="mse = 25.0\nsamples = 2\nvalue = 15.0"] ;
2 -> 3 ;
4 [label="X[0] <= 55.0\nmse = 4.6667\nsamples = 6\nvalue = 29.0"] ;
2 -> 4 ;
5 [label="mse = 1.0\nsamples = 2\nvalue = 27.0"] ;
4 -> 5 ;
6 [label="X[0] <= 550.0\nmse = 3.5\nsamples = 4\nvalue = 30.0"] ;
4 -> 6 ;
7 [label="mse = 0.25\nsamples = 2\nvalue = 31.5"] ;
6 -> 7 ;
8 [label="mse = 2.25\nsamples = 2\nvalue = 28.5"] ;
6 -> 8 ;
9 [label="X[1] <= 4.5\nmse = 107.4375\nsamples = 8\nvalue = 9.75"] ;
1 -> 9 ;
10 [label="X[0] <= 550000.0\nmse = 10.64\nsamples = 5\nvalue = 4.4"] ;
9 -> 10 ;
11 [label="mse = 12.6667\nsamples = 3\nvalue = 3.0"] ;
10 -> 11 ;
12 [label="mse = 0.25\nsamples = 2\nvalue = 6.5"] ;
10 -> 12 ;
13 [label="mse = 141.5556\nsamples = 3\nvalue = 18.6667"] ;
9 -> 13 ;
14 [label="X[0] <= 5.5\nmse = 778.4867\nsamples = 87\nvalue = 57.1379"] ;
0 -> 14 [labeldistance=2.5, labelangle=-45, headlabel="False"] ;
15 [label="X[1] <= 2.5\nmse = 14.7431\nsamples = 12\nvalue = 15.5833"] ;
14 -> 15 ;
16 [label="X[1] <= 1.5\nmse = 2.1875\nsamples = 4\nvalue = 11.25"] ;
15 -> 16 ;
17 [label="mse = 1.0\nsamples = 2\nvalue = 10.0"] ;
16 -> 17 ;
18 [label="mse = 0.25\nsamples = 2\nvalue = 12.5"] ;
16 -> 18 ;
19 [label="X[2] <= 7.5\nmse = 6.9375\nsamples = 8\nvalue = 17.75"] ;
15 -> 19 ;
20 [label="mse = 1.5556\nsamples = 3\nvalue = 20.6667"] ;
19 -> 20 ;
21 [label="X[2] <= 13.5\nmse = 2.0\nsamples = 5\nvalue = 16.0"] ;
19 -> 21 ;
22 [label="mse = 1.0\nsamples = 2\nvalue = 17.0"] ;
21 -> 22 ;
23 [label="mse = 1.5556\nsamples = 3\nvalue = 15.3333"] ;
21 -> 23 ;
24 [label="X[1] <= 1.5\nmse = 580.1945\nsamples = 75\nvalue = 63.7867"] ;
14 -> 24 ;
25 [label="X[0] <= 55000.0\nmse = 610.0277\nsamples = 17\nvalue = 41.1765"] ;
24 -> 25 ;
26 [label="X[0] <= 55.0\nmse = 316.5764\nsamples = 12\nvalue = 53.4167"] ;
25 -> 26 ;
27 [label="X[2] <= 10.5\nmse = 1.25\nsamples = 4\nvalue = 36.5"] ;
26 -> 27 ;
28 [label="mse = 2.25\nsamples = 2\nvalue = 36.5"] ;
27 -> 28 ;
29 [label="mse = 0.25\nsamples = 2\nvalue = 36.5"] ;
27 -> 29 ;
30 [label="X[0] <= 5500.0\nmse = 259.6094\nsamples = 8\nvalue = 61.875"] ;
26 -> 30 ;
31 [label="X[0] <= 550.0\nmse = 30.96\nsamples = 5\nvalue = 73.8"] ;
30 -> 31 ;
32 [label="mse = 4.0\nsamples = 2\nvalue = 68.0"] ;
31 -> 32 ;
33 [label="mse = 11.5556\nsamples = 3\nvalue = 77.6667"] ;
31 -> 33 ;
34 [label="mse = 8.6667\nsamples = 3\nvalue = 42.0"] ;
30 -> 34 ;
35 [label="X[0] <= 550000.0\nmse = 91.76\nsamples = 5\nvalue = 11.8"] ;
25 -> 35 ;
36 [label="mse = 0.6667\nsamples = 3\nvalue = 4.0"] ;
35 -> 36 ;
37 [label="mse = 0.25\nsamples = 2\nvalue = 23.5"] ;
35 -> 37 ;
38 [label="X[0] <= 55.0\nmse = 377.6908\nsamples = 58\nvalue = 70.4138"] ;
24 -> 38 ;
39 [label="X[1] <= 4.5\nmse = 70.6281\nsamples = 11\nvalue = 51.0909"] ;
38 -> 39 ;
40 [label="X[2] <= 10.5\nmse = 99.76\nsamples = 5\nvalue = 47.2"] ;
39 -> 40 ;
41 [label="mse = 0.25\nsamples = 2\nvalue = 42.5"] ;
40 -> 41 ;
42 [label="mse = 141.5556\nsamples = 3\nvalue = 50.3333"] ;
40 -> 42 ;
43 [label="X[2] <= 10.5\nmse = 23.2222\nsamples = 6\nvalue = 54.3333"] ;
39 -> 43 ;
44 [label="mse = 11.5556\nsamples = 3\nvalue = 51.6667"] ;
43 -> 44 ;
45 [label="mse = 20.6667\nsamples = 3\nvalue = 57.0"] ;
43 -> 45 ;
46 [label="X[1] <= 4.5\nmse = 341.7193\nsamples = 47\nvalue = 74.9362"] ;
38 -> 46 ;
47 [label="X[0] <= 55000.0\nmse = 416.8347\nsamples = 22\nvalue = 65.2727"] ;
46 -> 47 ;
48 [label="X[1] <= 2.5\nmse = 325.5208\nsamples = 12\nvalue = 77.25"] ;
47 -> 48 ;
49 [label="X[2] <= 10.5\nmse = 55.76\nsamples = 5\nvalue = 96.8"] ;
48 -> 49 ;
50 [label="mse = 81.0\nsamples = 2\nvalue = 91.0"] ;
49 -> 50 ;
51 [label="mse = 1.5556\nsamples = 3\nvalue = 100.6667"] ;
49 -> 51 ;
52 [label="X[0] <= 5500.0\nmse = 50.2041\nsamples = 7\nvalue = 63.2857"] ;
48 -> 52 ;
53 [label="X[2] <= 6.0\nmse = 59.76\nsamples = 5\nvalue = 64.8"] ;
52 -> 53 ;
54 [label="mse = 90.25\nsamples = 2\nvalue = 59.5"] ;
53 -> 54 ;
55 [label="mse = 8.2222\nsamples = 3\nvalue = 68.3333"] ;
53 -> 55 ;
56 [label="mse = 6.25\nsamples = 2\nvalue = 59.5"] ;
52 -> 56 ;
57 [label="X[2] <= 7.5\nmse = 147.69\nsamples = 10\nvalue = 50.9"] ;
47 -> 57 ;
58 [label="X[2] <= 4.5\nmse = 47.6875\nsamples = 4\nvalue = 40.25"] ;
57 -> 58 ;
59 [label="mse = 4.0\nsamples = 2\nvalue = 47.0"] ;
58 -> 59 ;
60 [label="mse = 0.25\nsamples = 2\nvalue = 33.5"] ;
58 -> 60 ;
61 [label="X[2] <= 13.5\nmse = 88.3333\nsamples = 6\nvalue = 58.0"] ;
57 -> 61 ;
62 [label="mse = 100.6667\nsamples = 3\nvalue = 63.0"] ;
61 -> 62 ;
63 [label="mse = 26.0\nsamples = 3\nvalue = 53.0"] ;
61 -> 63 ;
64 [label="X[2] <= 4.5\nmse = 121.1264\nsamples = 25\nvalue = 83.44"] ;
46 -> 64 ;
65 [label="mse = 4.2222\nsamples = 3\nvalue = 61.3333"] ;
64 -> 65 ;
66 [label="X[0] <= 550.0\nmse = 61.3388\nsamples = 22\nvalue = 86.4545"] ;
64 -> 66 ;
67 [label="X[2] <= 10.5\nmse = 10.5\nsamples = 4\nvalue = 75.0"] ;
66 -> 67 ;
68 [label="mse = 2.25\nsamples = 2\nvalue = 72.5"] ;
67 -> 68 ;
69 [label="mse = 6.25\nsamples = 2\nvalue = 77.5"] ;
67 -> 69 ;
70 [label="X[2] <= 7.5\nmse = 37.0\nsamples = 18\nvalue = 89.0"] ;
66 -> 70 ;
71 [label="X[0] <= 55000.0\nmse = 34.6875\nsamples = 4\nvalue = 82.75"] ;
70 -> 71 ;
72 [label="mse = 30.25\nsamples = 2\nvalue = 81.5"] ;
71 -> 72 ;
73 [label="mse = 36.0\nsamples = 2\nvalue = 84.0"] ;
71 -> 73 ;
74 [label="X[2] <= 13.5\nmse = 23.3112\nsamples = 14\nvalue = 90.7857"] ;
70 -> 74 ;
75 [label="X[0] <= 55000.0\nmse = 9.8056\nsamples = 6\nvalue = 93.1667"] ;
74 -> 75 ;
76 [label="mse = 2.8889\nsamples = 3\nvalue = 90.3333"] ;
75 -> 76 ;
77 [label="mse = 0.6667\nsamples = 3\nvalue = 96.0"] ;
75 -> 77 ;
78 [label="X[2] <= 16.5\nmse = 26.0\nsamples = 8\nvalue = 89.0"] ;
74 -> 78 ;
79 [label="X[0] <= 55000.0\nmse = 1.25\nsamples = 4\nvalue = 84.5"] ;
78 -> 79 ;
80 [label="mse = 0.25\nsamples = 2\nvalue = 85.5"] ;
79 -> 80 ;
81 [label="mse = 0.25\nsamples = 2\nvalue = 83.5"] ;
79 -> 81 ;
82 [label="X[0] <= 55000.0\nmse = 10.25\nsamples = 4\nvalue = 93.5"] ;
78 -> 82 ;
83 [label="mse = 20.25\nsamples = 2\nvalue = 93.5"] ;
82 -> 83 ;
84 [label="mse = 0.25\nsamples = 2\nvalue = 93.5"] ;
82 -> 84 ;
}