digraph Tree {
node [shape=box] ;
0 [label="X[2] <= 4.5\nmse = 444.0\nsamples = 73\nvalue = 36.0"] ;
1 [label="X[0] <= 5500.0\nmse = 182.7936\nsamples = 25\nvalue = 21.08"] ;
0 -> 1 [labeldistance=2.5, labelangle=45, headlabel="True"] ;
2 [label="X[0] <= 5.5\nmse = 126.2367\nsamples = 13\nvalue = 27.3846"] ;
1 -> 2 ;
3 [label="mse = 9.5556\nsamples = 3\nvalue = 14.6667"] ;
2 -> 3 ;
4 [label="X[1] <= 2.5\nmse = 98.16\nsamples = 10\nvalue = 31.2"] ;
2 -> 4 ;
5 [label="X[0] <= 550.0\nmse = 183.6875\nsamples = 4\nvalue = 36.75"] ;
4 -> 5 ;
6 [label="mse = 4.0\nsamples = 2\nvalue = 30.0"] ;
5 -> 6 ;
7 [label="mse = 272.25\nsamples = 2\nvalue = 43.5"] ;
5 -> 7 ;
8 [label="X[0] <= 55.0\nmse = 6.9167\nsamples = 6\nvalue = 27.5"] ;
4 -> 8 ;
9 [label="mse = 0.25\nsamples = 2\nvalue = 24.5"] ;
8 -> 9 ;
10 [label="X[0] <= 550.0\nmse = 3.5\nsamples = 4\nvalue = 29.0"] ;
8 -> 10 ;
11 [label="mse = 0.25\nsamples = 2\nvalue = 30.5"] ;
10 -> 11 ;
12 [label="mse = 2.25\nsamples = 2\nvalue = 27.5"] ;
10 -> 12 ;
13 [label="X[0] <= 550000.0\nmse = 154.3542\nsamples = 12\nvalue = 14.25"] ;
1 -> 13 ;
14 [label="X[2] <= 2.0\nmse = 145.8765\nsamples = 9\nvalue = 11.8889"] ;
13 -> 14 ;
15 [label="X[0] <= 55000.0\nmse = 47.5556\nsamples = 6\nvalue = 7.3333"] ;
14 -> 15 ;
16 [label="X[1] <= 2.5\nmse = 36.1875\nsamples = 4\nvalue = 10.75"] ;
15 -> 16 ;
17 [label="mse = 2.25\nsamples = 2\nvalue = 7.5"] ;
16 -> 17 ;
18 [label="mse = 49.0\nsamples = 2\nvalue = 14.0"] ;
16 -> 18 ;
19 [label="mse = 0.25\nsamples = 2\nvalue = 0.5"] ;
15 -> 19 ;
20 [label="mse = 218.0\nsamples = 3\nvalue = 21.0"] ;
14 -> 20 ;
21 [label="mse = 112.8889\nsamples = 3\nvalue = 21.3333"] ;
13 -> 21 ;
22 [label="X[0] <= 5.5\nmse = 403.7183\nsamples = 48\nvalue = 43.7708"] ;
0 -> 22 [labeldistance=2.5, labelangle=-45, headlabel="False"] ;
23 [label="X[1] <= 1.5\nmse = 7.6735\nsamples = 7\nvalue = 14.4286"] ;
22 -> 23 ;
24 [label="mse = 0.25\nsamples = 2\nvalue = 10.5"] ;
23 -> 24 ;
25 [label="X[2] <= 10.5\nmse = 2.0\nsamples = 5\nvalue = 16.0"] ;
23 -> 25 ;
26 [label="mse = 2.25\nsamples = 2\nvalue = 15.5"] ;
25 -> 26 ;
27 [label="mse = 1.5556\nsamples = 3\nvalue = 16.3333"] ;
25 -> 27 ;
28 [label="X[1] <= 1.5\nmse = 299.2445\nsamples = 41\nvalue = 48.7805"] ;
22 -> 28 ;
29 [label="X[0] <= 55000.0\nmse = 363.6331\nsamples = 13\nvalue = 33.5385"] ;
28 -> 29 ;
30 [label="X[0] <= 55.0\nmse = 75.7344\nsamples = 8\nvalue = 46.375"] ;
29 -> 30 ;
31 [label="mse = 0.25\nsamples = 2\nvalue = 35.5"] ;
30 -> 31 ;
32 [label="X[0] <= 5500.0\nmse = 48.3333\nsamples = 6\nvalue = 50.0"] ;
30 -> 32 ;
33 [label="X[2] <= 15.0\nmse = 3.6875\nsamples = 4\nvalue = 54.75"] ;
32 -> 33 ;
34 [label="mse = 1.0\nsamples = 2\nvalue = 53.0"] ;
33 -> 34 ;
35 [label="mse = 0.25\nsamples = 2\nvalue = 56.5"] ;
33 -> 35 ;
36 [label="mse = 2.25\nsamples = 2\nvalue = 40.5"] ;
32 -> 36 ;
37 [label="X[0] <= 550000.0\nmse = 138.8\nsamples = 5\nvalue = 13.0"] ;
29 -> 37 ;
38 [label="mse = 0.6667\nsamples = 3\nvalue = 4.0"] ;
37 -> 38 ;
39 [label="mse = 42.25\nsamples = 2\nvalue = 26.5"] ;
37 -> 39 ;
40 [label="X[0] <= 55.0\nmse = 111.4082\nsamples = 28\nvalue = 55.8571"] ;
28 -> 40 ;
41 [label="X[2] <= 15.0\nmse = 15.5\nsamples = 4\nvalue = 45.0"] ;
40 -> 41 ;
42 [label="mse = 6.25\nsamples = 2\nvalue = 42.5"] ;
41 -> 42 ;
43 [label="mse = 12.25\nsamples = 2\nvalue = 47.5"] ;
41 -> 43 ;
44 [label="X[0] <= 55000.0\nmse = 104.4722\nsamples = 24\nvalue = 57.6667"] ;
40 -> 44 ;
45 [label="X[1] <= 2.5\nmse = 57.2449\nsamples = 14\nvalue = 61.5714"] ;
44 -> 45 ;
46 [label="X[2] <= 10.5\nmse = 1.25\nsamples = 4\nvalue = 70.5"] ;
45 -> 46 ;
47 [label="mse = 1.0\nsamples = 2\nvalue = 70.0"] ;
46 -> 47 ;
48 [label="mse = 1.0\nsamples = 2\nvalue = 71.0"] ;
46 -> 48 ;
49 [label="X[1] <= 4.5\nmse = 35.0\nsamples = 10\nvalue = 58.0"] ;
45 -> 49 ;
50 [label="X[2] <= 15.0\nmse = 16.1875\nsamples = 4\nvalue = 53.25"] ;
49 -> 50 ;
51 [label="mse = 25.0\nsamples = 2\nvalue = 54.0"] ;
50 -> 51 ;
52 [label="mse = 6.25\nsamples = 2\nvalue = 52.5"] ;
50 -> 52 ;
53 [label="X[0] <= 550.0\nmse = 22.4722\nsamples = 6\nvalue = 61.1667"] ;
49 -> 53 ;
54 [label="mse = 6.25\nsamples = 2\nvalue = 55.5"] ;
53 -> 54 ;
55 [label="X[2] <= 13.5\nmse = 6.5\nsamples = 4\nvalue = 64.0"] ;
53 -> 55 ;
56 [label="mse = 1.0\nsamples = 2\nvalue = 62.0"] ;
55 -> 56 ;
57 [label="mse = 4.0\nsamples = 2\nvalue = 66.0"] ;
55 -> 57 ;
58 [label="X[1] <= 4.5\nmse = 119.36\nsamples = 10\nvalue = 52.2"] ;
44 -> 58 ;
59 [label="X[0] <= 550000.0\nmse = 14.5556\nsamples = 6\nvalue = 43.6667"] ;
58 -> 59 ;
60 [label="X[1] <= 2.5\nmse = 3.5\nsamples = 4\nvalue = 46.0"] ;
59 -> 60 ;
61 [label="mse = 2.25\nsamples = 2\nvalue = 44.5"] ;
60 -> 61 ;
62 [label="mse = 0.25\nsamples = 2\nvalue = 47.5"] ;
60 -> 62 ;
63 [label="mse = 4.0\nsamples = 2\nvalue = 39.0"] ;
59 -> 63 ;
64 [label="X[2] <= 13.5\nmse = 3.5\nsamples = 4\nvalue = 65.0"] ;
58 -> 64 ;
65 [label="mse = 2.25\nsamples = 2\nvalue = 63.5"] ;
64 -> 65 ;
66 [label="mse = 0.25\nsamples = 2\nvalue = 66.5"] ;
64 -> 66 ;
}