digraph Tree {
node [shape=box] ;
0 [label="X[2] <= 2.0\nmse = 280.25\nsamples = 58\nvalue = 28.5"] ;
1 [label="X[0] <= 50500.0\nmse = 61.8571\nsamples = 14\nvalue = 12.0"] ;
0 -> 1 [labeldistance=2.5, labelangle=45, headlabel="True"] ;
2 [label="X[0] <= 5.5\nmse = 17.284\nsamples = 9\nvalue = 17.2222"] ;
1 -> 2 ;
3 [label="X[1] <= 2.5\nmse = 10.25\nsamples = 4\nvalue = 13.5"] ;
2 -> 3 ;
4 [label="mse = 2.25\nsamples = 2\nvalue = 10.5"] ;
3 -> 4 ;
5 [label="mse = 0.25\nsamples = 2\nvalue = 16.5"] ;
3 -> 5 ;
6 [label="X[1] <= 1.5\nmse = 2.96\nsamples = 5\nvalue = 20.2"] ;
2 -> 6 ;
7 [label="mse = 2.25\nsamples = 2\nvalue = 21.5"] ;
6 -> 7 ;
8 [label="mse = 1.5556\nsamples = 3\nvalue = 19.3333"] ;
6 -> 8 ;
9 [label="X[0] <= 550000.0\nmse = 4.64\nsamples = 5\nvalue = 2.6"] ;
1 -> 9 ;
10 [label="mse = 0.6667\nsamples = 3\nvalue = 1.0"] ;
9 -> 10 ;
11 [label="mse = 1.0\nsamples = 2\nvalue = 5.0"] ;
9 -> 11 ;
12 [label="X[0] <= 5.5\nmse = 235.5511\nsamples = 44\nvalue = 33.75"] ;
0 -> 12 [labeldistance=2.5, labelangle=-45, headlabel="False"] ;
13 [label="X[1] <= 1.5\nmse = 5.8056\nsamples = 6\nvalue = 11.8333"] ;
12 -> 13 ;
14 [label="mse = 1.5556\nsamples = 3\nvalue = 9.6667"] ;
13 -> 14 ;
15 [label="mse = 0.6667\nsamples = 3\nvalue = 14.0"] ;
13 -> 15 ;
16 [label="X[1] <= 1.5\nmse = 184.0083\nsamples = 38\nvalue = 37.2105"] ;
12 -> 16 ;
17 [label="X[0] <= 55000.0\nmse = 265.6543\nsamples = 9\nvalue = 25.1111"] ;
16 -> 17 ;
18 [label="X[0] <= 5500.0\nmse = 93.8056\nsamples = 6\nvalue = 35.1667"] ;
17 -> 18 ;
19 [label="X[2] <= 16.5\nmse = 75.6875\nsamples = 4\nvalue = 39.75"] ;
18 -> 19 ;
20 [label="mse = 6.25\nsamples = 2\nvalue = 44.5"] ;
19 -> 20 ;
21 [label="mse = 100.0\nsamples = 2\nvalue = 35.0"] ;
19 -> 21 ;
22 [label="mse = 4.0\nsamples = 2\nvalue = 26.0"] ;
18 -> 22 ;
23 [label="mse = 2.6667\nsamples = 3\nvalue = 5.0"] ;
17 -> 23 ;
24 [label="X[1] <= 4.5\nmse = 99.1367\nsamples = 29\nvalue = 40.9655"] ;
16 -> 24 ;
25 [label="X[0] <= 55000.0\nmse = 101.9446\nsamples = 19\nvalue = 37.9474"] ;
24 -> 25 ;
26 [label="X[1] <= 2.5\nmse = 99.1598\nsamples = 13\nvalue = 41.3846"] ;
25 -> 26 ;
27 [label="X[0] <= 550.0\nmse = 58.9167\nsamples = 6\nvalue = 49.5"] ;
26 -> 27 ;
28 [label="mse = 49.0\nsamples = 2\nvalue = 43.0"] ;
27 -> 28 ;
29 [label="X[0] <= 5500.0\nmse = 32.1875\nsamples = 4\nvalue = 52.75"] ;
27 -> 29 ;
30 [label="mse = 0.25\nsamples = 2\nvalue = 56.5"] ;
29 -> 30 ;
31 [label="mse = 36.0\nsamples = 2\nvalue = 49.0"] ;
29 -> 31 ;
32 [label="X[0] <= 55.0\nmse = 28.8163\nsamples = 7\nvalue = 34.4286"] ;
26 -> 32 ;
33 [label="mse = 2.25\nsamples = 2\nvalue = 27.5"] ;
32 -> 33 ;
34 [label="X[0] <= 5500.0\nmse = 12.56\nsamples = 5\nvalue = 37.2"] ;
32 -> 34 ;
35 [label="mse = 0.6667\nsamples = 3\nvalue = 40.0"] ;
34 -> 35 ;
36 [label="mse = 1.0\nsamples = 2\nvalue = 33.0"] ;
34 -> 36 ;
37 [label="X[1] <= 2.5\nmse = 26.9167\nsamples = 6\nvalue = 30.5"] ;
25 -> 37 ;
38 [label="mse = 6.25\nsamples = 2\nvalue = 24.5"] ;
37 -> 38 ;
39 [label="X[0] <= 550000.0\nmse = 10.25\nsamples = 4\nvalue = 33.5"] ;
37 -> 39 ;
40 [label="mse = 6.25\nsamples = 2\nvalue = 32.5"] ;
39 -> 40 ;
41 [label="mse = 12.25\nsamples = 2\nvalue = 34.5"] ;
39 -> 41 ;
42 [label="X[2] <= 4.5\nmse = 43.61\nsamples = 10\nvalue = 46.7"] ;
24 -> 42 ;
43 [label="mse = 12.25\nsamples = 2\nvalue = 40.5"] ;
42 -> 43 ;
44 [label="X[0] <= 550.0\nmse = 39.4375\nsamples = 8\nvalue = 48.25"] ;
42 -> 44 ;
45 [label="mse = 48.2222\nsamples = 3\nvalue = 42.6667"] ;
44 -> 45 ;
46 [label="X[0] <= 55000.0\nmse = 4.24\nsamples = 5\nvalue = 51.6"] ;
44 -> 46 ;
47 [label="mse = 4.2222\nsamples = 3\nvalue = 50.6667"] ;
46 -> 47 ;
48 [label="mse = 1.0\nsamples = 2\nvalue = 53.0"] ;
46 -> 48 ;
}