digraph Tree {
node [shape=box] ;
0 [label="X[2] <= 2.0\nmse = 396.6667\nsamples = 69\nvalue = 34.0"] ;
1 [label="X[0] <= 5500.0\nmse = 95.2653\nsamples = 14\nvalue = 15.8571"] ;
0 -> 1 [labeldistance=2.5, labelangle=45, headlabel="True"] ;
2 [label="X[0] <= 55.0\nmse = 5.1389\nsamples = 6\nvalue = 25.1667"] ;
1 -> 2 ;
3 [label="mse = 4.0\nsamples = 2\nvalue = 23.0"] ;
2 -> 3 ;
4 [label="X[1] <= 4.5\nmse = 2.1875\nsamples = 4\nvalue = 26.25"] ;
2 -> 4 ;
5 [label="mse = 1.0\nsamples = 2\nvalue = 25.0"] ;
4 -> 5 ;
6 [label="mse = 0.25\nsamples = 2\nvalue = 27.5"] ;
4 -> 6 ;
7 [label="X[0] <= 550000.0\nmse = 49.1094\nsamples = 8\nvalue = 8.875"] ;
1 -> 7 ;
8 [label="X[0] <= 55000.0\nmse = 30.9167\nsamples = 6\nvalue = 6.5"] ;
7 -> 8 ;
9 [label="mse = 0.6667\nsamples = 3\nvalue = 12.0"] ;
8 -> 9 ;
10 [label="mse = 0.6667\nsamples = 3\nvalue = 1.0"] ;
8 -> 10 ;
11 [label="mse = 36.0\nsamples = 2\nvalue = 16.0"] ;
7 -> 11 ;
12 [label="X[1] <= 1.5\nmse = 368.2724\nsamples = 55\nvalue = 38.6182"] ;
0 -> 12 [labeldistance=2.5, labelangle=-45, headlabel="False"] ;
13 [label="X[0] <= 55000.0\nmse = 279.2461\nsamples = 16\nvalue = 22.4375"] ;
12 -> 13 ;
14 [label="X[0] <= 5.5\nmse = 195.49\nsamples = 10\nvalue = 32.1"] ;
13 -> 14 ;
15 [label="mse = 0.6667\nsamples = 3\nvalue = 15.0"] ;
14 -> 15 ;
16 [label="X[0] <= 55.0\nmse = 99.9592\nsamples = 7\nvalue = 39.4286"] ;
14 -> 16 ;
17 [label="mse = 1.0\nsamples = 2\nvalue = 30.0"] ;
16 -> 17 ;
18 [label="X[0] <= 5500.0\nmse = 89.76\nsamples = 5\nvalue = 43.2"] ;
16 -> 18 ;
19 [label="mse = 54.8889\nsamples = 3\nvalue = 49.3333"] ;
18 -> 19 ;
20 [label="mse = 1.0\nsamples = 2\nvalue = 34.0"] ;
18 -> 20 ;
21 [label="X[2] <= 15.0\nmse = 3.8889\nsamples = 6\nvalue = 6.3333"] ;
13 -> 21 ;
22 [label="X[2] <= 7.5\nmse = 4.6875\nsamples = 4\nvalue = 5.75"] ;
21 -> 22 ;
23 [label="mse = 4.0\nsamples = 2\nvalue = 7.0"] ;
22 -> 23 ;
24 [label="mse = 2.25\nsamples = 2\nvalue = 4.5"] ;
22 -> 24 ;
25 [label="mse = 0.25\nsamples = 2\nvalue = 7.5"] ;
21 -> 25 ;
26 [label="X[0] <= 5.5\nmse = 253.3189\nsamples = 39\nvalue = 45.2564"] ;
12 -> 26 ;
27 [label="X[2] <= 10.5\nmse = 1.25\nsamples = 4\nvalue = 18.5"] ;
26 -> 27 ;
28 [label="mse = 2.25\nsamples = 2\nvalue = 18.5"] ;
27 -> 28 ;
29 [label="mse = 0.25\nsamples = 2\nvalue = 18.5"] ;
27 -> 29 ;
30 [label="X[2] <= 4.5\nmse = 190.9584\nsamples = 35\nvalue = 48.3143"] ;
26 -> 30 ;
31 [label="X[0] <= 55000.0\nmse = 292.64\nsamples = 5\nvalue = 36.6"] ;
30 -> 31 ;
32 [label="mse = 44.6667\nsamples = 3\nvalue = 45.0"] ;
31 -> 32 ;
33 [label="mse = 400.0\nsamples = 2\nvalue = 24.0"] ;
31 -> 33 ;
34 [label="X[1] <= 4.5\nmse = 147.3289\nsamples = 30\nvalue = 50.2667"] ;
30 -> 34 ;
35 [label="X[0] <= 55000.0\nmse = 162.81\nsamples = 20\nvalue = 46.7"] ;
34 -> 35 ;
36 [label="X[1] <= 2.5\nmse = 137.8367\nsamples = 14\nvalue = 50.8571"] ;
35 -> 36 ;
37 [label="X[0] <= 550.0\nmse = 48.8056\nsamples = 6\nvalue = 61.8333"] ;
36 -> 37 ;
38 [label="mse = 25.0\nsamples = 2\nvalue = 53.0"] ;
37 -> 38 ;
39 [label="X[0] <= 5500.0\nmse = 2.1875\nsamples = 4\nvalue = 66.25"] ;
37 -> 39 ;
40 [label="mse = 0.25\nsamples = 2\nvalue = 67.5"] ;
39 -> 40 ;
41 [label="mse = 1.0\nsamples = 2\nvalue = 65.0"] ;
39 -> 41 ;
42 [label="X[0] <= 55.0\nmse = 46.4844\nsamples = 8\nvalue = 42.625"] ;
36 -> 42 ;
43 [label="mse = 1.5556\nsamples = 3\nvalue = 35.6667"] ;
42 -> 43 ;
44 [label="X[0] <= 5500.0\nmse = 26.96\nsamples = 5\nvalue = 46.8"] ;
42 -> 44 ;
45 [label="mse = 0.6667\nsamples = 3\nvalue = 51.0"] ;
44 -> 45 ;
46 [label="mse = 0.25\nsamples = 2\nvalue = 40.5"] ;
44 -> 46 ;
47 [label="X[1] <= 2.5\nmse = 86.6667\nsamples = 6\nvalue = 37.0"] ;
35 -> 47 ;
48 [label="mse = 14.8889\nsamples = 3\nvalue = 28.3333"] ;
47 -> 48 ;
49 [label="mse = 8.2222\nsamples = 3\nvalue = 45.6667"] ;
47 -> 49 ;
50 [label="X[0] <= 55.0\nmse = 40.04\nsamples = 10\nvalue = 57.4"] ;
34 -> 50 ;
51 [label="mse = 1.0\nsamples = 2\nvalue = 46.0"] ;
50 -> 51 ;
52 [label="X[2] <= 10.5\nmse = 9.1875\nsamples = 8\nvalue = 60.25"] ;
50 -> 52 ;
53 [label="mse = 6.25\nsamples = 2\nvalue = 57.5"] ;
52 -> 53 ;
54 [label="X[0] <= 5500.0\nmse = 6.8056\nsamples = 6\nvalue = 61.1667"] ;
52 -> 54 ;
55 [label="mse = 1.0\nsamples = 2\nvalue = 58.0"] ;
54 -> 55 ;
56 [label="X[2] <= 16.5\nmse = 2.1875\nsamples = 4\nvalue = 62.75"] ;
54 -> 56 ;
57 [label="mse = 0.25\nsamples = 2\nvalue = 61.5"] ;
56 -> 57 ;
58 [label="mse = 1.0\nsamples = 2\nvalue = 64.0"] ;
56 -> 58 ;
}