digraph Tree {
node [shape=box] ;
0 [label="X[2] <= 1.5\nmse = 299.9167\nsamples = 60\nvalue = 29.5"] ;
1 [label="X[0] <= 1.5\nmse = 145.28\nsamples = 25\nvalue = 17.4"] ;
0 -> 1 [labeldistance=2.5, labelangle=45, headlabel="True"] ;
2 [label="X[1] <= 1.5\nmse = 23.3554\nsamples = 11\nvalue = 29.9091"] ;
1 -> 2 ;
3 [label="X[4] <= 1536.0\nmse = 4.4722\nsamples = 6\nvalue = 33.8333"] ;
2 -> 3 ;
4 [label="mse = 0.6667\nsamples = 3\nvalue = 32.0"] ;
3 -> 4 ;
5 [label="mse = 1.5556\nsamples = 3\nvalue = 35.6667"] ;
3 -> 5 ;
6 [label="X[1] <= 2.5\nmse = 5.36\nsamples = 5\nvalue = 25.2"] ;
2 -> 6 ;
7 [label="mse = 0.25\nsamples = 2\nvalue = 22.5"] ;
6 -> 7 ;
8 [label="mse = 0.6667\nsamples = 3\nvalue = 27.0"] ;
6 -> 8 ;
9 [label="X[0] <= 2.5\nmse = 21.5306\nsamples = 14\nvalue = 7.5714"] ;
1 -> 9 ;
10 [label="X[1] <= 1.5\nmse = 15.3542\nsamples = 12\nvalue = 8.75"] ;
9 -> 10 ;
11 [label="X[4] <= 768.0\nmse = 6.2344\nsamples = 8\nvalue = 6.625"] ;
10 -> 11 ;
12 [label="X[3] <= 3145000.0\nmse = 2.1875\nsamples = 4\nvalue = 4.75"] ;
11 -> 12 ;
13 [label="mse = 0.25\nsamples = 2\nvalue = 3.5"] ;
12 -> 13 ;
14 [label="mse = 1.0\nsamples = 2\nvalue = 6.0"] ;
12 -> 14 ;
15 [label="X[3] <= 3145000.0\nmse = 3.25\nsamples = 4\nvalue = 8.5"] ;
11 -> 15 ;
16 [label="mse = 6.25\nsamples = 2\nvalue = 8.5"] ;
15 -> 16 ;
17 [label="mse = 0.25\nsamples = 2\nvalue = 8.5"] ;
15 -> 17 ;
18 [label="X[3] <= 656000.0\nmse = 6.5\nsamples = 4\nvalue = 13.0"] ;
10 -> 18 ;
19 [label="mse = 1.0\nsamples = 2\nvalue = 11.0"] ;
18 -> 19 ;
20 [label="mse = 4.0\nsamples = 2\nvalue = 15.0"] ;
18 -> 20 ;
21 [label="mse = 0.25\nsamples = 2\nvalue = 0.5"] ;
9 -> 21 ;
22 [label="X[1] <= 2.5\nmse = 231.0939\nsamples = 35\nvalue = 38.1429"] ;
0 -> 22 [labeldistance=2.5, labelangle=-45, headlabel="False"] ;
23 [label="X[0] <= 2.5\nmse = 222.6033\nsamples = 22\nvalue = 31.8182"] ;
22 -> 23 ;
24 [label="X[2] <= 6.0\nmse = 192.4949\nsamples = 14\nvalue = 39.0714"] ;
23 -> 24 ;
25 [label="X[3] <= 3145000.0\nmse = 198.4691\nsamples = 9\nvalue = 33.5556"] ;
24 -> 25 ;
26 [label="X[4] <= 768.0\nmse = 164.4898\nsamples = 7\nvalue = 29.2857"] ;
25 -> 26 ;
27 [label="X[0] <= 1.5\nmse = 40.1875\nsamples = 4\nvalue = 35.25"] ;
26 -> 27 ;
28 [label="mse = 0.25\nsamples = 2\nvalue = 40.5"] ;
27 -> 28 ;
29 [label="mse = 25.0\nsamples = 2\nvalue = 30.0"] ;
27 -> 29 ;
30 [label="mse = 219.5556\nsamples = 3\nvalue = 21.3333"] ;
26 -> 30 ;
31 [label="mse = 30.25\nsamples = 2\nvalue = 48.5"] ;
25 -> 31 ;
32 [label="X[2] <= 10.5\nmse = 28.4\nsamples = 5\nvalue = 49.0"] ;
24 -> 32 ;
33 [label="mse = 34.6667\nsamples = 3\nvalue = 51.0"] ;
32 -> 33 ;
34 [label="mse = 4.0\nsamples = 2\nvalue = 46.0"] ;
32 -> 34 ;
35 [label="X[2] <= 4.5\nmse = 22.1094\nsamples = 8\nvalue = 19.125"] ;
23 -> 35 ;
36 [label="mse = 0.6667\nsamples = 3\nvalue = 15.0"] ;
35 -> 36 ;
37 [label="X[3] <= 656000.0\nmse = 18.64\nsamples = 5\nvalue = 21.6"] ;
35 -> 37 ;
38 [label="mse = 30.25\nsamples = 2\nvalue = 24.5"] ;
37 -> 38 ;
39 [label="mse = 1.5556\nsamples = 3\nvalue = 19.6667"] ;
37 -> 39 ;
40 [label="X[2] <= 7.5\nmse = 63.2071\nsamples = 13\nvalue = 48.8462"] ;
22 -> 40 ;
41 [label="X[0] <= 1.5\nmse = 56.6939\nsamples = 7\nvalue = 43.8571"] ;
40 -> 41 ;
42 [label="X[2] <= 2.5\nmse = 8.1875\nsamples = 4\nvalue = 49.25"] ;
41 -> 42 ;
43 [label="mse = 0.25\nsamples = 2\nvalue = 46.5"] ;
42 -> 43 ;
44 [label="mse = 1.0\nsamples = 2\nvalue = 52.0"] ;
42 -> 44 ;
45 [label="mse = 30.8889\nsamples = 3\nvalue = 36.6667"] ;
41 -> 45 ;
46 [label="X[3] <= 7870000.0\nmse = 7.8889\nsamples = 6\nvalue = 54.6667"] ;
40 -> 46 ;
47 [label="mse = 0.6667\nsamples = 3\nvalue = 57.0"] ;
46 -> 47 ;
48 [label="mse = 4.2222\nsamples = 3\nvalue = 52.3333"] ;
46 -> 48 ;
}