digraph Tree {
node [shape=box] ;
0 [label="X[2] <= 2.5\nmse = 74.9167\nsamples = 30\nvalue = 14.5"] ;
1 [label="X[0] <= 1.5\nmse = 31.3889\nsamples = 12\nvalue = 7.3333"] ;
0 -> 1 [labeldistance=2.5, labelangle=45, headlabel="True"] ;
2 [label="X[2] <= 1.5\nmse = 6.64\nsamples = 5\nvalue = 13.4"] ;
1 -> 2 ;
3 [label="mse = 0.25\nsamples = 2\nvalue = 10.5"] ;
2 -> 3 ;
4 [label="mse = 1.5556\nsamples = 3\nvalue = 15.3333"] ;
2 -> 4 ;
5 [label="X[0] <= 2.5\nmse = 4.0\nsamples = 7\nvalue = 3.0"] ;
1 -> 5 ;
6 [label="mse = 0.25\nsamples = 2\nvalue = 5.5"] ;
5 -> 6 ;
7 [label="X[4] <= 1536.0\nmse = 2.0\nsamples = 5\nvalue = 2.0"] ;
5 -> 7 ;
8 [label="mse = 1.5556\nsamples = 3\nvalue = 1.6667"] ;
7 -> 8 ;
9 [label="mse = 2.25\nsamples = 2\nvalue = 2.5"] ;
7 -> 9 ;
10 [label="X[0] <= 1.5\nmse = 46.8673\nsamples = 18\nvalue = 19.2778"] ;
0 -> 10 [labeldistance=2.5, labelangle=-45, headlabel="False"] ;
11 [label="X[1] <= 4.0\nmse = 7.3594\nsamples = 8\nvalue = 24.875"] ;
10 -> 11 ;
12 [label="X[1] <= 1.5\nmse = 4.6667\nsamples = 6\nvalue = 26.0"] ;
11 -> 12 ;
13 [label="mse = 0.6667\nsamples = 3\nvalue = 24.0"] ;
12 -> 13 ;
14 [label="mse = 0.6667\nsamples = 3\nvalue = 28.0"] ;
12 -> 14 ;
15 [label="mse = 0.25\nsamples = 2\nvalue = 21.5"] ;
11 -> 15 ;
16 [label="X[1] <= 1.5\nmse = 33.36\nsamples = 10\nvalue = 14.8"] ;
10 -> 16 ;
17 [label="X[4] <= 768.0\nmse = 19.25\nsamples = 4\nvalue = 10.5"] ;
16 -> 17 ;
18 [label="mse = 20.25\nsamples = 2\nvalue = 13.5"] ;
17 -> 18 ;
19 [label="mse = 0.25\nsamples = 2\nvalue = 7.5"] ;
17 -> 19 ;
20 [label="X[2] <= 10.5\nmse = 22.2222\nsamples = 6\nvalue = 17.6667"] ;
16 -> 20 ;
21 [label="X[3] <= 656000.0\nmse = 7.5\nsamples = 4\nvalue = 15.0"] ;
20 -> 21 ;
22 [label="mse = 0.25\nsamples = 2\nvalue = 12.5"] ;
21 -> 22 ;
23 [label="mse = 2.25\nsamples = 2\nvalue = 17.5"] ;
21 -> 23 ;
24 [label="mse = 9.0\nsamples = 2\nvalue = 23.0"] ;
20 -> 24 ;
}