digraph Tree {
node [shape=box] ;
0 [label="X[0] <= 30500.0\nmse = 1220.0\nsamples = 121\nvalue = 60.0"] ;
1 [label="X[0] <= 6.5\nmse = 74.9167\nsamples = 30\nvalue = 105.5"] ;
0 -> 1 [labeldistance=2.5, labelangle=45, headlabel="True"] ;
2 [label="X[1] <= 3.0\nmse = 41.1389\nsamples = 18\nvalue = 110.8333"] ;
1 -> 2 ;
3 [label="X[1] <= 1.5\nmse = 21.0\nsamples = 8\nvalue = 105.0"] ;
2 -> 3 ;
4 [label="X[0] <= 5.5\nmse = 17.84\nsamples = 5\nvalue = 102.6"] ;
3 -> 4 ;
5 [label="mse = 4.6667\nsamples = 3\nvalue = 105.0"] ;
4 -> 5 ;
6 [label="mse = 16.0\nsamples = 2\nvalue = 99.0"] ;
4 -> 6 ;
7 [label="mse = 0.6667\nsamples = 3\nvalue = 109.0"] ;
3 -> 7 ;
8 [label="X[0] <= 5.0\nmse = 8.25\nsamples = 10\nvalue = 115.5"] ;
2 -> 8 ;
9 [label="X[2] <= 9.5\nmse = 7.2222\nsamples = 6\nvalue = 114.3333"] ;
8 -> 9 ;
10 [label="mse = 0.6667\nsamples = 3\nvalue = 112.0"] ;
9 -> 10 ;
11 [label="mse = 2.8889\nsamples = 3\nvalue = 116.6667"] ;
9 -> 11 ;
12 [label="X[1] <= 5.5\nmse = 4.6875\nsamples = 4\nvalue = 117.25"] ;
8 -> 12 ;
13 [label="mse = 4.0\nsamples = 2\nvalue = 116.0"] ;
12 -> 13 ;
14 [label="mse = 2.25\nsamples = 2\nvalue = 118.5"] ;
12 -> 14 ;
15 [label="X[2] <= 10.5\nmse = 18.9167\nsamples = 12\nvalue = 97.5"] ;
1 -> 15 ;
16 [label="mse = 0.6667\nsamples = 3\nvalue = 92.0"] ;
15 -> 16 ;
17 [label="X[1] <= 2.5\nmse = 11.5556\nsamples = 9\nvalue = 99.3333"] ;
15 -> 17 ;
18 [label="mse = 8.2222\nsamples = 3\nvalue = 97.3333"] ;
17 -> 18 ;
19 [label="X[1] <= 3.5\nmse = 10.2222\nsamples = 6\nvalue = 100.3333"] ;
17 -> 19 ;
20 [label="mse = 0.25\nsamples = 2\nvalue = 104.5"] ;
19 -> 20 ;
21 [label="X[0] <= 9.5\nmse = 2.1875\nsamples = 4\nvalue = 98.25"] ;
19 -> 21 ;
22 [label="mse = 2.25\nsamples = 2\nvalue = 97.5"] ;
21 -> 22 ;
23 [label="mse = 1.0\nsamples = 2\nvalue = 99.0"] ;
21 -> 23 ;
24 [label="X[1] <= 3.5\nmse = 690.0\nsamples = 91\nvalue = 45.0"] ;
0 -> 24 [labeldistance=2.5, labelangle=-45, headlabel="False"] ;
25 [label="X[2] <= 2.5\nmse = 540.8025\nsamples = 54\nvalue = 34.5556"] ;
24 -> 25 ;
26 [label="X[2] <= 1.5\nmse = 82.6667\nsamples = 6\nvalue = 11.0"] ;
25 -> 26 ;
27 [label="mse = 73.5556\nsamples = 3\nvalue = 17.6667"] ;
26 -> 27 ;
28 [label="mse = 2.8889\nsamples = 3\nvalue = 4.3333"] ;
26 -> 28 ;
29 [label="X[1] <= 2.5\nmse = 520.0417\nsamples = 48\nvalue = 37.5"] ;
25 -> 29 ;
30 [label="X[2] <= 4.5\nmse = 427.0459\nsamples = 32\nvalue = 31.7812"] ;
29 -> 30 ;
31 [label="X[2] <= 3.5\nmse = 622.25\nsamples = 4\nvalue = 47.5"] ;
30 -> 31 ;
32 [label="mse = 90.25\nsamples = 2\nvalue = 23.5"] ;
31 -> 32 ;
33 [label="mse = 2.25\nsamples = 2\nvalue = 71.5"] ;
31 -> 33 ;
34 [label="X[2] <= 14.5\nmse = 358.8202\nsamples = 28\nvalue = 29.5357"] ;
30 -> 34 ;
35 [label="X[2] <= 8.5\nmse = 273.7475\nsamples = 20\nvalue = 25.45"] ;
34 -> 35 ;
36 [label="X[2] <= 6.5\nmse = 267.1094\nsamples = 8\nvalue = 34.125"] ;
35 -> 36 ;
37 [label="X[2] <= 5.5\nmse = 185.1875\nsamples = 4\nvalue = 21.25"] ;
36 -> 37 ;
38 [label="mse = 25.0\nsamples = 2\nvalue = 14.0"] ;
37 -> 38 ;
39 [label="mse = 240.25\nsamples = 2\nvalue = 28.5"] ;
37 -> 39 ;
40 [label="X[2] <= 7.5\nmse = 17.5\nsamples = 4\nvalue = 47.0"] ;
36 -> 40 ;
41 [label="mse = 2.25\nsamples = 2\nvalue = 49.5"] ;
40 -> 41 ;
42 [label="mse = 20.25\nsamples = 2\nvalue = 44.5"] ;
40 -> 42 ;
43 [label="X[2] <= 10.5\nmse = 194.5556\nsamples = 12\nvalue = 19.6667"] ;
35 -> 43 ;
44 [label="X[1] <= 1.5\nmse = 165.6875\nsamples = 4\nvalue = 11.25"] ;
43 -> 44 ;
45 [label="mse = 100.0\nsamples = 2\nvalue = 22.0"] ;
44 -> 45 ;
46 [label="mse = 0.25\nsamples = 2\nvalue = 0.5"] ;
44 -> 46 ;
47 [label="X[2] <= 13.5\nmse = 155.8594\nsamples = 8\nvalue = 23.875"] ;
43 -> 47 ;
48 [label="X[2] <= 12.5\nmse = 128.2222\nsamples = 6\nvalue = 28.3333"] ;
47 -> 48 ;
49 [label="X[2] <= 11.5\nmse = 162.1875\nsamples = 4\nvalue = 25.75"] ;
48 -> 49 ;
50 [label="mse = 110.25\nsamples = 2\nvalue = 30.5"] ;
49 -> 50 ;
51 [label="mse = 169.0\nsamples = 2\nvalue = 21.0"] ;
49 -> 51 ;
52 [label="mse = 20.25\nsamples = 2\nvalue = 33.5"] ;
48 -> 52 ;
53 [label="mse = 0.25\nsamples = 2\nvalue = 10.5"] ;
47 -> 53 ;
54 [label="X[1] <= 1.5\nmse = 425.4375\nsamples = 8\nvalue = 39.75"] ;
34 -> 54 ;
55 [label="X[2] <= 16.5\nmse = 535.25\nsamples = 4\nvalue = 28.5"] ;
54 -> 55 ;
56 [label="mse = 182.25\nsamples = 2\nvalue = 16.5"] ;
55 -> 56 ;
57 [label="mse = 600.25\nsamples = 2\nvalue = 40.5"] ;
55 -> 57 ;
58 [label="X[2] <= 16.5\nmse = 62.5\nsamples = 4\nvalue = 51.0"] ;
54 -> 58 ;
59 [label="mse = 49.0\nsamples = 2\nvalue = 57.0"] ;
58 -> 59 ;
60 [label="mse = 4.0\nsamples = 2\nvalue = 45.0"] ;
58 -> 60 ;
61 [label="X[2] <= 12.5\nmse = 509.8086\nsamples = 16\nvalue = 48.9375"] ;
29 -> 61 ;
62 [label="X[2] <= 4.5\nmse = 477.24\nsamples = 10\nvalue = 42.4"] ;
61 -> 62 ;
63 [label="mse = 56.25\nsamples = 2\nvalue = 63.5"] ;
62 -> 63 ;
64 [label="X[2] <= 9.5\nmse = 443.3594\nsamples = 8\nvalue = 37.125"] ;
62 -> 64 ;
65 [label="X[2] <= 7.5\nmse = 320.64\nsamples = 5\nvalue = 42.4"] ;
64 -> 65 ;
66 [label="mse = 312.0\nsamples = 3\nvalue = 33.0"] ;
65 -> 66 ;
67 [label="mse = 2.25\nsamples = 2\nvalue = 56.5"] ;
65 -> 67 ;
68 [label="mse = 524.2222\nsamples = 3\nvalue = 28.3333"] ;
64 -> 68 ;
69 [label="X[2] <= 15.5\nmse = 374.1389\nsamples = 6\nvalue = 59.8333"] ;
61 -> 69 ;
70 [label="mse = 141.5556\nsamples = 3\nvalue = 68.6667"] ;
69 -> 70 ;
71 [label="mse = 450.6667\nsamples = 3\nvalue = 51.0"] ;
69 -> 71 ;
72 [label="X[2] <= 3.5\nmse = 516.1841\nsamples = 37\nvalue = 60.2432"] ;
24 -> 72 ;
73 [label="X[1] <= 4.5\nmse = 242.1389\nsamples = 6\nvalue = 37.1667"] ;
72 -> 73 ;
74 [label="mse = 352.8889\nsamples = 3\nvalue = 44.3333"] ;
73 -> 74 ;
75 [label="mse = 28.6667\nsamples = 3\nvalue = 30.0"] ;
73 -> 75 ;
76 [label="X[2] <= 16.5\nmse = 446.206\nsamples = 31\nvalue = 64.7097"] ;
72 -> 76 ;
77 [label="X[2] <= 5.5\nmse = 368.6686\nsamples = 26\nvalue = 67.8462"] ;
76 -> 77 ;
78 [label="X[2] <= 4.5\nmse = 121.6875\nsamples = 4\nvalue = 59.25"] ;
77 -> 78 ;
79 [label="mse = 121.0\nsamples = 2\nvalue = 65.0"] ;
78 -> 79 ;
80 [label="mse = 56.25\nsamples = 2\nvalue = 53.5"] ;
78 -> 80 ;
81 [label="X[2] <= 10.5\nmse = 397.6963\nsamples = 22\nvalue = 69.4091"] ;
77 -> 81 ;
82 [label="X[2] <= 8.5\nmse = 191.09\nsamples = 10\nvalue = 75.9"] ;
81 -> 82 ;
83 [label="X[2] <= 6.5\nmse = 261.4722\nsamples = 6\nvalue = 71.8333"] ;
82 -> 83 ;
84 [label="mse = 4.0\nsamples = 2\nvalue = 84.0"] ;
83 -> 84 ;
85 [label="X[1] <= 4.5\nmse = 279.1875\nsamples = 4\nvalue = 65.75"] ;
83 -> 85 ;
86 [label="mse = 256.0\nsamples = 2\nvalue = 58.0"] ;
85 -> 86 ;
87 [label="mse = 182.25\nsamples = 2\nvalue = 73.5"] ;
85 -> 87 ;
88 [label="X[2] <= 9.5\nmse = 23.5\nsamples = 4\nvalue = 82.0"] ;
82 -> 88 ;
89 [label="mse = 6.25\nsamples = 2\nvalue = 86.5"] ;
88 -> 89 ;
90 [label="mse = 0.25\nsamples = 2\nvalue = 77.5"] ;
88 -> 90 ;
91 [label="X[2] <= 11.5\nmse = 505.5\nsamples = 12\nvalue = 64.0"] ;
81 -> 91 ;
92 [label="mse = 49.0\nsamples = 2\nvalue = 46.0"] ;
91 -> 92 ;
93 [label="X[2] <= 12.5\nmse = 519.04\nsamples = 10\nvalue = 67.6"] ;
91 -> 93 ;
94 [label="mse = 121.0\nsamples = 2\nvalue = 79.0"] ;
93 -> 94 ;
95 [label="X[2] <= 13.5\nmse = 577.9375\nsamples = 8\nvalue = 64.75"] ;
93 -> 95 ;
96 [label="mse = 462.25\nsamples = 2\nvalue = 47.5"] ;
95 -> 96 ;
97 [label="X[2] <= 14.5\nmse = 484.25\nsamples = 6\nvalue = 70.5"] ;
95 -> 97 ;
98 [label="mse = 6.25\nsamples = 2\nvalue = 85.5"] ;
97 -> 98 ;
99 [label="X[1] <= 4.5\nmse = 554.5\nsamples = 4\nvalue = 63.0"] ;
97 -> 99 ;
100 [label="mse = 132.25\nsamples = 2\nvalue = 73.5"] ;
99 -> 100 ;
101 [label="mse = 756.25\nsamples = 2\nvalue = 52.5"] ;
99 -> 101 ;
102 [label="X[1] <= 4.5\nmse = 532.24\nsamples = 5\nvalue = 48.4"] ;
76 -> 102 ;
103 [label="mse = 2.25\nsamples = 2\nvalue = 64.5"] ;
102 -> 103 ;
104 [label="mse = 597.5556\nsamples = 3\nvalue = 37.6667"] ;
102 -> 104 ;
}