digraph Tree {
node [shape=box] ;
0 [label="X[0] <= 35000.0\nmse = 850.0\nsamples = 101\nvalue = 50.0"] ;
1 [label="X[0] <= 7.0\nmse = 107.9167\nsamples = 36\nvalue = 82.5"] ;
0 -> 1 [labeldistance=2.5, labelangle=45, headlabel="True"] ;
2 [label="X[1] <= 1.5\nmse = 33.4256\nsamples = 17\nvalue = 91.5294"] ;
1 -> 2 ;
3 [label="X[2] <= 9.0\nmse = 13.8056\nsamples = 6\nvalue = 85.1667"] ;
2 -> 3 ;
4 [label="mse = 6.25\nsamples = 2\nvalue = 80.5"] ;
3 -> 4 ;
5 [label="X[0] <= 4.5\nmse = 1.25\nsamples = 4\nvalue = 87.5"] ;
3 -> 5 ;
6 [label="mse = 0.25\nsamples = 2\nvalue = 88.5"] ;
5 -> 6 ;
7 [label="mse = 0.25\nsamples = 2\nvalue = 86.5"] ;
5 -> 7 ;
8 [label="X[1] <= 2.5\nmse = 10.0\nsamples = 11\nvalue = 95.0"] ;
2 -> 8 ;
9 [label="X[0] <= 2.5\nmse = 2.96\nsamples = 5\nvalue = 92.2"] ;
8 -> 9 ;
10 [label="mse = 1.0\nsamples = 2\nvalue = 91.0"] ;
9 -> 10 ;
11 [label="mse = 2.6667\nsamples = 3\nvalue = 93.0"] ;
9 -> 11 ;
12 [label="X[2] <= 12.0\nmse = 3.8889\nsamples = 6\nvalue = 97.3333"] ;
8 -> 12 ;
13 [label="X[2] <= 6.5\nmse = 2.1875\nsamples = 4\nvalue = 96.25"] ;
12 -> 13 ;
14 [label="mse = 0.25\nsamples = 2\nvalue = 97.5"] ;
13 -> 14 ;
15 [label="mse = 1.0\nsamples = 2\nvalue = 95.0"] ;
13 -> 15 ;
16 [label="mse = 0.25\nsamples = 2\nvalue = 99.5"] ;
12 -> 16 ;
17 [label="X[0] <= 5500.0\nmse = 36.349\nsamples = 19\nvalue = 74.4211"] ;
1 -> 17 ;
18 [label="X[1] <= 2.5\nmse = 10.7654\nsamples = 9\nvalue = 79.8889"] ;
17 -> 18 ;
19 [label="X[0] <= 9.5\nmse = 3.5\nsamples = 4\nvalue = 77.0"] ;
18 -> 19 ;
20 [label="mse = 4.0\nsamples = 2\nvalue = 78.0"] ;
19 -> 20 ;
21 [label="mse = 1.0\nsamples = 2\nvalue = 76.0"] ;
19 -> 21 ;
22 [label="X[2] <= 11.5\nmse = 4.56\nsamples = 5\nvalue = 82.2"] ;
18 -> 22 ;
23 [label="mse = 4.2222\nsamples = 3\nvalue = 81.3333"] ;
22 -> 23 ;
24 [label="mse = 2.25\nsamples = 2\nvalue = 83.5"] ;
22 -> 24 ;
25 [label="X[1] <= 1.5\nmse = 8.25\nsamples = 10\nvalue = 69.5"] ;
17 -> 25 ;
26 [label="X[2] <= 9.0\nmse = 3.5\nsamples = 4\nvalue = 67.0"] ;
25 -> 26 ;
27 [label="mse = 2.25\nsamples = 2\nvalue = 68.5"] ;
26 -> 27 ;
28 [label="mse = 0.25\nsamples = 2\nvalue = 65.5"] ;
26 -> 28 ;
29 [label="X[2] <= 7.0\nmse = 4.4722\nsamples = 6\nvalue = 71.1667"] ;
25 -> 29 ;
30 [label="mse = 1.0\nsamples = 2\nvalue = 72.0"] ;
29 -> 30 ;
31 [label="X[2] <= 14.0\nmse = 5.6875\nsamples = 4\nvalue = 70.75"] ;
29 -> 31 ;
32 [label="mse = 9.0\nsamples = 2\nvalue = 71.0"] ;
31 -> 32 ;
33 [label="mse = 2.25\nsamples = 2\nvalue = 70.5"] ;
31 -> 33 ;
34 [label="X[1] <= 2.5\nmse = 352.0\nsamples = 65\nvalue = 32.0"] ;
0 -> 34 [labeldistance=2.5, labelangle=-45, headlabel="False"] ;
35 [label="X[2] <= 2.5\nmse = 223.4767\nsamples = 30\nvalue = 21.7"] ;
34 -> 35 ;
36 [label="mse = 0.25\nsamples = 2\nvalue = 2.5"] ;
35 -> 36 ;
37 [label="X[2] <= 4.5\nmse = 211.2092\nsamples = 28\nvalue = 23.0714"] ;
35 -> 37 ;
38 [label="X[2] <= 3.5\nmse = 322.5\nsamples = 4\nvalue = 33.0"] ;
37 -> 38 ;
39 [label="mse = 30.25\nsamples = 2\nvalue = 15.5"] ;
38 -> 39 ;
40 [label="mse = 2.25\nsamples = 2\nvalue = 50.5"] ;
38 -> 40 ;
41 [label="X[2] <= 14.5\nmse = 173.4931\nsamples = 24\nvalue = 21.4167"] ;
37 -> 41 ;
42 [label="X[2] <= 13.5\nmse = 123.1211\nsamples = 16\nvalue = 18.5625"] ;
41 -> 42 ;
43 [label="X[2] <= 5.5\nmse = 116.9184\nsamples = 14\nvalue = 20.2857"] ;
42 -> 43 ;
44 [label="mse = 20.25\nsamples = 2\nvalue = 9.5"] ;
43 -> 44 ;
45 [label="X[2] <= 8.5\nmse = 110.4097\nsamples = 12\nvalue = 22.0833"] ;
43 -> 45 ;
46 [label="X[2] <= 6.5\nmse = 104.96\nsamples = 5\nvalue = 28.8"] ;
45 -> 46 ;
47 [label="mse = 100.0\nsamples = 2\nvalue = 19.0"] ;
46 -> 47 ;
48 [label="mse = 1.5556\nsamples = 3\nvalue = 35.3333"] ;
46 -> 48 ;
49 [label="X[2] <= 10.5\nmse = 59.0612\nsamples = 7\nvalue = 17.2857"] ;
45 -> 49 ;
50 [label="mse = 36.0\nsamples = 2\nvalue = 14.0"] ;
49 -> 50 ;
51 [label="X[2] <= 12.5\nmse = 62.24\nsamples = 5\nvalue = 18.6"] ;
49 -> 51 ;
52 [label="mse = 91.5556\nsamples = 3\nvalue = 17.3333"] ;
51 -> 52 ;
53 [label="mse = 12.25\nsamples = 2\nvalue = 20.5"] ;
51 -> 53 ;
54 [label="mse = 0.25\nsamples = 2\nvalue = 6.5"] ;
42 -> 54 ;
55 [label="X[1] <= 1.5\nmse = 225.3594\nsamples = 8\nvalue = 27.125"] ;
41 -> 55 ;
56 [label="X[2] <= 16.5\nmse = 285.0\nsamples = 4\nvalue = 19.0"] ;
55 -> 56 ;
57 [label="mse = 81.0\nsamples = 2\nvalue = 9.0"] ;
56 -> 57 ;
58 [label="mse = 289.0\nsamples = 2\nvalue = 29.0"] ;
56 -> 58 ;
59 [label="X[2] <= 16.5\nmse = 33.6875\nsamples = 4\nvalue = 35.25"] ;
55 -> 59 ;
60 [label="mse = 16.0\nsamples = 2\nvalue = 40.0"] ;
59 -> 60 ;
61 [label="mse = 6.25\nsamples = 2\nvalue = 30.5"] ;
59 -> 61 ;
62 [label="X[2] <= 13.5\nmse = 293.2849\nsamples = 35\nvalue = 40.8286"] ;
34 -> 62 ;
63 [label="X[2] <= 11.5\nmse = 307.1672\nsamples = 26\nvalue = 36.4231"] ;
62 -> 63 ;
64 [label="X[2] <= 1.5\nmse = 266.8393\nsamples = 23\nvalue = 38.8261"] ;
63 -> 64 ;
65 [label="mse = 27.5556\nsamples = 3\nvalue = 20.3333"] ;
64 -> 65 ;
66 [label="X[1] <= 3.5\nmse = 243.74\nsamples = 20\nvalue = 41.6"] ;
64 -> 66 ;
67 [label="X[2] <= 4.5\nmse = 187.6735\nsamples = 7\nvalue = 34.4286"] ;
66 -> 67 ;
68 [label="mse = 25.0\nsamples = 2\nvalue = 45.0"] ;
67 -> 68 ;
69 [label="X[2] <= 7.5\nmse = 190.16\nsamples = 5\nvalue = 30.2"] ;
67 -> 69 ;
70 [label="mse = 184.6667\nsamples = 3\nvalue = 23.0"] ;
69 -> 70 ;
71 [label="mse = 4.0\nsamples = 2\nvalue = 41.0"] ;
69 -> 71 ;
72 [label="X[2] <= 7.5\nmse = 231.3254\nsamples = 13\nvalue = 45.4615"] ;
66 -> 72 ;
73 [label="X[1] <= 5.5\nmse = 272.0988\nsamples = 9\nvalue = 42.1111"] ;
72 -> 73 ;
74 [label="X[2] <= 3.5\nmse = 223.8056\nsamples = 6\nvalue = 37.1667"] ;
73 -> 74 ;
75 [label="mse = 30.25\nsamples = 2\nvalue = 24.5"] ;
74 -> 75 ;
76 [label="X[2] <= 5.5\nmse = 200.25\nsamples = 4\nvalue = 43.5"] ;
74 -> 76 ;
77 [label="mse = 144.0\nsamples = 2\nvalue = 44.0"] ;
76 -> 77 ;
78 [label="mse = 256.0\nsamples = 2\nvalue = 43.0"] ;
76 -> 78 ;
79 [label="mse = 222.0\nsamples = 3\nvalue = 52.0"] ;
73 -> 79 ;
80 [label="X[1] <= 5.0\nmse = 57.5\nsamples = 4\nvalue = 53.0"] ;
72 -> 80 ;
81 [label="mse = 16.0\nsamples = 2\nvalue = 58.0"] ;
80 -> 81 ;
82 [label="mse = 49.0\nsamples = 2\nvalue = 48.0"] ;
80 -> 82 ;
83 [label="mse = 232.6667\nsamples = 3\nvalue = 18.0"] ;
63 -> 83 ;
84 [label="X[1] <= 5.0\nmse = 35.1358\nsamples = 9\nvalue = 53.5556"] ;
62 -> 84 ;
85 [label="X[2] <= 16.5\nmse = 26.5556\nsamples = 6\nvalue = 56.3333"] ;
84 -> 85 ;
86 [label="X[1] <= 3.5\nmse = 13.6875\nsamples = 4\nvalue = 58.25"] ;
85 -> 86 ;
87 [label="mse = 4.0\nsamples = 2\nvalue = 55.0"] ;
86 -> 87 ;
88 [label="mse = 2.25\nsamples = 2\nvalue = 61.5"] ;
86 -> 88 ;
89 [label="mse = 30.25\nsamples = 2\nvalue = 52.5"] ;
85 -> 89 ;
90 [label="mse = 6.0\nsamples = 3\nvalue = 48.0"] ;
84 -> 90 ;
}