digraph Tree {
node [shape=box] ;
0 [label="X[0] <= 550.0\nmse = 176.25\nsamples = 46\nvalue = 22.5"] ;
1 [label="X[2] <= 8.5\nmse = 56.25\nsamples = 26\nvalue = 32.5"] ;
0 -> 1 [labeldistance=2.5, labelangle=45, headlabel="True"] ;
2 [label="X[2] <= 2.5\nmse = 14.0\nsamples = 13\nvalue = 26.0"] ;
1 -> 2 ;
3 [label="X[2] <= 1.5\nmse = 2.0\nsamples = 5\nvalue = 22.0"] ;
2 -> 3 ;
4 [label="mse = 0.6667\nsamples = 3\nvalue = 21.0"] ;
3 -> 4 ;
5 [label="mse = 0.25\nsamples = 2\nvalue = 23.5"] ;
3 -> 5 ;
6 [label="X[1] <= 4.5\nmse = 5.25\nsamples = 8\nvalue = 28.5"] ;
2 -> 6 ;
7 [label="X[2] <= 5.0\nmse = 5.1875\nsamples = 4\nvalue = 29.75"] ;
6 -> 7 ;
8 [label="mse = 4.0\nsamples = 2\nvalue = 28.0"] ;
7 -> 8 ;
9 [label="mse = 0.25\nsamples = 2\nvalue = 31.5"] ;
7 -> 9 ;
10 [label="X[2] <= 5.0\nmse = 2.1875\nsamples = 4\nvalue = 27.25"] ;
6 -> 10 ;
11 [label="mse = 2.25\nsamples = 2\nvalue = 26.5"] ;
10 -> 11 ;
12 [label="mse = 1.0\nsamples = 2\nvalue = 28.0"] ;
10 -> 12 ;
13 [label="X[1] <= 2.5\nmse = 14.0\nsamples = 13\nvalue = 39.0"] ;
1 -> 13 ;
14 [label="mse = 1.5556\nsamples = 3\nvalue = 34.3333"] ;
13 -> 14 ;
15 [label="X[2] <= 10.5\nmse = 9.24\nsamples = 10\nvalue = 40.4"] ;
13 -> 15 ;
16 [label="mse = 1.0\nsamples = 2\nvalue = 36.0"] ;
15 -> 16 ;
17 [label="X[2] <= 16.5\nmse = 5.25\nsamples = 8\nvalue = 41.5"] ;
15 -> 17 ;
18 [label="X[0] <= 8.5\nmse = 3.8889\nsamples = 6\nvalue = 40.6667"] ;
17 -> 18 ;
19 [label="mse = 0.6667\nsamples = 3\nvalue = 39.0"] ;
18 -> 19 ;
20 [label="mse = 1.5556\nsamples = 3\nvalue = 42.3333"] ;
18 -> 20 ;
21 [label="mse = 1.0\nsamples = 2\nvalue = 44.0"] ;
17 -> 21 ;
22 [label="X[0] <= 5500.0\nmse = 33.25\nsamples = 20\nvalue = 9.5"] ;
0 -> 22 [labeldistance=2.5, labelangle=-45, headlabel="False"] ;
23 [label="X[1] <= 2.5\nmse = 1.25\nsamples = 4\nvalue = 17.5"] ;
22 -> 23 ;
24 [label="mse = 1.0\nsamples = 2\nvalue = 17.0"] ;
23 -> 24 ;
25 [label="mse = 1.0\nsamples = 2\nvalue = 18.0"] ;
23 -> 25 ;
26 [label="X[1] <= 1.5\nmse = 21.25\nsamples = 16\nvalue = 7.5"] ;
22 -> 26 ;
27 [label="X[2] <= 14.5\nmse = 24.4691\nsamples = 9\nvalue = 5.5556"] ;
26 -> 27 ;
28 [label="X[2] <= 12.5\nmse = 32.2222\nsamples = 6\nvalue = 6.6667"] ;
27 -> 28 ;
29 [label="X[2] <= 7.0\nmse = 35.5\nsamples = 4\nvalue = 5.0"] ;
28 -> 29 ;
30 [label="mse = 56.25\nsamples = 2\nvalue = 7.5"] ;
29 -> 30 ;
31 [label="mse = 2.25\nsamples = 2\nvalue = 2.5"] ;
29 -> 31 ;
32 [label="mse = 9.0\nsamples = 2\nvalue = 10.0"] ;
28 -> 32 ;
33 [label="mse = 1.5556\nsamples = 3\nvalue = 3.3333"] ;
27 -> 33 ;
34 [label="X[2] <= 14.5\nmse = 6.0\nsamples = 7\nvalue = 10.0"] ;
26 -> 34 ;
35 [label="X[2] <= 11.0\nmse = 2.96\nsamples = 5\nvalue = 8.8"] ;
34 -> 35 ;
36 [label="mse = 6.25\nsamples = 2\nvalue = 8.5"] ;
35 -> 36 ;
37 [label="mse = 0.6667\nsamples = 3\nvalue = 9.0"] ;
35 -> 37 ;
38 [label="mse = 1.0\nsamples = 2\nvalue = 13.0"] ;
34 -> 38 ;
}