digraph Tree {
node [shape=box] ;
0 [label="X[0] <= 5500.0\nmse = 10620.6667\nsamples = 357\nvalue = 178.0"] ;
1 [label="X[0] <= 550.0\nmse = 1656.6667\nsamples = 141\nvalue = 286.0"] ;
0 -> 1 [labeldistance=2.5, labelangle=45, headlabel="True"] ;
2 [label="X[0] <= 6.5\nmse = 90.6667\nsamples = 33\nvalue = 340.0"] ;
1 -> 2 ;
3 [label="X[1] <= 1.5\nmse = 36.4622\nsamples = 15\nvalue = 347.9333"] ;
2 -> 3 ;
4 [label="X[0] <= 4.5\nmse = 16.56\nsamples = 5\nvalue = 340.8"] ;
3 -> 4 ;
5 [label="mse = 2.8889\nsamples = 3\nvalue = 337.6667"] ;
4 -> 5 ;
6 [label="mse = 0.25\nsamples = 2\nvalue = 345.5"] ;
4 -> 6 ;
7 [label="X[1] <= 2.5\nmse = 8.25\nsamples = 10\nvalue = 351.5"] ;
3 -> 7 ;
8 [label="mse = 1.0\nsamples = 2\nvalue = 348.0"] ;
7 -> 8 ;
9 [label="X[0] <= 3.0\nmse = 6.2344\nsamples = 8\nvalue = 352.375"] ;
7 -> 9 ;
10 [label="X[1] <= 3.5\nmse = 2.1875\nsamples = 4\nvalue = 350.25"] ;
9 -> 10 ;
11 [label="mse = 2.25\nsamples = 2\nvalue = 349.5"] ;
10 -> 11 ;
12 [label="mse = 1.0\nsamples = 2\nvalue = 351.0"] ;
10 -> 12 ;
13 [label="X[0] <= 5.5\nmse = 1.25\nsamples = 4\nvalue = 354.5"] ;
9 -> 13 ;
14 [label="mse = 0.25\nsamples = 2\nvalue = 355.5"] ;
13 -> 14 ;
15 [label="mse = 0.25\nsamples = 2\nvalue = 353.5"] ;
13 -> 15 ;
16 [label="X[1] <= 2.5\nmse = 39.6821\nsamples = 18\nvalue = 333.3889"] ;
2 -> 16 ;
17 [label="X[1] <= 1.5\nmse = 9.4375\nsamples = 8\nvalue = 328.25"] ;
16 -> 17 ;
18 [label="X[2] <= 9.5\nmse = 2.96\nsamples = 5\nvalue = 326.2"] ;
17 -> 18 ;
19 [label="mse = 0.25\nsamples = 2\nvalue = 324.5"] ;
18 -> 19 ;
20 [label="mse = 1.5556\nsamples = 3\nvalue = 327.3333"] ;
18 -> 20 ;
21 [label="mse = 1.5556\nsamples = 3\nvalue = 331.6667"] ;
17 -> 21 ;
22 [label="X[2] <= 1.5\nmse = 25.85\nsamples = 10\nvalue = 337.5"] ;
16 -> 22 ;
23 [label="mse = 0.25\nsamples = 2\nvalue = 343.5"] ;
22 -> 23 ;
24 [label="X[2] <= 11.5\nmse = 21.0\nsamples = 8\nvalue = 336.0"] ;
22 -> 24 ;
25 [label="X[0] <= 9.5\nmse = 13.1875\nsamples = 4\nvalue = 333.75"] ;
24 -> 25 ;
26 [label="mse = 12.25\nsamples = 2\nvalue = 331.5"] ;
25 -> 26 ;
27 [label="mse = 4.0\nsamples = 2\nvalue = 336.0"] ;
25 -> 27 ;
28 [label="X[2] <= 14.0\nmse = 18.6875\nsamples = 4\nvalue = 338.25"] ;
24 -> 28 ;
29 [label="mse = 0.25\nsamples = 2\nvalue = 341.5"] ;
28 -> 29 ;
30 [label="mse = 16.0\nsamples = 2\nvalue = 335.0"] ;
28 -> 30 ;
31 [label="X[1] <= 2.5\nmse = 971.9167\nsamples = 108\nvalue = 269.5"] ;
1 -> 31 ;
32 [label="X[1] <= 1.5\nmse = 474.3542\nsamples = 36\nvalue = 244.25"] ;
31 -> 32 ;
33 [label="X[2] <= 16.5\nmse = 261.7932\nsamples = 18\nvalue = 233.6111"] ;
32 -> 33 ;
34 [label="X[2] <= 3.5\nmse = 157.9336\nsamples = 16\nvalue = 231.0625"] ;
33 -> 34 ;
35 [label="mse = 252.6667\nsamples = 3\nvalue = 241.0"] ;
34 -> 35 ;
36 [label="X[2] <= 8.5\nmse = 108.0237\nsamples = 13\nvalue = 228.7692"] ;
34 -> 36 ;
37 [label="X[2] <= 6.5\nmse = 36.0\nsamples = 5\nvalue = 225.0"] ;
36 -> 37 ;
38 [label="mse = 56.0\nsamples = 3\nvalue = 226.0"] ;
37 -> 38 ;
39 [label="mse = 2.25\nsamples = 2\nvalue = 223.5"] ;
37 -> 39 ;
40 [label="X[2] <= 14.5\nmse = 138.6094\nsamples = 8\nvalue = 231.125"] ;
36 -> 40 ;
41 [label="X[2] <= 10.5\nmse = 139.4722\nsamples = 6\nvalue = 234.1667"] ;
40 -> 41 ;
42 [label="mse = 16.0\nsamples = 2\nvalue = 240.0"] ;
41 -> 42 ;
43 [label="X[2] <= 12.5\nmse = 175.6875\nsamples = 4\nvalue = 231.25"] ;
41 -> 43 ;
44 [label="mse = 36.0\nsamples = 2\nvalue = 224.0"] ;
43 -> 44 ;
45 [label="mse = 210.25\nsamples = 2\nvalue = 238.5"] ;
43 -> 45 ;
46 [label="mse = 25.0\nsamples = 2\nvalue = 222.0"] ;
40 -> 46 ;
47 [label="mse = 625.0\nsamples = 2\nvalue = 254.0"] ;
33 -> 47 ;
48 [label="X[2] <= 11.5\nmse = 460.5432\nsamples = 18\nvalue = 254.8889"] ;
32 -> 48 ;
49 [label="X[2] <= 2.5\nmse = 478.5455\nsamples = 11\nvalue = 263.0"] ;
48 -> 49 ;
50 [label="mse = 4.0\nsamples = 2\nvalue = 248.0"] ;
49 -> 50 ;
51 [label="X[2] <= 8.5\nmse = 522.8889\nsamples = 9\nvalue = 266.3333"] ;
49 -> 51 ;
52 [label="X[2] <= 6.5\nmse = 179.1389\nsamples = 6\nvalue = 262.8333"] ;
51 -> 52 ;
53 [label="X[2] <= 4.5\nmse = 34.5\nsamples = 4\nvalue = 269.0"] ;
52 -> 53 ;
54 [label="mse = 56.25\nsamples = 2\nvalue = 266.5"] ;
53 -> 54 ;
55 [label="mse = 0.25\nsamples = 2\nvalue = 271.5"] ;
53 -> 55 ;
56 [label="mse = 240.25\nsamples = 2\nvalue = 250.5"] ;
52 -> 56 ;
57 [label="mse = 1136.8889\nsamples = 3\nvalue = 273.3333"] ;
51 -> 57 ;
58 [label="X[2] <= 16.5\nmse = 166.4082\nsamples = 7\nvalue = 242.1429"] ;
48 -> 58 ;
59 [label="X[2] <= 14.5\nmse = 119.04\nsamples = 5\nvalue = 244.4"] ;
58 -> 59 ;
60 [label="mse = 54.2222\nsamples = 3\nvalue = 239.6667"] ;
59 -> 60 ;
61 [label="mse = 132.25\nsamples = 2\nvalue = 251.5"] ;
59 -> 61 ;
62 [label="mse = 240.25\nsamples = 2\nvalue = 236.5"] ;
58 -> 62 ;
63 [label="X[2] <= 9.5\nmse = 742.526\nsamples = 72\nvalue = 282.125"] ;
31 -> 63 ;
64 [label="X[2] <= 7.5\nmse = 697.9159\nsamples = 36\nvalue = 271.5278"] ;
63 -> 64 ;
65 [label="X[2] <= 2.5\nmse = 620.301\nsamples = 28\nvalue = 278.3571"] ;
64 -> 65 ;
66 [label="X[1] <= 5.5\nmse = 649.9375\nsamples = 8\nvalue = 293.75"] ;
65 -> 66 ;
67 [label="X[2] <= 1.5\nmse = 272.4722\nsamples = 6\nvalue = 301.1667"] ;
66 -> 67 ;
68 [label="mse = 290.6667\nsamples = 3\nvalue = 297.0"] ;
67 -> 68 ;
69 [label="mse = 219.5556\nsamples = 3\nvalue = 305.3333"] ;
67 -> 69 ;
70 [label="mse = 1122.25\nsamples = 2\nvalue = 271.5"] ;
66 -> 70 ;
71 [label="X[1] <= 3.5\nmse = 475.76\nsamples = 20\nvalue = 272.2"] ;
65 -> 71 ;
72 [label="X[2] <= 4.5\nmse = 251.76\nsamples = 5\nvalue = 284.8"] ;
71 -> 72 ;
73 [label="mse = 272.25\nsamples = 2\nvalue = 278.5"] ;
72 -> 73 ;
74 [label="mse = 194.0\nsamples = 3\nvalue = 289.0"] ;
72 -> 74 ;
75 [label="X[2] <= 3.5\nmse = 479.8667\nsamples = 15\nvalue = 268.0"] ;
71 -> 75 ;
76 [label="mse = 484.6667\nsamples = 3\nvalue = 251.0"] ;
75 -> 76 ;
77 [label="X[1] <= 4.5\nmse = 388.3542\nsamples = 12\nvalue = 272.25"] ;
75 -> 77 ;
78 [label="X[2] <= 5.5\nmse = 395.6875\nsamples = 4\nvalue = 261.75"] ;
77 -> 78 ;
79 [label="mse = 210.25\nsamples = 2\nvalue = 274.5"] ;
78 -> 79 ;
80 [label="mse = 256.0\nsamples = 2\nvalue = 249.0"] ;
78 -> 80 ;
81 [label="X[2] <= 5.5\nmse = 302.0\nsamples = 8\nvalue = 277.5"] ;
77 -> 81 ;
82 [label="X[1] <= 5.5\nmse = 371.1875\nsamples = 4\nvalue = 268.25"] ;
81 -> 82 ;
83 [label="mse = 210.25\nsamples = 2\nvalue = 261.5"] ;
82 -> 83 ;
84 [label="mse = 441.0\nsamples = 2\nvalue = 275.0"] ;
82 -> 84 ;
85 [label="X[1] <= 5.5\nmse = 61.6875\nsamples = 4\nvalue = 286.75"] ;
81 -> 85 ;
86 [label="mse = 56.25\nsamples = 2\nvalue = 292.5"] ;
85 -> 86 ;
87 [label="mse = 1.0\nsamples = 2\nvalue = 281.0"] ;
85 -> 87 ;
88 [label="X[1] <= 5.5\nmse = 234.9844\nsamples = 8\nvalue = 247.625"] ;
64 -> 88 ;
89 [label="X[1] <= 3.5\nmse = 137.6667\nsamples = 6\nvalue = 241.0"] ;
88 -> 89 ;
90 [label="mse = 121.0\nsamples = 2\nvalue = 234.0"] ;
89 -> 90 ;
91 [label="X[2] <= 8.5\nmse = 109.25\nsamples = 4\nvalue = 244.5"] ;
89 -> 91 ;
92 [label="mse = 90.25\nsamples = 2\nvalue = 251.5"] ;
91 -> 92 ;
93 [label="mse = 30.25\nsamples = 2\nvalue = 237.5"] ;
91 -> 93 ;
94 [label="mse = 0.25\nsamples = 2\nvalue = 267.5"] ;
88 -> 94 ;
95 [label="X[1] <= 5.5\nmse = 562.534\nsamples = 36\nvalue = 292.7222"] ;
63 -> 95 ;
96 [label="X[2] <= 13.5\nmse = 557.1715\nsamples = 27\nvalue = 289.2963"] ;
95 -> 96 ;
97 [label="X[1] <= 4.5\nmse = 840.5833\nsamples = 12\nvalue = 280.5"] ;
96 -> 97 ;
98 [label="X[2] <= 10.5\nmse = 536.7344\nsamples = 8\nvalue = 289.625"] ;
97 -> 98 ;
99 [label="mse = 0.25\nsamples = 2\nvalue = 315.5"] ;
98 -> 99 ;
100 [label="X[1] <= 3.5\nmse = 418.0\nsamples = 6\nvalue = 281.0"] ;
98 -> 100 ;
101 [label="mse = 104.2222\nsamples = 3\nvalue = 263.6667"] ;
100 -> 101 ;
102 [label="mse = 130.8889\nsamples = 3\nvalue = 298.3333"] ;
100 -> 102 ;
103 [label="X[2] <= 11.5\nmse = 948.6875\nsamples = 4\nvalue = 262.25"] ;
97 -> 103 ;
104 [label="mse = 812.25\nsamples = 2\nvalue = 285.5"] ;
103 -> 104 ;
105 [label="mse = 4.0\nsamples = 2\nvalue = 239.0"] ;
103 -> 105 ;
106 [label="X[2] <= 15.5\nmse = 219.0222\nsamples = 15\nvalue = 296.3333"] ;
96 -> 106 ;
107 [label="X[2] <= 14.5\nmse = 182.6667\nsamples = 6\nvalue = 304.0"] ;
106 -> 107 ;
108 [label="mse = 131.5556\nsamples = 3\nvalue = 294.3333"] ;
107 -> 108 ;
109 [label="mse = 46.8889\nsamples = 3\nvalue = 313.6667"] ;
107 -> 109 ;
110 [label="X[2] <= 17.5\nmse = 177.9506\nsamples = 9\nvalue = 291.2222"] ;
106 -> 110 ;
111 [label="X[1] <= 4.5\nmse = 107.6667\nsamples = 6\nvalue = 285.0"] ;
110 -> 111 ;
112 [label="X[2] <= 16.5\nmse = 84.5\nsamples = 4\nvalue = 290.0"] ;
111 -> 112 ;
113 [label="mse = 56.25\nsamples = 2\nvalue = 282.5"] ;
112 -> 113 ;
114 [label="mse = 0.25\nsamples = 2\nvalue = 297.5"] ;
112 -> 114 ;
115 [label="mse = 4.0\nsamples = 2\nvalue = 275.0"] ;
111 -> 115 ;
116 [label="mse = 86.2222\nsamples = 3\nvalue = 303.6667"] ;
110 -> 116 ;
117 [label="X[2] <= 16.5\nmse = 437.7778\nsamples = 9\nvalue = 303.0"] ;
95 -> 117 ;
118 [label="X[2] <= 11.5\nmse = 98.5306\nsamples = 7\nvalue = 307.5714"] ;
117 -> 118 ;
119 [label="mse = 121.0\nsamples = 2\nvalue = 299.0"] ;
118 -> 119 ;
120 [label="X[2] <= 14.5\nmse = 48.4\nsamples = 5\nvalue = 311.0"] ;
118 -> 120 ;
121 [label="mse = 36.2222\nsamples = 3\nvalue = 314.3333"] ;
120 -> 121 ;
122 [label="mse = 25.0\nsamples = 2\nvalue = 306.0"] ;
120 -> 122 ;
123 [label="mse = 1296.0\nsamples = 2\nvalue = 287.0"] ;
117 -> 123 ;
124 [label="X[0] <= 35000.0\nmse = 3887.9167\nsamples = 216\nvalue = 107.5"] ;
0 -> 124 [labeldistance=2.5, labelangle=-45, headlabel="False"] ;
125 [label="X[1] <= 3.5\nmse = 971.9167\nsamples = 108\nvalue = 161.5"] ;
124 -> 125 ;
126 [label="X[1] <= 1.5\nmse = 338.5614\nsamples = 54\nvalue = 137.3519"] ;
125 -> 126 ;
127 [label="X[2] <= 6.5\nmse = 241.0247\nsamples = 18\nvalue = 124.4444"] ;
126 -> 127 ;
128 [label="X[2] <= 4.5\nmse = 339.8056\nsamples = 6\nvalue = 132.1667"] ;
127 -> 128 ;
129 [label="X[2] <= 2.5\nmse = 25.25\nsamples = 4\nvalue = 119.5"] ;
128 -> 129 ;
130 [label="mse = 1.0\nsamples = 2\nvalue = 124.0"] ;
129 -> 130 ;
131 [label="mse = 9.0\nsamples = 2\nvalue = 115.0"] ;
129 -> 131 ;
132 [label="mse = 6.25\nsamples = 2\nvalue = 157.5"] ;
128 -> 132 ;
133 [label="X[2] <= 11.5\nmse = 146.9097\nsamples = 12\nvalue = 120.5833"] ;
127 -> 133 ;
134 [label="X[2] <= 8.5\nmse = 46.96\nsamples = 5\nvalue = 115.2"] ;
133 -> 134 ;
135 [label="mse = 2.25\nsamples = 2\nvalue = 111.5"] ;
134 -> 135 ;
136 [label="mse = 61.5556\nsamples = 3\nvalue = 117.6667"] ;
134 -> 136 ;
137 [label="X[2] <= 14.5\nmse = 182.8163\nsamples = 7\nvalue = 124.4286"] ;
133 -> 137 ;
138 [label="mse = 56.0\nsamples = 3\nvalue = 131.0"] ;
137 -> 138 ;
139 [label="X[2] <= 16.5\nmse = 221.25\nsamples = 4\nvalue = 119.5"] ;
137 -> 139 ;
140 [label="mse = 2.25\nsamples = 2\nvalue = 112.5"] ;
139 -> 140 ;
141 [label="mse = 342.25\nsamples = 2\nvalue = 126.5"] ;
139 -> 141 ;
142 [label="X[2] <= 1.5\nmse = 262.3789\nsamples = 36\nvalue = 143.8056"] ;
126 -> 142 ;
143 [label="mse = 20.25\nsamples = 2\nvalue = 165.5"] ;
142 -> 143 ;
144 [label="X[2] <= 16.5\nmse = 247.308\nsamples = 34\nvalue = 142.5294"] ;
142 -> 144 ;
145 [label="X[2] <= 14.5\nmse = 243.7789\nsamples = 30\nvalue = 140.5667"] ;
144 -> 145 ;
146 [label="X[2] <= 6.5\nmse = 230.1494\nsamples = 26\nvalue = 142.6538"] ;
145 -> 146 ;
147 [label="X[2] <= 5.5\nmse = 139.09\nsamples = 10\nvalue = 135.9"] ;
146 -> 147 ;
148 [label="X[2] <= 3.5\nmse = 146.7344\nsamples = 8\nvalue = 137.625"] ;
147 -> 148 ;
149 [label="X[1] <= 2.5\nmse = 138.25\nsamples = 4\nvalue = 134.5"] ;
148 -> 149 ;
150 [label="mse = 132.25\nsamples = 2\nvalue = 140.5"] ;
149 -> 150 ;
151 [label="mse = 72.25\nsamples = 2\nvalue = 128.5"] ;
149 -> 151 ;
152 [label="X[1] <= 2.5\nmse = 135.6875\nsamples = 4\nvalue = 140.75"] ;
148 -> 152 ;
153 [label="mse = 72.25\nsamples = 2\nvalue = 135.5"] ;
152 -> 153 ;
154 [label="mse = 144.0\nsamples = 2\nvalue = 146.0"] ;
152 -> 154 ;
155 [label="mse = 49.0\nsamples = 2\nvalue = 129.0"] ;
147 -> 155 ;
156 [label="X[1] <= 2.5\nmse = 240.7344\nsamples = 16\nvalue = 146.875"] ;
146 -> 156 ;
157 [label="X[2] <= 9.5\nmse = 202.5\nsamples = 8\nvalue = 140.0"] ;
156 -> 157 ;
158 [label="mse = 97.5556\nsamples = 3\nvalue = 130.6667"] ;
157 -> 158 ;
159 [label="X[2] <= 12.5\nmse = 181.84\nsamples = 5\nvalue = 145.6"] ;
157 -> 159 ;
160 [label="mse = 172.2222\nsamples = 3\nvalue = 152.6667"] ;
159 -> 160 ;
161 [label="mse = 9.0\nsamples = 2\nvalue = 135.0"] ;
159 -> 161 ;
162 [label="X[2] <= 8.5\nmse = 184.4375\nsamples = 8\nvalue = 153.75"] ;
156 -> 162 ;
163 [label="mse = 36.0\nsamples = 2\nvalue = 173.0"] ;
162 -> 163 ;
164 [label="X[2] <= 10.5\nmse = 69.2222\nsamples = 6\nvalue = 147.3333"] ;
162 -> 164 ;
165 [label="mse = 81.0\nsamples = 2\nvalue = 139.0"] ;
164 -> 165 ;
166 [label="X[2] <= 12.5\nmse = 11.25\nsamples = 4\nvalue = 151.5"] ;
164 -> 166 ;
167 [label="mse = 9.0\nsamples = 2\nvalue = 153.0"] ;
166 -> 167 ;
168 [label="mse = 9.0\nsamples = 2\nvalue = 150.0"] ;
166 -> 168 ;
169 [label="X[1] <= 2.5\nmse = 120.0\nsamples = 4\nvalue = 127.0"] ;
145 -> 169 ;
170 [label="mse = 4.0\nsamples = 2\nvalue = 117.0"] ;
169 -> 170 ;
171 [label="mse = 36.0\nsamples = 2\nvalue = 137.0"] ;
169 -> 171 ;
172 [label="X[1] <= 2.5\nmse = 28.1875\nsamples = 4\nvalue = 157.25"] ;
144 -> 172 ;
173 [label="mse = 30.25\nsamples = 2\nvalue = 159.5"] ;
172 -> 173 ;
174 [label="mse = 16.0\nsamples = 2\nvalue = 155.0"] ;
172 -> 174 ;
175 [label="X[1] <= 4.5\nmse = 439.0058\nsamples = 54\nvalue = 185.6481"] ;
125 -> 175 ;
176 [label="X[2] <= 13.5\nmse = 397.8395\nsamples = 18\nvalue = 166.7778"] ;
175 -> 176 ;
177 [label="X[2] <= 4.5\nmse = 386.1302\nsamples = 13\nvalue = 160.8462"] ;
176 -> 177 ;
178 [label="X[2] <= 2.5\nmse = 36.6875\nsamples = 4\nvalue = 173.25"] ;
177 -> 178 ;
179 [label="mse = 42.25\nsamples = 2\nvalue = 170.5"] ;
178 -> 179 ;
180 [label="mse = 16.0\nsamples = 2\nvalue = 176.0"] ;
178 -> 180 ;
181 [label="X[2] <= 6.5\nmse = 442.6667\nsamples = 9\nvalue = 155.3333"] ;
177 -> 181 ;
182 [label="mse = 1.0\nsamples = 2\nvalue = 125.0"] ;
181 -> 182 ;
183 [label="X[2] <= 8.5\nmse = 230.8571\nsamples = 7\nvalue = 164.0"] ;
181 -> 183 ;
184 [label="mse = 6.25\nsamples = 2\nvalue = 171.5"] ;
183 -> 184 ;
185 [label="X[2] <= 11.5\nmse = 289.2\nsamples = 5\nvalue = 161.0"] ;
183 -> 185 ;
186 [label="mse = 98.0\nsamples = 3\nvalue = 155.0"] ;
185 -> 186 ;
187 [label="mse = 441.0\nsamples = 2\nvalue = 170.0"] ;
185 -> 187 ;
188 [label="X[2] <= 16.5\nmse = 98.96\nsamples = 5\nvalue = 182.2"] ;
176 -> 188 ;
189 [label="mse = 80.8889\nsamples = 3\nvalue = 185.6667"] ;
188 -> 189 ;
190 [label="mse = 81.0\nsamples = 2\nvalue = 177.0"] ;
188 -> 190 ;
191 [label="X[1] <= 5.5\nmse = 192.5208\nsamples = 36\nvalue = 195.0833"] ;
175 -> 191 ;
192 [label="X[2] <= 15.5\nmse = 197.2006\nsamples = 18\nvalue = 189.2778"] ;
191 -> 192 ;
193 [label="X[2] <= 12.5\nmse = 207.3156\nsamples = 15\nvalue = 187.4667"] ;
192 -> 193 ;
194 [label="X[2] <= 7.5\nmse = 176.8889\nsamples = 12\nvalue = 190.3333"] ;
193 -> 194 ;
195 [label="X[2] <= 5.5\nmse = 164.6939\nsamples = 7\nvalue = 185.1429"] ;
194 -> 195 ;
196 [label="X[2] <= 3.5\nmse = 76.64\nsamples = 5\nvalue = 191.4"] ;
195 -> 196 ;
197 [label="mse = 46.8889\nsamples = 3\nvalue = 186.3333"] ;
196 -> 197 ;
198 [label="mse = 25.0\nsamples = 2\nvalue = 199.0"] ;
196 -> 198 ;
199 [label="mse = 42.25\nsamples = 2\nvalue = 169.5"] ;
195 -> 199 ;
200 [label="X[2] <= 9.5\nmse = 103.44\nsamples = 5\nvalue = 197.6"] ;
194 -> 200 ;
201 [label="mse = 20.25\nsamples = 2\nvalue = 203.5"] ;
200 -> 201 ;
202 [label="mse = 120.2222\nsamples = 3\nvalue = 193.6667"] ;
200 -> 202 ;
203 [label="mse = 164.6667\nsamples = 3\nvalue = 176.0"] ;
193 -> 203 ;
204 [label="mse = 48.2222\nsamples = 3\nvalue = 198.3333"] ;
192 -> 204 ;
205 [label="X[2] <= 5.5\nmse = 120.4321\nsamples = 18\nvalue = 200.8889"] ;
191 -> 205 ;
206 [label="X[2] <= 2.5\nmse = 37.84\nsamples = 5\nvalue = 187.4"] ;
205 -> 206 ;
207 [label="mse = 2.25\nsamples = 2\nvalue = 190.5"] ;
206 -> 207 ;
208 [label="mse = 50.8889\nsamples = 3\nvalue = 185.3333"] ;
206 -> 208 ;
209 [label="X[2] <= 16.5\nmse = 55.3018\nsamples = 13\nvalue = 206.0769"] ;
205 -> 209 ;
210 [label="X[2] <= 8.5\nmse = 26.3306\nsamples = 11\nvalue = 208.1818"] ;
209 -> 210 ;
211 [label="mse = 4.2222\nsamples = 3\nvalue = 203.3333"] ;
210 -> 211 ;
212 [label="X[2] <= 14.5\nmse = 22.5\nsamples = 8\nvalue = 210.0"] ;
210 -> 212 ;
213 [label="X[2] <= 11.5\nmse = 23.8056\nsamples = 6\nvalue = 208.8333"] ;
212 -> 213 ;
214 [label="mse = 2.8889\nsamples = 3\nvalue = 211.6667"] ;
213 -> 214 ;
215 [label="mse = 28.6667\nsamples = 3\nvalue = 206.0"] ;
213 -> 215 ;
216 [label="mse = 2.25\nsamples = 2\nvalue = 213.5"] ;
212 -> 216 ;
217 [label="mse = 56.25\nsamples = 2\nvalue = 194.5"] ;
209 -> 217 ;
218 [label="X[1] <= 3.5\nmse = 971.9167\nsamples = 108\nvalue = 53.5"] ;
124 -> 218 ;
219 [label="X[2] <= 2.5\nmse = 657.0604\nsamples = 54\nvalue = 36.2963"] ;
218 -> 219 ;
220 [label="X[2] <= 1.5\nmse = 82.6667\nsamples = 6\nvalue = 11.0"] ;
219 -> 220 ;
221 [label="mse = 73.5556\nsamples = 3\nvalue = 17.6667"] ;
220 -> 221 ;
222 [label="mse = 2.8889\nsamples = 3\nvalue = 4.3333"] ;
220 -> 222 ;
223 [label="X[1] <= 2.5\nmse = 638.8733\nsamples = 48\nvalue = 39.4583"] ;
219 -> 223 ;
224 [label="X[2] <= 4.5\nmse = 504.1553\nsamples = 32\nvalue = 33.0312"] ;
223 -> 224 ;
225 [label="X[2] <= 3.5\nmse = 802.5\nsamples = 4\nvalue = 51.0"] ;
224 -> 225 ;
226 [label="mse = 90.25\nsamples = 2\nvalue = 23.5"] ;
225 -> 226 ;
227 [label="mse = 2.25\nsamples = 2\nvalue = 78.5"] ;
225 -> 227 ;
228 [label="X[2] <= 14.5\nmse = 408.8202\nsamples = 28\nvalue = 30.4643"] ;
224 -> 228 ;
229 [label="X[2] <= 8.5\nmse = 293.49\nsamples = 20\nvalue = 25.9"] ;
228 -> 229 ;
230 [label="X[2] <= 6.5\nmse = 294.6094\nsamples = 8\nvalue = 35.125"] ;
229 -> 230 ;
231 [label="X[2] <= 5.5\nmse = 196.75\nsamples = 4\nvalue = 21.5"] ;
230 -> 231 ;
232 [label="mse = 25.0\nsamples = 2\nvalue = 14.0"] ;
231 -> 232 ;
233 [label="mse = 256.0\nsamples = 2\nvalue = 29.0"] ;
231 -> 233 ;
234 [label="X[2] <= 7.5\nmse = 21.1875\nsamples = 4\nvalue = 48.75"] ;
230 -> 234 ;
235 [label="mse = 2.25\nsamples = 2\nvalue = 51.5"] ;
234 -> 235 ;
236 [label="mse = 25.0\nsamples = 2\nvalue = 46.0"] ;
234 -> 236 ;
237 [label="X[2] <= 10.5\nmse = 198.1875\nsamples = 12\nvalue = 19.75"] ;
229 -> 237 ;
238 [label="X[1] <= 1.5\nmse = 165.6875\nsamples = 4\nvalue = 11.25"] ;
237 -> 238 ;
239 [label="mse = 100.0\nsamples = 2\nvalue = 22.0"] ;
238 -> 239 ;
240 [label="mse = 0.25\nsamples = 2\nvalue = 0.5"] ;
238 -> 240 ;
241 [label="X[2] <= 13.5\nmse = 160.25\nsamples = 8\nvalue = 24.0"] ;
237 -> 241 ;
242 [label="X[2] <= 12.5\nmse = 132.5833\nsamples = 6\nvalue = 28.5"] ;
241 -> 242 ;
243 [label="X[2] <= 11.5\nmse = 170.0\nsamples = 4\nvalue = 26.0"] ;
242 -> 243 ;
244 [label="mse = 121.0\nsamples = 2\nvalue = 31.0"] ;
243 -> 244 ;
245 [label="mse = 169.0\nsamples = 2\nvalue = 21.0"] ;
243 -> 245 ;
246 [label="mse = 20.25\nsamples = 2\nvalue = 33.5"] ;
242 -> 246 ;
247 [label="mse = 0.25\nsamples = 2\nvalue = 10.5"] ;
241 -> 247 ;
248 [label="X[1] <= 1.5\nmse = 514.8594\nsamples = 8\nvalue = 41.875"] ;
228 -> 248 ;
249 [label="X[2] <= 16.5\nmse = 651.5\nsamples = 4\nvalue = 30.0"] ;
248 -> 249 ;
250 [label="mse = 182.25\nsamples = 2\nvalue = 16.5"] ;
249 -> 250 ;
251 [label="mse = 756.25\nsamples = 2\nvalue = 43.5"] ;
249 -> 251 ;
252 [label="X[2] <= 16.5\nmse = 96.1875\nsamples = 4\nvalue = 53.75"] ;
248 -> 252 ;
253 [label="mse = 81.0\nsamples = 2\nvalue = 61.0"] ;
252 -> 253 ;
254 [label="mse = 6.25\nsamples = 2\nvalue = 46.5"] ;
252 -> 254 ;
255 [label="X[2] <= 13.5\nmse = 660.4648\nsamples = 16\nvalue = 52.3125"] ;
223 -> 255 ;
256 [label="X[2] <= 4.5\nmse = 530.1983\nsamples = 11\nvalue = 45.7273"] ;
255 -> 256 ;
257 [label="mse = 90.25\nsamples = 2\nvalue = 68.5"] ;
256 -> 257 ;
258 [label="X[2] <= 11.5\nmse = 487.1111\nsamples = 9\nvalue = 40.6667"] ;
256 -> 258 ;
259 [label="X[2] <= 7.5\nmse = 397.7143\nsamples = 7\nvalue = 44.0"] ;
258 -> 259 ;
260 [label="mse = 379.5556\nsamples = 3\nvalue = 34.3333"] ;
259 -> 260 ;
261 [label="X[2] <= 9.5\nmse = 288.6875\nsamples = 4\nvalue = 51.25"] ;
259 -> 261 ;
262 [label="mse = 4.0\nsamples = 2\nvalue = 60.0"] ;
261 -> 262 ;
263 [label="mse = 420.25\nsamples = 2\nvalue = 42.5"] ;
261 -> 263 ;
264 [label="mse = 625.0\nsamples = 2\nvalue = 29.0"] ;
258 -> 264 ;
265 [label="X[2] <= 15.5\nmse = 641.76\nsamples = 5\nvalue = 66.8"] ;
255 -> 265 ;
266 [label="mse = 12.25\nsamples = 2\nvalue = 85.5"] ;
265 -> 266 ;
267 [label="mse = 672.8889\nsamples = 3\nvalue = 54.3333"] ;
265 -> 267 ;
268 [label="X[2] <= 1.5\nmse = 694.8381\nsamples = 54\nvalue = 70.7037"] ;
218 -> 268 ;
269 [label="mse = 62.0\nsamples = 3\nvalue = 32.0"] ;
268 -> 269 ;
270 [label="X[1] <= 5.5\nmse = 638.7643\nsamples = 51\nvalue = 72.9804"] ;
268 -> 270 ;
271 [label="X[2] <= 3.5\nmse = 729.949\nsamples = 34\nvalue = 68.1471"] ;
270 -> 271 ;
272 [label="X[1] <= 4.5\nmse = 363.1875\nsamples = 4\nvalue = 43.25"] ;
271 -> 272 ;
273 [label="mse = 182.25\nsamples = 2\nvalue = 59.5"] ;
272 -> 273 ;
274 [label="mse = 16.0\nsamples = 2\nvalue = 27.0"] ;
272 -> 274 ;
275 [label="X[2] <= 16.5\nmse = 685.1822\nsamples = 30\nvalue = 71.4667"] ;
271 -> 275 ;
276 [label="X[2] <= 5.5\nmse = 573.0962\nsamples = 26\nvalue = 75.5"] ;
275 -> 276 ;
277 [label="X[2] <= 4.5\nmse = 197.5\nsamples = 4\nvalue = 64.0"] ;
276 -> 277 ;
278 [label="mse = 210.25\nsamples = 2\nvalue = 71.5"] ;
277 -> 278 ;
279 [label="mse = 72.25\nsamples = 2\nvalue = 56.5"] ;
277 -> 279 ;
280 [label="X[2] <= 10.5\nmse = 612.969\nsamples = 22\nvalue = 77.5909"] ;
276 -> 280 ;
281 [label="X[2] <= 8.5\nmse = 319.64\nsamples = 10\nvalue = 85.4"] ;
280 -> 281 ;
282 [label="X[2] <= 6.5\nmse = 415.5556\nsamples = 6\nvalue = 79.6667"] ;
281 -> 282 ;
283 [label="mse = 9.0\nsamples = 2\nvalue = 95.0"] ;
282 -> 283 ;
284 [label="X[1] <= 4.5\nmse = 442.5\nsamples = 4\nvalue = 72.0"] ;
282 -> 284 ;
285 [label="mse = 361.0\nsamples = 2\nvalue = 62.0"] ;
284 -> 285 ;
286 [label="mse = 324.0\nsamples = 2\nvalue = 82.0"] ;
284 -> 286 ;
287 [label="X[2] <= 9.5\nmse = 52.5\nsamples = 4\nvalue = 94.0"] ;
281 -> 287 ;
288 [label="mse = 20.25\nsamples = 2\nvalue = 100.5"] ;
287 -> 288 ;
289 [label="mse = 0.25\nsamples = 2\nvalue = 87.5"] ;
287 -> 289 ;
290 [label="X[2] <= 11.5\nmse = 764.2431\nsamples = 12\nvalue = 71.0833"] ;
280 -> 290 ;
291 [label="mse = 64.0\nsamples = 2\nvalue = 48.0"] ;
290 -> 291 ;
292 [label="X[2] <= 12.5\nmse = 776.41\nsamples = 10\nvalue = 75.7"] ;
290 -> 292 ;
293 [label="mse = 256.0\nsamples = 2\nvalue = 91.0"] ;
292 -> 293 ;
294 [label="X[2] <= 13.5\nmse = 833.3594\nsamples = 8\nvalue = 71.875"] ;
292 -> 294 ;
295 [label="mse = 625.0\nsamples = 2\nvalue = 51.0"] ;
294 -> 295 ;
296 [label="X[2] <= 14.5\nmse = 709.1389\nsamples = 6\nvalue = 78.8333"] ;
294 -> 296 ;
297 [label="mse = 20.25\nsamples = 2\nvalue = 97.5"] ;
296 -> 297 ;
298 [label="X[1] <= 4.5\nmse = 792.25\nsamples = 4\nvalue = 69.5"] ;
296 -> 298 ;
299 [label="mse = 240.25\nsamples = 2\nvalue = 81.5"] ;
298 -> 299 ;
300 [label="mse = 1056.25\nsamples = 2\nvalue = 57.5"] ;
298 -> 300 ;
301 [label="X[1] <= 4.5\nmse = 620.6875\nsamples = 4\nvalue = 45.25"] ;
275 -> 301 ;
302 [label="mse = 4.0\nsamples = 2\nvalue = 70.0"] ;
301 -> 302 ;
303 [label="mse = 12.25\nsamples = 2\nvalue = 20.5"] ;
301 -> 303 ;
304 [label="X[2] <= 11.5\nmse = 316.2284\nsamples = 17\nvalue = 82.6471"] ;
270 -> 304 ;
305 [label="X[2] <= 4.5\nmse = 337.24\nsamples = 10\nvalue = 77.6"] ;
304 -> 305 ;
306 [label="mse = 74.0\nsamples = 3\nvalue = 95.0"] ;
305 -> 306 ;
307 [label="X[2] <= 9.5\nmse = 264.6939\nsamples = 7\nvalue = 70.1429"] ;
305 -> 307 ;
308 [label="X[2] <= 7.5\nmse = 278.56\nsamples = 5\nvalue = 75.2"] ;
307 -> 308 ;
309 [label="mse = 387.5556\nsamples = 3\nvalue = 69.6667"] ;
308 -> 309 ;
310 [label="mse = 0.25\nsamples = 2\nvalue = 83.5"] ;
308 -> 310 ;
311 [label="mse = 6.25\nsamples = 2\nvalue = 57.5"] ;
307 -> 311 ;
312 [label="X[2] <= 13.5\nmse = 197.8367\nsamples = 7\nvalue = 89.8571"] ;
304 -> 312 ;
313 [label="mse = 6.25\nsamples = 2\nvalue = 101.5"] ;
312 -> 313 ;
314 [label="X[2] <= 15.5\nmse = 198.56\nsamples = 5\nvalue = 85.2"] ;
312 -> 314 ;
315 [label="mse = 6.25\nsamples = 2\nvalue = 71.5"] ;
314 -> 315 ;
316 [label="mse = 118.2222\nsamples = 3\nvalue = 94.3333"] ;
314 -> 316 ;
}