digraph Tree {
node [shape=box] ;
0 [label="X[1] <= -0.5\nmse = 280.25\nsamples = 58\nvalue = 28.5"] ;
1 [label="X[30] <= 1.5\nmse = 174.6489\nsamples = 15\nvalue = 16.4667"] ;
0 -> 1 [labeldistance=2.5, labelangle=45, headlabel="True"] ;
2 [label="X[41] <= 2.5\nmse = 32.45\nsamples = 10\nvalue = 9.5"] ;
1 -> 2 ;
3 [label="X[10] <= 1.0\nmse = 15.9592\nsamples = 7\nvalue = 6.5714"] ;
2 -> 3 ;
4 [label="mse = 2.25\nsamples = 2\nvalue = 1.5"] ;
3 -> 4 ;
5 [label="X[42] <= 1.5\nmse = 7.04\nsamples = 5\nvalue = 8.6"] ;
3 -> 5 ;
6 [label="mse = 1.5556\nsamples = 3\nvalue = 10.3333"] ;
5 -> 6 ;
7 [label="mse = 4.0\nsamples = 2\nvalue = 6.0"] ;
5 -> 7 ;
8 [label="mse = 4.2222\nsamples = 3\nvalue = 16.3333"] ;
2 -> 8 ;
9 [label="X[39] <= 1.0\nmse = 167.84\nsamples = 5\nvalue = 30.4"] ;
1 -> 9 ;
10 [label="mse = 13.5556\nsamples = 3\nvalue = 40.6667"] ;
9 -> 10 ;
11 [label="mse = 4.0\nsamples = 2\nvalue = 15.0"] ;
9 -> 11 ;
12 [label="X[40] <= -0.5\nmse = 248.9551\nsamples = 43\nvalue = 32.6977"] ;
0 -> 12 [labeldistance=2.5, labelangle=-45, headlabel="False"] ;
13 [label="X[22] <= 0.5\nmse = 162.0\nsamples = 6\nvalue = 14.0"] ;
12 -> 13 ;
14 [label="X[25] <= 2.0\nmse = 10.5\nsamples = 4\nvalue = 6.0"] ;
13 -> 14 ;
15 [label="mse = 2.25\nsamples = 2\nvalue = 3.5"] ;
14 -> 15 ;
16 [label="mse = 6.25\nsamples = 2\nvalue = 8.5"] ;
14 -> 16 ;
17 [label="mse = 81.0\nsamples = 2\nvalue = 30.0"] ;
13 -> 17 ;
18 [label="X[34] <= -0.5\nmse = 197.1702\nsamples = 37\nvalue = 35.7297"] ;
12 -> 18 ;
19 [label="X[43] <= -0.5\nmse = 82.9796\nsamples = 7\nvalue = 20.8571"] ;
18 -> 19 ;
20 [label="mse = 72.25\nsamples = 2\nvalue = 9.5"] ;
19 -> 20 ;
21 [label="X[17] <= 2.5\nmse = 15.04\nsamples = 5\nvalue = 25.4"] ;
19 -> 21 ;
22 [label="mse = 4.6667\nsamples = 3\nvalue = 23.0"] ;
21 -> 22 ;
23 [label="mse = 9.0\nsamples = 2\nvalue = 29.0"] ;
21 -> 23 ;
24 [label="X[38] <= 1.5\nmse = 160.16\nsamples = 30\nvalue = 39.2"] ;
18 -> 24 ;
25 [label="X[14] <= -0.5\nmse = 148.1956\nsamples = 15\nvalue = 32.9333"] ;
24 -> 25 ;
26 [label="mse = 16.0\nsamples = 2\nvalue = 11.0"] ;
25 -> 26 ;
27 [label="X[19] <= -0.5\nmse = 83.1361\nsamples = 13\nvalue = 36.3077"] ;
25 -> 27 ;
28 [label="X[10] <= 1.5\nmse = 34.6875\nsamples = 4\nvalue = 46.75"] ;
27 -> 28 ;
29 [label="mse = 20.25\nsamples = 2\nvalue = 51.5"] ;
28 -> 29 ;
30 [label="mse = 4.0\nsamples = 2\nvalue = 42.0"] ;
28 -> 30 ;
31 [label="X[37] <= 1.5\nmse = 34.6667\nsamples = 9\nvalue = 31.6667"] ;
27 -> 31 ;
32 [label="X[0] <= -0.5\nmse = 15.8056\nsamples = 6\nvalue = 28.8333"] ;
31 -> 32 ;
33 [label="mse = 0.25\nsamples = 2\nvalue = 33.5"] ;
32 -> 33 ;
34 [label="X[24] <= 0.5\nmse = 7.25\nsamples = 4\nvalue = 26.5"] ;
32 -> 34 ;
35 [label="mse = 0.25\nsamples = 2\nvalue = 28.5"] ;
34 -> 35 ;
36 [label="mse = 6.25\nsamples = 2\nvalue = 24.5"] ;
34 -> 36 ;
37 [label="mse = 24.2222\nsamples = 3\nvalue = 37.3333"] ;
31 -> 37 ;
38 [label="X[2] <= 1.5\nmse = 93.5822\nsamples = 15\nvalue = 45.4667"] ;
24 -> 38 ;
39 [label="X[15] <= 1.5\nmse = 16.7769\nsamples = 11\nvalue = 50.6364"] ;
38 -> 39 ;
40 [label="X[46] <= 0.5\nmse = 9.9184\nsamples = 7\nvalue = 48.2857"] ;
39 -> 40 ;
41 [label="X[44] <= 0.5\nmse = 2.0\nsamples = 5\nvalue = 50.0"] ;
40 -> 41 ;
42 [label="mse = 0.25\nsamples = 2\nvalue = 51.5"] ;
41 -> 42 ;
43 [label="mse = 0.6667\nsamples = 3\nvalue = 49.0"] ;
41 -> 43 ;
44 [label="mse = 4.0\nsamples = 2\nvalue = 44.0"] ;
40 -> 44 ;
45 [label="X[32] <= 1.0\nmse = 2.1875\nsamples = 4\nvalue = 54.75"] ;
39 -> 45 ;
46 [label="mse = 0.25\nsamples = 2\nvalue = 53.5"] ;
45 -> 46 ;
47 [label="mse = 1.0\nsamples = 2\nvalue = 56.0"] ;
45 -> 47 ;
48 [label="X[31] <= 0.5\nmse = 29.1875\nsamples = 4\nvalue = 31.25"] ;
38 -> 48 ;
49 [label="mse = 12.25\nsamples = 2\nvalue = 26.5"] ;
48 -> 49 ;
50 [label="mse = 1.0\nsamples = 2\nvalue = 36.0"] ;
48 -> 50 ;
}