digraph Tree {
node [shape=box] ;
0 [label="X[5] <= 16.0795\nmse = 309.9672\nsamples = 61\nvalue = 30.0"] ;
1 [label="X[1] <= 0.8448\nmse = 209.3587\nsamples = 37\nvalue = 38.2162"] ;
0 -> 1 [labeldistance=2.5, labelangle=45, headlabel="True"] ;
2 [label="X[8] <= 9.1356\nmse = 70.4844\nsamples = 8\nvalue = 25.625"] ;
1 -> 2 ;
3 [label="mse = 37.5556\nsamples = 3\nvalue = 16.3333"] ;
2 -> 3 ;
4 [label="X[6] <= 1.2001\nmse = 7.36\nsamples = 5\nvalue = 31.2"] ;
2 -> 4 ;
5 [label="mse = 2.8889\nsamples = 3\nvalue = 29.3333"] ;
4 -> 5 ;
6 [label="mse = 1.0\nsamples = 2\nvalue = 34.0"] ;
4 -> 6 ;
7 [label="X[5] <= 4.9107\nmse = 191.8692\nsamples = 29\nvalue = 41.6897"] ;
1 -> 7 ;
8 [label="X[1] <= 1.1234\nmse = 107.719\nsamples = 11\nvalue = 50.0909"] ;
7 -> 8 ;
9 [label="X[2] <= 83.5746\nmse = 24.7654\nsamples = 9\nvalue = 54.1111"] ;
8 -> 9 ;
10 [label="mse = 14.8889\nsamples = 3\nvalue = 48.3333"] ;
9 -> 10 ;
11 [label="X[1] <= 0.8653\nmse = 4.6667\nsamples = 6\nvalue = 57.0"] ;
9 -> 11 ;
12 [label="mse = 0.6667\nsamples = 3\nvalue = 59.0"] ;
11 -> 12 ;
13 [label="mse = 0.6667\nsamples = 3\nvalue = 55.0"] ;
11 -> 13 ;
14 [label="mse = 81.0\nsamples = 2\nvalue = 32.0"] ;
8 -> 14 ;
15 [label="X[8] <= 13.9349\nmse = 173.8025\nsamples = 18\nvalue = 36.5556"] ;
7 -> 15 ;
16 [label="X[1] <= 0.8765\nmse = 149.04\nsamples = 10\nvalue = 29.6"] ;
15 -> 16 ;
17 [label="X[8] <= 10.7078\nmse = 87.9375\nsamples = 8\nvalue = 33.75"] ;
16 -> 17 ;
18 [label="X[1] <= 0.8575\nmse = 29.5\nsamples = 4\nvalue = 26.0"] ;
17 -> 18 ;
19 [label="mse = 6.25\nsamples = 2\nvalue = 30.5"] ;
18 -> 19 ;
20 [label="mse = 12.25\nsamples = 2\nvalue = 21.5"] ;
18 -> 20 ;
21 [label="X[7] <= 2.204\nmse = 26.25\nsamples = 4\nvalue = 41.5"] ;
17 -> 21 ;
22 [label="mse = 0.25\nsamples = 2\nvalue = 36.5"] ;
21 -> 22 ;
23 [label="mse = 2.25\nsamples = 2\nvalue = 46.5"] ;
21 -> 23 ;
24 [label="mse = 49.0\nsamples = 2\nvalue = 13.0"] ;
16 -> 24 ;
25 [label="X[3] <= 0.5369\nmse = 68.6875\nsamples = 8\nvalue = 45.25"] ;
15 -> 25 ;
26 [label="X[6] <= 0.6662\nmse = 13.0\nsamples = 4\nvalue = 52.0"] ;
25 -> 26 ;
27 [label="mse = 4.0\nsamples = 2\nvalue = 55.0"] ;
26 -> 27 ;
28 [label="mse = 4.0\nsamples = 2\nvalue = 49.0"] ;
26 -> 28 ;
29 [label="X[2] <= 82.4998\nmse = 33.25\nsamples = 4\nvalue = 38.5"] ;
25 -> 29 ;
30 [label="mse = 1.0\nsamples = 2\nvalue = 43.0"] ;
29 -> 30 ;
31 [label="mse = 25.0\nsamples = 2\nvalue = 34.0"] ;
29 -> 31 ;
32 [label="X[0] <= 0.2979\nmse = 200.5556\nsamples = 24\nvalue = 17.3333"] ;
0 -> 32 [labeldistance=2.5, labelangle=-45, headlabel="False"] ;
33 [label="X[7] <= 0.6868\nmse = 162.6667\nsamples = 9\nvalue = 31.3333"] ;
32 -> 33 ;
34 [label="mse = 46.8889\nsamples = 3\nvalue = 16.6667"] ;
33 -> 34 ;
35 [label="X[3] <= 0.4799\nmse = 59.2222\nsamples = 6\nvalue = 38.6667"] ;
33 -> 35 ;
36 [label="mse = 12.25\nsamples = 2\nvalue = 29.5"] ;
35 -> 36 ;
37 [label="X[7] <= 0.9471\nmse = 19.6875\nsamples = 4\nvalue = 43.25"] ;
35 -> 37 ;
38 [label="mse = 2.25\nsamples = 2\nvalue = 47.5"] ;
37 -> 38 ;
39 [label="mse = 1.0\nsamples = 2\nvalue = 39.0"] ;
37 -> 39 ;
40 [label="X[0] <= 0.5608\nmse = 35.1289\nsamples = 15\nvalue = 8.9333"] ;
32 -> 40 ;
41 [label="X[1] <= 1.0578\nmse = 9.84\nsamples = 5\nvalue = 14.6"] ;
40 -> 41 ;
42 [label="mse = 1.0\nsamples = 2\nvalue = 18.0"] ;
41 -> 42 ;
43 [label="mse = 2.8889\nsamples = 3\nvalue = 12.3333"] ;
41 -> 43 ;
44 [label="X[6] <= 1.4291\nmse = 23.69\nsamples = 10\nvalue = 6.1"] ;
40 -> 44 ;
45 [label="X[8] <= 6.3766\nmse = 13.7344\nsamples = 8\nvalue = 4.375"] ;
44 -> 45 ;
46 [label="X[1] <= 0.9055\nmse = 9.6875\nsamples = 4\nvalue = 7.25"] ;
45 -> 46 ;
47 [label="mse = 4.0\nsamples = 2\nvalue = 10.0"] ;
46 -> 47 ;
48 [label="mse = 0.25\nsamples = 2\nvalue = 4.5"] ;
46 -> 48 ;
49 [label="X[8] <= 13.0596\nmse = 1.25\nsamples = 4\nvalue = 1.5"] ;
45 -> 49 ;
50 [label="mse = 0.25\nsamples = 2\nvalue = 2.5"] ;
49 -> 50 ;
51 [label="mse = 0.25\nsamples = 2\nvalue = 0.5"] ;
49 -> 51 ;
52 [label="mse = 4.0\nsamples = 2\nvalue = 13.0"] ;
44 -> 52 ;
}