digraph Tree {
node [shape=box] ;
0 [label="X[0] <= 55.0\nmse = 102.0\nsamples = 35\nvalue = 17.0"] ;
1 [label="X[0] <= 5.5\nmse = 38.4167\nsamples = 12\nvalue = 9.5"] ;
0 -> 1 [labeldistance=2.5, labelangle=45, headlabel="True"] ;
2 [label="X[1] <= 4.5\nmse = 1.25\nsamples = 4\nvalue = 2.5"] ;
1 -> 2 ;
3 [label="mse = 0.25\nsamples = 2\nvalue = 1.5"] ;
2 -> 3 ;
4 [label="mse = 0.25\nsamples = 2\nvalue = 3.5"] ;
2 -> 4 ;
5 [label="X[2] <= 6.0\nmse = 20.25\nsamples = 8\nvalue = 13.0"] ;
1 -> 5 ;
6 [label="mse = 1.0\nsamples = 2\nvalue = 7.0"] ;
5 -> 6 ;
7 [label="X[1] <= 4.5\nmse = 10.6667\nsamples = 6\nvalue = 15.0"] ;
5 -> 7 ;
8 [label="mse = 1.0\nsamples = 2\nvalue = 11.0"] ;
7 -> 8 ;
9 [label="X[2] <= 13.5\nmse = 3.5\nsamples = 4\nvalue = 17.0"] ;
7 -> 9 ;
10 [label="mse = 0.25\nsamples = 2\nvalue = 18.5"] ;
9 -> 10 ;
11 [label="mse = 2.25\nsamples = 2\nvalue = 15.5"] ;
9 -> 11 ;
12 [label="X[1] <= 1.5\nmse = 90.5142\nsamples = 23\nvalue = 20.913"] ;
0 -> 12 [labeldistance=2.5, labelangle=-45, headlabel="False"] ;
13 [label="X[0] <= 500050.0\nmse = 54.5\nsamples = 4\nvalue = 10.0"] ;
12 -> 13 ;
14 [label="mse = 42.25\nsamples = 2\nvalue = 13.5"] ;
13 -> 14 ;
15 [label="mse = 42.25\nsamples = 2\nvalue = 6.5"] ;
13 -> 15 ;
16 [label="X[2] <= 13.5\nmse = 67.7452\nsamples = 19\nvalue = 23.2105"] ;
12 -> 16 ;
17 [label="X[1] <= 4.5\nmse = 72.9752\nsamples = 11\nvalue = 19.4545"] ;
16 -> 17 ;
18 [label="X[2] <= 10.5\nmse = 29.6667\nsamples = 6\nvalue = 13.0"] ;
17 -> 18 ;
19 [label="mse = 13.0\nsamples = 4\nvalue = 10.0"] ;
18 -> 19 ;
20 [label="mse = 9.0\nsamples = 2\nvalue = 19.0"] ;
18 -> 20 ;
21 [label="X[0] <= 50050.0\nmse = 14.96\nsamples = 5\nvalue = 27.2"] ;
17 -> 21 ;
22 [label="mse = 8.2222\nsamples = 3\nvalue = 24.6667"] ;
21 -> 22 ;
23 [label="mse = 1.0\nsamples = 2\nvalue = 31.0"] ;
21 -> 23 ;
24 [label="X[0] <= 550.0\nmse = 14.4844\nsamples = 8\nvalue = 28.375"] ;
16 -> 24 ;
25 [label="X[2] <= 16.5\nmse = 4.56\nsamples = 5\nvalue = 25.8"] ;
24 -> 25 ;
26 [label="mse = 1.5556\nsamples = 3\nvalue = 27.3333"] ;
25 -> 26 ;
27 [label="mse = 0.25\nsamples = 2\nvalue = 23.5"] ;
25 -> 27 ;
28 [label="mse = 1.5556\nsamples = 3\nvalue = 32.6667"] ;
24 -> 28 ;
}