digraph Tree {
node [shape=box] ;
0 [label="X[9] <= 2.7847\nmse = 102.0\nsamples = 35\nvalue = 17.0"] ;
1 [label="X[9] <= 1.9813\nmse = 105.8889\nsamples = 18\nvalue = 12.6667"] ;
0 -> 1 [labeldistance=2.5, labelangle=45, headlabel="True"] ;
2 [label="X[9] <= 1.5281\nmse = 112.2449\nsamples = 7\nvalue = 20.5714"] ;
1 -> 2 ;
3 [label="mse = 16.6667\nsamples = 3\nvalue = 9.0"] ;
2 -> 3 ;
4 [label="X[14] <= 1.0207\nmse = 8.1875\nsamples = 4\nvalue = 29.25"] ;
2 -> 4 ;
5 [label="mse = 0.25\nsamples = 2\nvalue = 26.5"] ;
4 -> 5 ;
6 [label="mse = 1.0\nsamples = 2\nvalue = 32.0"] ;
4 -> 6 ;
7 [label="X[6] <= 1.5421\nmse = 36.7769\nsamples = 11\nvalue = 7.6364"] ;
1 -> 7 ;
8 [label="mse = 1.0\nsamples = 2\nvalue = 18.0"] ;
7 -> 8 ;
9 [label="X[22] <= 0.966\nmse = 15.5556\nsamples = 9\nvalue = 5.3333"] ;
7 -> 9 ;
10 [label="X[0] <= 1.8687\nmse = 3.6875\nsamples = 4\nvalue = 9.25"] ;
9 -> 10 ;
11 [label="mse = 0.25\nsamples = 2\nvalue = 7.5"] ;
10 -> 11 ;
12 [label="mse = 1.0\nsamples = 2\nvalue = 11.0"] ;
10 -> 12 ;
13 [label="X[0] <= 3.5432\nmse = 2.96\nsamples = 5\nvalue = 2.2"] ;
9 -> 13 ;
14 [label="mse = 0.6667\nsamples = 3\nvalue = 1.0"] ;
13 -> 14 ;
15 [label="mse = 1.0\nsamples = 2\nvalue = 4.0"] ;
13 -> 15 ;
16 [label="X[11] <= 0.9061\nmse = 56.9481\nsamples = 17\nvalue = 21.5882"] ;
0 -> 16 [labeldistance=2.5, labelangle=-45, headlabel="False"] ;
17 [label="X[3] <= 0.8706\nmse = 5.0\nsamples = 4\nvalue = 31.0"] ;
16 -> 17 ;
18 [label="mse = 1.0\nsamples = 2\nvalue = 33.0"] ;
17 -> 18 ;
19 [label="mse = 1.0\nsamples = 2\nvalue = 29.0"] ;
17 -> 19 ;
20 [label="X[11] <= 0.9666\nmse = 37.2899\nsamples = 13\nvalue = 18.6923"] ;
16 -> 20 ;
21 [label="mse = 16.6667\nsamples = 3\nvalue = 11.0"] ;
20 -> 21 ;
22 [label="X[18] <= 6.583\nmse = 20.4\nsamples = 10\nvalue = 21.0"] ;
20 -> 22 ;
23 [label="X[24] <= 1.0021\nmse = 5.84\nsamples = 5\nvalue = 24.6"] ;
22 -> 23 ;
24 [label="mse = 0.6667\nsamples = 3\nvalue = 23.0"] ;
23 -> 24 ;
25 [label="mse = 4.0\nsamples = 2\nvalue = 27.0"] ;
23 -> 25 ;
26 [label="X[15] <= 1.0\nmse = 9.04\nsamples = 5\nvalue = 17.4"] ;
22 -> 26 ;
27 [label="mse = 1.0\nsamples = 2\nvalue = 14.0"] ;
26 -> 27 ;
28 [label="mse = 1.5556\nsamples = 3\nvalue = 19.6667"] ;
26 -> 28 ;
}