digraph Tree {
node [shape=box] ;
0 [label="X[23] <= 4.9581\nmse = 225.25\nsamples = 52\nvalue = 25.5"] ;
1 [label="X[17] <= 1.0938\nmse = 197.1842\nsamples = 31\nvalue = 19.9032"] ;
0 -> 1 [labeldistance=2.5, labelangle=45, headlabel="True"] ;
2 [label="X[14] <= 1.0493\nmse = 177.4216\nsamples = 26\nvalue = 17.0385"] ;
1 -> 2 ;
3 [label="X[3] <= 0.8703\nmse = 109.31\nsamples = 20\nvalue = 13.3"] ;
2 -> 3 ;
4 [label="X[7] <= 1.26\nmse = 148.3594\nsamples = 8\nvalue = 20.125"] ;
3 -> 4 ;
5 [label="mse = 9.5556\nsamples = 3\nvalue = 34.3333"] ;
4 -> 5 ;
6 [label="X[8] <= 1.14\nmse = 37.84\nsamples = 5\nvalue = 11.6"] ;
4 -> 6 ;
7 [label="mse = 25.0\nsamples = 2\nvalue = 6.0"] ;
6 -> 7 ;
8 [label="mse = 11.5556\nsamples = 3\nvalue = 15.3333"] ;
6 -> 8 ;
9 [label="X[25] <= 3.29\nmse = 31.5208\nsamples = 12\nvalue = 8.75"] ;
3 -> 9 ;
10 [label="X[5] <= 0.9406\nmse = 9.04\nsamples = 5\nvalue = 3.6"] ;
9 -> 10 ;
11 [label="mse = 6.25\nsamples = 2\nvalue = 6.5"] ;
10 -> 11 ;
12 [label="mse = 1.5556\nsamples = 3\nvalue = 1.6667"] ;
10 -> 12 ;
13 [label="X[17] <= 1.0608\nmse = 15.102\nsamples = 7\nvalue = 12.4286"] ;
9 -> 13 ;
14 [label="X[24] <= 1.0451\nmse = 5.25\nsamples = 4\nvalue = 9.5"] ;
13 -> 14 ;
15 [label="mse = 0.25\nsamples = 2\nvalue = 7.5"] ;
14 -> 15 ;
16 [label="mse = 2.25\nsamples = 2\nvalue = 11.5"] ;
14 -> 16 ;
17 [label="mse = 1.5556\nsamples = 3\nvalue = 16.3333"] ;
13 -> 17 ;
18 [label="X[17] <= 1.0522\nmse = 202.5833\nsamples = 6\nvalue = 29.5"] ;
2 -> 18 ;
19 [label="mse = 131.5556\nsamples = 3\nvalue = 18.3333"] ;
18 -> 19 ;
20 [label="mse = 24.2222\nsamples = 3\nvalue = 40.6667"] ;
18 -> 20 ;
21 [label="X[0] <= 3.05\nmse = 35.36\nsamples = 5\nvalue = 34.8"] ;
1 -> 21 ;
22 [label="mse = 1.5556\nsamples = 3\nvalue = 39.3333"] ;
21 -> 22 ;
23 [label="mse = 9.0\nsamples = 2\nvalue = 28.0"] ;
21 -> 23 ;
24 [label="X[6] <= 2.3874\nmse = 152.1814\nsamples = 21\nvalue = 33.7619"] ;
0 -> 24 [labeldistance=2.5, labelangle=-45, headlabel="False"] ;
25 [label="X[2] <= 1.5415\nmse = 9.1389\nsamples = 6\nvalue = 46.8333"] ;
24 -> 25 ;
26 [label="mse = 1.5556\nsamples = 3\nvalue = 49.6667"] ;
25 -> 26 ;
27 [label="mse = 0.6667\nsamples = 3\nvalue = 44.0"] ;
25 -> 27 ;
28 [label="X[22] <= 1.0082\nmse = 113.7156\nsamples = 15\nvalue = 28.5333"] ;
24 -> 28 ;
29 [label="X[21] <= 116.2995\nmse = 86.7755\nsamples = 7\nvalue = 35.7143"] ;
28 -> 29 ;
30 [label="X[6] <= 4.665\nmse = 31.6875\nsamples = 4\nvalue = 42.75"] ;
29 -> 30 ;
31 [label="mse = 16.0\nsamples = 2\nvalue = 38.0"] ;
30 -> 31 ;
32 [label="mse = 2.25\nsamples = 2\nvalue = 47.5"] ;
30 -> 32 ;
33 [label="mse = 6.2222\nsamples = 3\nvalue = 26.3333"] ;
29 -> 33 ;
34 [label="X[0] <= 3.0381\nmse = 52.6875\nsamples = 8\nvalue = 22.25"] ;
28 -> 34 ;
35 [label="mse = 42.25\nsamples = 2\nvalue = 12.5"] ;
34 -> 35 ;
36 [label="X[0] <= 4.4745\nmse = 13.9167\nsamples = 6\nvalue = 25.5"] ;
34 -> 36 ;
37 [label="X[19] <= 0.9492\nmse = 3.6875\nsamples = 4\nvalue = 23.25"] ;
36 -> 37 ;
38 [label="mse = 0.25\nsamples = 2\nvalue = 21.5"] ;
37 -> 38 ;
39 [label="mse = 1.0\nsamples = 2\nvalue = 25.0"] ;
37 -> 39 ;
40 [label="mse = 4.0\nsamples = 2\nvalue = 30.0"] ;
36 -> 40 ;
}