digraph Tree {
node [shape=box] ;
0 [label="X[18] <= 6.7186\nmse = 216.6667\nsamples = 51\nvalue = 25.0"] ;
1 [label="X[21] <= 133.9947\nmse = 188.154\nsamples = 31\nvalue = 30.3226"] ;
0 -> 1 [labeldistance=2.5, labelangle=45, headlabel="True"] ;
2 [label="X[9] <= 1.8977\nmse = 115.25\nsamples = 4\nvalue = 9.5"] ;
1 -> 2 ;
3 [label="mse = 0.25\nsamples = 2\nvalue = 2.5"] ;
2 -> 3 ;
4 [label="mse = 132.25\nsamples = 2\nvalue = 16.5"] ;
2 -> 4 ;
5 [label="X[6] <= 5.161\nmse = 125.2044\nsamples = 27\nvalue = 33.4074"] ;
1 -> 5 ;
6 [label="X[25] <= 5.339\nmse = 85.8176\nsamples = 25\nvalue = 35.32"] ;
5 -> 6 ;
7 [label="X[25] <= 1.2627\nmse = 56.6136\nsamples = 22\nvalue = 37.5"] ;
6 -> 7 ;
8 [label="mse = 1.0\nsamples = 2\nvalue = 25.0"] ;
7 -> 8 ;
9 [label="X[13] <= 0.8817\nmse = 44.9875\nsamples = 20\nvalue = 38.75"] ;
7 -> 9 ;
10 [label="mse = 1.0\nsamples = 2\nvalue = 28.0"] ;
9 -> 10 ;
11 [label="X[24] <= 1.1867\nmse = 35.608\nsamples = 18\nvalue = 39.9444"] ;
9 -> 11 ;
12 [label="X[6] <= 2.3331\nmse = 29.4556\nsamples = 13\nvalue = 42.0769"] ;
11 -> 12 ;
13 [label="X[12] <= 4.1195\nmse = 21.4286\nsamples = 7\nvalue = 45.0"] ;
12 -> 13 ;
14 [label="X[13] <= 0.9308\nmse = 3.44\nsamples = 5\nvalue = 47.4"] ;
13 -> 14 ;
15 [label="mse = 0.25\nsamples = 2\nvalue = 49.5"] ;
14 -> 15 ;
16 [label="mse = 0.6667\nsamples = 3\nvalue = 46.0"] ;
14 -> 16 ;
17 [label="mse = 16.0\nsamples = 2\nvalue = 39.0"] ;
13 -> 17 ;
18 [label="X[3] <= 0.9609\nmse = 17.2222\nsamples = 6\nvalue = 38.6667"] ;
12 -> 18 ;
19 [label="mse = 2.6667\nsamples = 3\nvalue = 42.0"] ;
18 -> 19 ;
20 [label="mse = 9.5556\nsamples = 3\nvalue = 35.3333"] ;
18 -> 20 ;
21 [label="X[4] <= 4.2481\nmse = 9.04\nsamples = 5\nvalue = 34.4"] ;
11 -> 21 ;
22 [label="mse = 2.25\nsamples = 2\nvalue = 37.5"] ;
21 -> 22 ;
23 [label="mse = 2.8889\nsamples = 3\nvalue = 32.3333"] ;
21 -> 23 ;
24 [label="mse = 9.5556\nsamples = 3\nvalue = 19.3333"] ;
6 -> 24 ;
25 [label="mse = 0.25\nsamples = 2\nvalue = 9.5"] ;
5 -> 25 ;
26 [label="X[10] <= 5.1262\nmse = 148.8875\nsamples = 20\nvalue = 16.75"] ;
0 -> 26 [labeldistance=2.5, labelangle=-45, headlabel="False"] ;
27 [label="X[17] <= 1.1016\nmse = 139.5556\nsamples = 6\nvalue = 29.6667"] ;
26 -> 27 ;
28 [label="mse = 42.8889\nsamples = 3\nvalue = 40.3333"] ;
27 -> 28 ;
29 [label="mse = 8.6667\nsamples = 3\nvalue = 19.0"] ;
27 -> 29 ;
30 [label="X[3] <= 1.0981\nmse = 50.7398\nsamples = 14\nvalue = 11.2143"] ;
26 -> 30 ;
31 [label="X[20] <= 0.8861\nmse = 30.595\nsamples = 11\nvalue = 8.6364"] ;
30 -> 31 ;
32 [label="X[26] <= 1.0168\nmse = 8.6875\nsamples = 4\nvalue = 14.25"] ;
31 -> 32 ;
33 [label="mse = 1.0\nsamples = 2\nvalue = 12.0"] ;
32 -> 33 ;
34 [label="mse = 6.25\nsamples = 2\nvalue = 16.5"] ;
32 -> 34 ;
35 [label="X[18] <= 7.7775\nmse = 14.8163\nsamples = 7\nvalue = 5.4286"] ;
31 -> 35 ;
36 [label="X[25] <= 4.6251\nmse = 5.1875\nsamples = 4\nvalue = 8.25"] ;
35 -> 36 ;
37 [label="mse = 4.0\nsamples = 2\nvalue = 10.0"] ;
36 -> 37 ;
38 [label="mse = 0.25\nsamples = 2\nvalue = 6.5"] ;
36 -> 38 ;
39 [label="mse = 2.8889\nsamples = 3\nvalue = 1.6667"] ;
35 -> 39 ;
40 [label="mse = 10.8889\nsamples = 3\nvalue = 20.6667"] ;
30 -> 40 ;
}