digraph Tree {
node [shape=box] ;
0 [label="X[0] <= 5.5607\nmse = 261.25\nsamples = 56\nvalue = 27.5"] ;
1 [label="X[11] <= 1.0529\nmse = 243.6638\nsamples = 52\nvalue = 25.9038"] ;
0 -> 1 [labeldistance=2.5, labelangle=45, headlabel="True"] ;
2 [label="X[23] <= 1.8029\nmse = 228.848\nsamples = 43\nvalue = 23.4186"] ;
1 -> 2 ;
3 [label="X[17] <= 1.0512\nmse = 84.4691\nsamples = 9\nvalue = 34.5556"] ;
2 -> 3 ;
4 [label="X[12] <= 3.04\nmse = 21.5\nsamples = 4\nvalue = 26.0"] ;
3 -> 4 ;
5 [label="mse = 2.25\nsamples = 2\nvalue = 30.5"] ;
4 -> 5 ;
6 [label="mse = 0.25\nsamples = 2\nvalue = 21.5"] ;
4 -> 6 ;
7 [label="X[17] <= 1.0616\nmse = 29.44\nsamples = 5\nvalue = 41.4"] ;
3 -> 7 ;
8 [label="mse = 4.0\nsamples = 2\nvalue = 47.0"] ;
7 -> 8 ;
9 [label="mse = 11.5556\nsamples = 3\nvalue = 37.6667"] ;
7 -> 9 ;
10 [label="X[19] <= 0.9585\nmse = 225.5433\nsamples = 34\nvalue = 20.4706"] ;
2 -> 10 ;
11 [label="X[10] <= 2.7369\nmse = 221.071\nsamples = 26\nvalue = 24.0769"] ;
10 -> 11 ;
12 [label="X[5] <= 1.125\nmse = 221.1836\nsamples = 16\nvalue = 30.0625"] ;
11 -> 12 ;
13 [label="X[18] <= 5.115\nmse = 139.4\nsamples = 10\nvalue = 37.0"] ;
12 -> 13 ;
14 [label="mse = 12.6667\nsamples = 3\nvalue = 22.0"] ;
13 -> 14 ;
15 [label="X[0] <= 3.3026\nmse = 55.9592\nsamples = 7\nvalue = 43.4286"] ;
13 -> 15 ;
16 [label="mse = 12.25\nsamples = 2\nvalue = 33.5"] ;
15 -> 16 ;
17 [label="X[9] <= 1.7866\nmse = 18.24\nsamples = 5\nvalue = 47.4"] ;
15 -> 17 ;
18 [label="mse = 4.0\nsamples = 2\nvalue = 52.0"] ;
17 -> 18 ;
19 [label="mse = 4.2222\nsamples = 3\nvalue = 44.3333"] ;
17 -> 19 ;
20 [label="X[17] <= 1.0644\nmse = 143.5833\nsamples = 6\nvalue = 18.5"] ;
12 -> 20 ;
21 [label="mse = 28.6667\nsamples = 3\nvalue = 29.0"] ;
20 -> 21 ;
22 [label="mse = 38.0\nsamples = 3\nvalue = 8.0"] ;
20 -> 22 ;
23 [label="X[10] <= 3.1105\nmse = 71.85\nsamples = 10\nvalue = 14.5"] ;
11 -> 23 ;
24 [label="X[3] <= 0.9374\nmse = 23.1094\nsamples = 8\nvalue = 10.875"] ;
23 -> 24 ;
25 [label="X[8] <= 1.14\nmse = 10.0\nsamples = 5\nvalue = 14.0"] ;
24 -> 25 ;
26 [label="mse = 1.5556\nsamples = 3\nvalue = 11.6667"] ;
25 -> 26 ;
27 [label="mse = 2.25\nsamples = 2\nvalue = 17.5"] ;
25 -> 27 ;
28 [label="mse = 1.5556\nsamples = 3\nvalue = 5.6667"] ;
24 -> 28 ;
29 [label="mse = 4.0\nsamples = 2\nvalue = 29.0"] ;
23 -> 29 ;
30 [label="X[17] <= 1.0408\nmse = 60.4375\nsamples = 8\nvalue = 8.75"] ;
10 -> 30 ;
31 [label="mse = 36.0\nsamples = 2\nvalue = 20.0"] ;
30 -> 31 ;
32 [label="X[23] <= 3.7347\nmse = 12.3333\nsamples = 6\nvalue = 5.0"] ;
30 -> 32 ;
33 [label="mse = 2.25\nsamples = 2\nvalue = 9.5"] ;
32 -> 33 ;
34 [label="X[12] <= 3.04\nmse = 2.1875\nsamples = 4\nvalue = 2.75"] ;
32 -> 34 ;
35 [label="mse = 0.25\nsamples = 2\nvalue = 1.5"] ;
34 -> 35 ;
36 [label="mse = 1.0\nsamples = 2\nvalue = 4.0"] ;
34 -> 36 ;
37 [label="X[23] <= 1.5792\nmse = 143.9506\nsamples = 9\nvalue = 37.7778"] ;
1 -> 37 ;
38 [label="mse = 1.0\nsamples = 2\nvalue = 19.0"] ;
37 -> 38 ;
39 [label="X[5] <= 0.9748\nmse = 55.2653\nsamples = 7\nvalue = 43.1429"] ;
37 -> 39 ;
40 [label="X[18] <= 5.8086\nmse = 12.25\nsamples = 4\nvalue = 37.5"] ;
39 -> 40 ;
41 [label="mse = 6.25\nsamples = 2\nvalue = 40.5"] ;
40 -> 41 ;
42 [label="mse = 0.25\nsamples = 2\nvalue = 34.5"] ;
40 -> 42 ;
43 [label="mse = 13.5556\nsamples = 3\nvalue = 50.6667"] ;
39 -> 43 ;
44 [label="X[14] <= 0.961\nmse = 26.1875\nsamples = 4\nvalue = 48.25"] ;
0 -> 44 [labeldistance=2.5, labelangle=-45, headlabel="False"] ;
45 [label="mse = 16.0\nsamples = 2\nvalue = 44.0"] ;
44 -> 45 ;
46 [label="mse = 0.25\nsamples = 2\nvalue = 52.5"] ;
44 -> 46 ;
}