digraph Tree {
node [shape=box] ;
0 [label="X[5] <= 6.3815\nmse = 333039.0554\nsamples = 2000\nvalue = 996.5505"] ;
1 [label="X[1] <= 1.0889\nmse = 346855.9451\nsamples = 1249\nvalue = 1091.811"] ;
0 -> 1 [labeldistance=2.5, labelangle=45, headlabel="True"] ;
2 [label="X[8] <= 1.7678\nmse = 331968.9957\nsamples = 1161\nvalue = 1138.2438"] ;
1 -> 2 ;
3 [label="X[0] <= 0.2789\nmse = 445585.7848\nsamples = 467\nvalue = 967.0728"] ;
2 -> 3 ;
4 [label="X[4] <= 65.064\nmse = 409494.1875\nsamples = 279\nvalue = 1122.8136"] ;
3 -> 4 ;
5 [label="X[5] <= 1.1608\nmse = 259079.8873\nsamples = 75\nvalue = 806.2933"] ;
4 -> 5 ;
6 [label="mse = 0.0\nsamples = 8\nvalue = 1582.0"] ;
5 -> 6 ;
7 [label="X[6] <= 0.9937\nmse = 209588.7579\nsamples = 67\nvalue = 713.6716"] ;
5 -> 7 ;
8 [label="X[7] <= 3.9893\nmse = 185805.4329\nsamples = 65\nvalue = 683.6308"] ;
7 -> 8 ;
9 [label="X[1] <= 0.8279\nmse = 239489.4449\nsamples = 35\nvalue = 815.5714"] ;
8 -> 9 ;
10 [label="X[0] <= 0.1878\nmse = 148035.9439\nsamples = 14\nvalue = 566.3571"] ;
9 -> 10 ;
11 [label="X[1] <= 0.8233\nmse = 707.96\nsamples = 10\nvalue = 479.2"] ;
10 -> 11 ;
12 [label="mse = 680.5556\nsamples = 6\nvalue = 493.3333"] ;
11 -> 12 ;
13 [label="mse = 0.0\nsamples = 4\nvalue = 458.0"] ;
11 -> 13 ;
14 [label="mse = 449887.6875\nsamples = 4\nvalue = 784.25"] ;
10 -> 14 ;
15 [label="X[4] <= 52.497\nmse = 231449.8231\nsamples = 21\nvalue = 981.7143"] ;
9 -> 15 ;
16 [label="X[4] <= 42.3154\nmse = 256237.1111\nsamples = 18\nvalue = 937.3333"] ;
15 -> 16 ;
17 [label="mse = 0.0\nsamples = 2\nvalue = 780.0"] ;
16 -> 17 ;
18 [label="mse = 284785.75\nsamples = 16\nvalue = 957.0"] ;
16 -> 18 ;
19 [label="mse = 0.0\nsamples = 3\nvalue = 1248.0"] ;
15 -> 19 ;
20 [label="X[2] <= 89.4094\nmse = 79169.6767\nsamples = 30\nvalue = 529.7"] ;
8 -> 20 ;
21 [label="X[7] <= 4.0681\nmse = 68278.2464\nsamples = 25\nvalue = 596.44"] ;
20 -> 21 ;
22 [label="X[4] <= 45.0844\nmse = 35542.9375\nsamples = 8\nvalue = 859.75"] ;
21 -> 22 ;
23 [label="X[2] <= 85.337\nmse = 48930.75\nsamples = 4\nvalue = 754.5"] ;
22 -> 23 ;
24 [label="mse = 0.0\nsamples = 2\nvalue = 972.0"] ;
23 -> 24 ;
25 [label="mse = 3249.0\nsamples = 2\nvalue = 537.0"] ;
23 -> 25 ;
26 [label="mse = 0.0\nsamples = 4\nvalue = 965.0"] ;
22 -> 26 ;
27 [label="X[0] <= 0.1383\nmse = 35702.3668\nsamples = 17\nvalue = 472.5294"] ;
21 -> 27 ;
28 [label="mse = 0.0\nsamples = 3\nvalue = 89.0"] ;
27 -> 28 ;
29 [label="X[6] <= 0.3946\nmse = 5078.2041\nsamples = 14\nvalue = 554.7143"] ;
27 -> 29 ;
30 [label="mse = 0.0\nsamples = 6\nvalue = 637.0"] ;
29 -> 30 ;
31 [label="mse = 0.0\nsamples = 8\nvalue = 493.0"] ;
29 -> 31 ;
32 [label="mse = 0.0\nsamples = 5\nvalue = 196.0"] ;
20 -> 32 ;
33 [label="mse = 0.0\nsamples = 2\nvalue = 1690.0"] ;
7 -> 33 ;
34 [label="X[5] <= 1.1302\nmse = 414419.3544\nsamples = 204\nvalue = 1239.1814"] ;
4 -> 34 ;
35 [label="X[5] <= 1.037\nmse = 39748.9592\nsamples = 14\nvalue = 446.4286"] ;
34 -> 35 ;
36 [label="mse = 0.0\nsamples = 3\nvalue = 307.0"] ;
35 -> 36 ;
37 [label="X[7] <= 2.6501\nmse = 43841.7025\nsamples = 11\nvalue = 484.4545"] ;
35 -> 37 ;
38 [label="mse = 0.0\nsamples = 6\nvalue = 528.0"] ;
37 -> 38 ;
39 [label="mse = 91445.76\nsamples = 5\nvalue = 432.2"] ;
37 -> 39 ;
40 [label="X[5] <= 1.2965\nmse = 392307.1673\nsamples = 190\nvalue = 1297.5947"] ;
34 -> 40 ;
41 [label="X[4] <= 80.6055\nmse = 291115.3377\nsamples = 114\nvalue = 1436.5"] ;
40 -> 41 ;
42 [label="X[3] <= 0.5816\nmse = 290066.6667\nsamples = 76\nvalue = 1316.5658"] ;
41 -> 42 ;
43 [label="X[6] <= 0.1156\nmse = 10515.0\nsamples = 12\nvalue = 1718.0"] ;
42 -> 43 ;
44 [label="mse = 0.0\nsamples = 2\nvalue = 1883.0"] ;
43 -> 44 ;
45 [label="X[0] <= 0.2043\nmse = 6084.0\nsamples = 10\nvalue = 1685.0"] ;
43 -> 45 ;
46 [label="mse = 0.0\nsamples = 8\nvalue = 1646.0"] ;
45 -> 46 ;
47 [label="mse = 0.0\nsamples = 2\nvalue = 1841.0"] ;
45 -> 47 ;
48 [label="X[6] <= 1.1197\nmse = 306601.6775\nsamples = 64\nvalue = 1241.2969"] ;
42 -> 48 ;
49 [label="X[3] <= 0.6257\nmse = 334750.5161\nsamples = 29\nvalue = 994.9655"] ;
48 -> 49 ;
50 [label="X[6] <= 0.2903\nmse = 218803.5539\nsamples = 23\nvalue = 792.5217"] ;
49 -> 50 ;
51 [label="mse = 0.0\nsamples = 4\nvalue = 241.0"] ;
50 -> 51 ;
52 [label="X[6] <= 0.6954\nmse = 187348.8643\nsamples = 19\nvalue = 908.6316"] ;
50 -> 52 ;
53 [label="X[2] <= 82.3209\nmse = 51617.0663\nsamples = 14\nvalue = 1019.9286"] ;
52 -> 53 ;
54 [label="mse = 0.0\nsamples = 5\nvalue = 1312.0"] ;
53 -> 54 ;
55 [label="X[0] <= 0.1603\nmse = 6572.2222\nsamples = 9\nvalue = 857.6667"] ;
53 -> 55 ;
56 [label="mse = 0.0\nsamples = 7\nvalue = 901.0"] ;
55 -> 56 ;
57 [label="mse = 0.0\nsamples = 2\nvalue = 706.0"] ;
55 -> 57 ;
58 [label="mse = 435600.0\nsamples = 5\nvalue = 597.0"] ;
52 -> 58 ;
59 [label="X[3] <= 0.649\nmse = 19881.0\nsamples = 6\nvalue = 1771.0"] ;
49 -> 59 ;
60 [label="mse = 0.0\nsamples = 3\nvalue = 1630.0"] ;
59 -> 60 ;
61 [label="mse = 0.0\nsamples = 3\nvalue = 1912.0"] ;
59 -> 61 ;
62 [label="X[6] <= 1.6459\nmse = 191343.2686\nsamples = 35\nvalue = 1445.4"] ;
48 -> 62 ;
63 [label="X[5] <= 1.1626\nmse = 151952.1141\nsamples = 29\nvalue = 1561.7586"] ;
62 -> 63 ;
64 [label="X[8] <= 1.0515\nmse = 231097.9235\nsamples = 14\nvalue = 1355.0714"] ;
63 -> 64 ;
65 [label="X[3] <= 0.6129\nmse = 1444.0\nsamples = 10\nvalue = 1657.0"] ;
64 -> 65 ;
66 [label="mse = 0.0\nsamples = 8\nvalue = 1638.0"] ;
65 -> 66 ;
67 [label="mse = 0.0\nsamples = 2\nvalue = 1733.0"] ;
65 -> 67 ;
68 [label="mse = 7575.1875\nsamples = 4\nvalue = 600.25"] ;
64 -> 68 ;
69 [label="mse = 997.5556\nsamples = 15\nvalue = 1754.6667"] ;
63 -> 69 ;
70 [label="mse = 0.0\nsamples = 6\nvalue = 883.0"] ;
62 -> 70 ;
71 [label="X[7] <= 0.95\nmse = 206907.3906\nsamples = 38\nvalue = 1676.3684"] ;
41 -> 71 ;
72 [label="X[6] <= 0.2193\nmse = 265488.6875\nsamples = 8\nvalue = 1351.25"] ;
71 -> 72 ;
73 [label="mse = 0.0\nsamples = 2\nvalue = 1870.0"] ;
72 -> 73 ;
74 [label="mse = 234384.2222\nsamples = 6\nvalue = 1178.3333"] ;
72 -> 74 ;
75 [label="X[1] <= 0.8257\nmse = 155581.9289\nsamples = 30\nvalue = 1763.0667"] ;
71 -> 75 ;
76 [label="X[5] <= 1.2187\nmse = 22658.2382\nsamples = 23\nvalue = 1881.6087"] ;
75 -> 76 ;
77 [label="X[4] <= 87.1055\nmse = 25374.9784\nsamples = 18\nvalue = 1853.7222"] ;
76 -> 77 ;
78 [label="mse = 0.0\nsamples = 6\nvalue = 1835.0"] ;
77 -> 78 ;
79 [label="X[7] <= 4.1335\nmse = 37799.5764\nsamples = 12\nvalue = 1863.0833"] ;
77 -> 79 ;
80 [label="mse = 75440.1389\nsamples = 6\nvalue = 1854.1667"] ;
79 -> 80 ;
81 [label="mse = 0.0\nsamples = 6\nvalue = 1872.0"] ;
79 -> 81 ;
82 [label="mse = 0.0\nsamples = 5\nvalue = 1982.0"] ;
76 -> 82 ;
83 [label="mse = 394453.102\nsamples = 7\nvalue = 1373.5714"] ;
75 -> 83 ;
84 [label="X[7] <= 0.95\nmse = 471739.8913\nsamples = 76\nvalue = 1089.2368"] ;
40 -> 84 ;
85 [label="X[6] <= 0.2565\nmse = 252219.3012\nsamples = 35\nvalue = 1421.1143"] ;
84 -> 85 ;
86 [label="mse = 22000.5556\nsamples = 6\nvalue = 415.3333"] ;
85 -> 86 ;
87 [label="X[5] <= 4.3508\nmse = 47252.6468\nsamples = 29\nvalue = 1629.2069"] ;
85 -> 87 ;
88 [label="X[6] <= 0.493\nmse = 27648.2222\nsamples = 18\nvalue = 1745.6667"] ;
87 -> 88 ;
89 [label="mse = 0.0\nsamples = 8\nvalue = 1560.0"] ;
88 -> 89 ;
90 [label="X[0] <= 0.1722\nmse = 126.96\nsamples = 10\nvalue = 1894.2"] ;
88 -> 90 ;
91 [label="mse = 0.0\nsamples = 4\nvalue = 1908.0"] ;
90 -> 91 ;
92 [label="mse = 0.0\nsamples = 6\nvalue = 1885.0"] ;
90 -> 92 ;
93 [label="X[1] <= 0.8201\nmse = 20821.686\nsamples = 11\nvalue = 1438.6364"] ;
87 -> 93 ;
94 [label="mse = 0.0\nsamples = 3\nvalue = 1203.0"] ;
93 -> 94 ;
95 [label="mse = 0.0\nsamples = 8\nvalue = 1527.0"] ;
93 -> 95 ;
96 [label="X[5] <= 1.9856\nmse = 484846.7507\nsamples = 41\nvalue = 805.9268"] ;
84 -> 96 ;
97 [label="X[3] <= 0.6837\nmse = 488629.7122\nsamples = 30\nvalue = 967.7667"] ;
96 -> 97 ;
98 [label="X[8] <= 1.0459\nmse = 486856.1814\nsamples = 21\nvalue = 1178.9048"] ;
97 -> 98 ;
99 [label="mse = 0.0\nsamples = 5\nvalue = 414.0"] ;
98 -> 99 ;
100 [label="X[7] <= 3.8667\nmse = 399024.8086\nsamples = 16\nvalue = 1417.9375"] ;
98 -> 100 ;
101 [label="X[5] <= 1.3941\nmse = 416002.3594\nsamples = 8\nvalue = 980.875"] ;
100 -> 101 ;
102 [label="mse = 439580.8056\nsamples = 6\nvalue = 1149.8333"] ;
101 -> 102 ;
103 [label="mse = 2704.0\nsamples = 2\nvalue = 474.0"] ;
101 -> 103 ;
104 [label="mse = 0.0\nsamples = 8\nvalue = 1855.0"] ;
100 -> 104 ;
105 [label="mse = 146040.0988\nsamples = 9\nvalue = 475.1111"] ;
97 -> 105 ;
106 [label="X[3] <= 0.4955\nmse = 208278.9752\nsamples = 11\nvalue = 364.5455"] ;
96 -> 106 ;
107 [label="mse = 0.0\nsamples = 6\nvalue = 186.0"] ;
106 -> 107 ;
108 [label="mse = 374054.56\nsamples = 5\nvalue = 578.8"] ;
106 -> 108 ;
109 [label="X[5] <= 2.8833\nmse = 409732.2738\nsamples = 188\nvalue = 735.9468"] ;
3 -> 109 ;
110 [label="X[1] <= 0.8221\nmse = 164856.1507\nsamples = 109\nvalue = 448.4128"] ;
109 -> 110 ;
111 [label="X[7] <= 2.2394\nmse = 147867.0782\nsamples = 61\nvalue = 550.3443"] ;
110 -> 111 ;
112 [label="mse = 0.0\nsamples = 4\nvalue = 1486.0"] ;
111 -> 112 ;
113 [label="X[4] <= 83.2355\nmse = 92497.2687\nsamples = 57\nvalue = 484.6842"] ;
111 -> 113 ;
114 [label="X[4] <= 34.9028\nmse = 83958.7197\nsamples = 51\nvalue = 439.4706"] ;
113 -> 114 ;
115 [label="mse = 0.0\nsamples = 6\nvalue = 258.0"] ;
114 -> 115 ;
116 [label="X[7] <= 2.6011\nmse = 90176.8889\nsamples = 45\nvalue = 463.6667"] ;
114 -> 116 ;
117 [label="X[0] <= 0.6079\nmse = 51468.3567\nsamples = 30\nvalue = 388.9"] ;
116 -> 117 ;
118 [label="X[2] <= 85.2946\nmse = 18183.7895\nsamples = 19\nvalue = 534.0"] ;
117 -> 118 ;
119 [label="X[6] <= 0.6461\nmse = 16691.358\nsamples = 9\nvalue = 429.4444"] ;
118 -> 119 ;
120 [label="mse = 0.0\nsamples = 5\nvalue = 545.0"] ;
119 -> 120 ;
121 [label="mse = 0.0\nsamples = 4\nvalue = 285.0"] ;
119 -> 121 ;
122 [label="X[2] <= 89.8324\nmse = 833.49\nsamples = 10\nvalue = 628.1"] ;
118 -> 122 ;
123 [label="mse = 0.0\nsamples = 7\nvalue = 647.0"] ;
122 -> 123 ;
124 [label="mse = 0.0\nsamples = 3\nvalue = 584.0"] ;
122 -> 124 ;
125 [label="mse = 9779.8347\nsamples = 11\nvalue = 138.2727"] ;
117 -> 125 ;
126 [label="X[4] <= 72.7389\nmse = 134053.6267\nsamples = 15\nvalue = 613.2"] ;
116 -> 126 ;
127 [label="X[2] <= 85.0534\nmse = 3840.2367\nsamples = 13\nvalue = 471.3846"] ;
126 -> 127 ;
128 [label="mse = 0.0\nsamples = 2\nvalue = 576.0"] ;
127 -> 128 ;
129 [label="X[2] <= 91.2393\nmse = 2186.7769\nsamples = 11\nvalue = 452.3636"] ;
127 -> 129 ;
130 [label="mse = 0.0\nsamples = 3\nvalue = 376.0"] ;
129 -> 130 ;
131 [label="mse = 0.0\nsamples = 8\nvalue = 481.0"] ;
129 -> 131 ;
132 [label="mse = 0.0\nsamples = 2\nvalue = 1535.0"] ;
126 -> 132 ;
133 [label="mse = 0.0\nsamples = 6\nvalue = 869.0"] ;
113 -> 133 ;
134 [label="X[7] <= 0.95\nmse = 156462.401\nsamples = 48\nvalue = 318.875"] ;
110 -> 134 ;
135 [label="X[1] <= 0.8273\nmse = 307384.4236\nsamples = 22\nvalue = 448.4091"] ;
134 -> 135 ;
136 [label="mse = 2548.0\nsamples = 14\nvalue = 184.0"] ;
135 -> 136 ;
137 [label="mse = 504395.8594\nsamples = 8\nvalue = 911.125"] ;
135 -> 137 ;
138 [label="X[3] <= 0.4556\nmse = 2548.0429\nsamples = 26\nvalue = 209.2692"] ;
134 -> 138 ;
139 [label="mse = 0.0\nsamples = 3\nvalue = 322.0"] ;
138 -> 139 ;
140 [label="X[0] <= 0.539\nmse = 1006.5936\nsamples = 23\nvalue = 194.5652"] ;
138 -> 140 ;
141 [label="mse = 470.6939\nsamples = 7\nvalue = 150.1429"] ;
140 -> 141 ;
142 [label="mse = 0.0\nsamples = 16\nvalue = 214.0"] ;
140 -> 142 ;
143 [label="X[4] <= 39.7476\nmse = 476137.6892\nsamples = 79\nvalue = 1132.6709"] ;
109 -> 143 ;
144 [label="mse = 128518.5306\nsamples = 14\nvalue = 1887.5714"] ;
143 -> 144 ;
145 [label="X[3] <= 0.5976\nmse = 401830.4402\nsamples = 65\nvalue = 970.0769"] ;
143 -> 145 ;
146 [label="X[0] <= 0.5614\nmse = 146880.6612\nsamples = 35\nvalue = 585.2857"] ;
145 -> 146 ;
147 [label="X[3] <= 0.5628\nmse = 1260.0\nsamples = 12\nvalue = 953.0"] ;
146 -> 147 ;
148 [label="mse = 0.0\nsamples = 7\nvalue = 983.0"] ;
147 -> 148 ;
149 [label="mse = 0.0\nsamples = 5\nvalue = 911.0"] ;
147 -> 149 ;
150 [label="X[3] <= 0.5575\nmse = 115503.5501\nsamples = 23\nvalue = 393.4348"] ;
146 -> 150 ;
151 [label="mse = 0.0\nsamples = 3\nvalue = 86.0"] ;
150 -> 151 ;
152 [label="X[4] <= 55.6548\nmse = 116525.0475\nsamples = 20\nvalue = 439.55"] ;
150 -> 152 ;
153 [label="mse = 132590.4622\nsamples = 15\nvalue = 513.2667"] ;
152 -> 153 ;
154 [label="X[4] <= 70.517\nmse = 3119.04\nsamples = 5\nvalue = 218.4"] ;
152 -> 154 ;
155 [label="mse = 0.0\nsamples = 2\nvalue = 150.0"] ;
154 -> 155 ;
156 [label="mse = 0.0\nsamples = 3\nvalue = 264.0"] ;
154 -> 156 ;
157 [label="X[4] <= 59.9216\nmse = 324998.2667\nsamples = 30\nvalue = 1419.0"] ;
145 -> 157 ;
158 [label="X[0] <= 0.7781\nmse = 246225.0748\nsamples = 19\nvalue = 1183.6316"] ;
157 -> 158 ;
159 [label="X[4] <= 46.4117\nmse = 26775.9375\nsamples = 8\nvalue = 615.25"] ;
158 -> 159 ;
160 [label="mse = 0.0\nsamples = 5\nvalue = 742.0"] ;
159 -> 160 ;
161 [label="mse = 0.0\nsamples = 3\nvalue = 404.0"] ;
159 -> 161 ;
162 [label="mse = 0.0\nsamples = 11\nvalue = 1597.0"] ;
158 -> 162 ;
163 [label="mse = 200093.8843\nsamples = 11\nvalue = 1825.5455"] ;
157 -> 163 ;
164 [label="X[0] <= 0.2933\nmse = 222532.0371\nsamples = 694\nvalue = 1253.4265"] ;
2 -> 164 ;
165 [label="X[6] <= 0.2771\nmse = 244944.7828\nsamples = 184\nvalue = 1417.3533"] ;
164 -> 165 ;
166 [label="X[6] <= 0.0982\nmse = 269413.1783\nsamples = 56\nvalue = 1131.5179"] ;
165 -> 166 ;
167 [label="X[3] <= 0.6376\nmse = 226399.6145\nsamples = 41\nvalue = 1322.4634"] ;
166 -> 167 ;
168 [label="X[4] <= 85.3362\nmse = 33892.2461\nsamples = 16\nvalue = 1673.4375"] ;
167 -> 168 ;
169 [label="X[8] <= 9.1793\nmse = 576.9643\nsamples = 14\nvalue = 1742.5"] ;
168 -> 169 ;
170 [label="mse = 20.25\nsamples = 10\nvalue = 1757.5"] ;
169 -> 170 ;
171 [label="mse = 0.0\nsamples = 4\nvalue = 1705.0"] ;
169 -> 171 ;
172 [label="mse = 0.0\nsamples = 2\nvalue = 1190.0"] ;
168 -> 172 ;
173 [label="X[8] <= 10.7243\nmse = 220311.6544\nsamples = 25\nvalue = 1097.84"] ;
167 -> 173 ;
174 [label="mse = 115773.4722\nsamples = 6\nvalue = 508.1667"] ;
173 -> 174 ;
175 [label="X[4] <= 77.9666\nmse = 108843.9446\nsamples = 19\nvalue = 1284.0526"] ;
173 -> 175 ;
176 [label="X[7] <= 2.9522\nmse = 30180.3806\nsamples = 17\nvalue = 1382.1765"] ;
175 -> 176 ;
177 [label="X[8] <= 16.0464\nmse = 48.0\nsamples = 8\nvalue = 1473.0"] ;
176 -> 177 ;
178 [label="mse = 0.0\nsamples = 6\nvalue = 1477.0"] ;
177 -> 178 ;
179 [label="mse = 0.0\nsamples = 2\nvalue = 1461.0"] ;
177 -> 179 ;
180 [label="X[0] <= 0.2526\nmse = 43114.6914\nsamples = 9\nvalue = 1301.4444"] ;
176 -> 180 ;
181 [label="mse = 39950.2222\nsamples = 6\nvalue = 1210.6667"] ;
180 -> 181 ;
182 [label="mse = 0.0\nsamples = 3\nvalue = 1483.0"] ;
180 -> 182 ;
183 [label="mse = 0.0\nsamples = 2\nvalue = 450.0"] ;
175 -> 183 ;
184 [label="X[0] <= 0.1315\nmse = 14927.44\nsamples = 15\nvalue = 609.6"] ;
166 -> 184 ;
185 [label="X[4] <= 51.3347\nmse = 2062.56\nsamples = 10\nvalue = 691.8"] ;
184 -> 185 ;
186 [label="mse = 3226.24\nsamples = 5\nvalue = 670.6"] ;
185 -> 186 ;
187 [label="mse = 0.0\nsamples = 5\nvalue = 713.0"] ;
185 -> 187 ;
188 [label="X[0] <= 0.1619\nmse = 116.16\nsamples = 5\nvalue = 445.2"] ;
184 -> 188 ;
189 [label="mse = 0.0\nsamples = 2\nvalue = 432.0"] ;
188 -> 189 ;
190 [label="mse = 0.0\nsamples = 3\nvalue = 454.0"] ;
188 -> 190 ;
191 [label="X[5] <= 1.2965\nmse = 182857.0381\nsamples = 128\nvalue = 1542.4062"] ;
165 -> 191 ;
192 [label="X[6] <= 0.6931\nmse = 322747.534\nsamples = 18\nvalue = 1126.2778"] ;
191 -> 192 ;
193 [label="mse = 829.44\nsamples = 5\nvalue = 383.4"] ;
192 -> 193 ;
194 [label="X[8] <= 12.2167\nmse = 152668.3077\nsamples = 13\nvalue = 1412.0"] ;
192 -> 194 ;
195 [label="X[2] <= 86.6433\nmse = 31822.4691\nsamples = 9\nvalue = 1631.5556"] ;
194 -> 195 ;
196 [label="mse = 0.0\nsamples = 5\nvalue = 1472.0"] ;
195 -> 196 ;
197 [label="mse = 0.0\nsamples = 4\nvalue = 1831.0"] ;
195 -> 197 ;
198 [label="mse = 72075.0\nsamples = 4\nvalue = 918.0"] ;
194 -> 198 ;
199 [label="X[7] <= 1.1581\nmse = 126993.3591\nsamples = 110\nvalue = 1610.5"] ;
191 -> 199 ;
200 [label="X[3] <= 0.6405\nmse = 216298.3669\nsamples = 13\nvalue = 1230.6923"] ;
199 -> 200 ;
201 [label="mse = 0.0\nsamples = 4\nvalue = 1893.0"] ;
200 -> 201 ;
202 [label="X[2] <= 86.7721\nmse = 30827.5556\nsamples = 9\nvalue = 936.3333"] ;
200 -> 202 ;
203 [label="mse = 0.0\nsamples = 6\nvalue = 830.0"] ;
202 -> 203 ;
204 [label="mse = 24642.0\nsamples = 3\nvalue = 1149.0"] ;
202 -> 204 ;
205 [label="X[8] <= 10.3027\nmse = 93100.6322\nsamples = 97\nvalue = 1661.4021"] ;
199 -> 205 ;
206 [label="X[2] <= 82.3616\nmse = 35057.6894\nsamples = 51\nvalue = 1807.6078"] ;
205 -> 206 ;
207 [label="X[6] <= 0.8533\nmse = 40524.2449\nsamples = 7\nvalue = 1483.5714"] ;
206 -> 207 ;
208 [label="mse = 14910.75\nsamples = 4\nvalue = 1638.5"] ;
207 -> 208 ;
209 [label="mse = 0.0\nsamples = 3\nvalue = 1277.0"] ;
207 -> 209 ;
210 [label="X[4] <= 99.1845\nmse = 14825.9974\nsamples = 44\nvalue = 1859.1591"] ;
206 -> 210 ;
211 [label="X[5] <= 2.5627\nmse = 4316.1457\nsamples = 42\nvalue = 1881.7381"] ;
210 -> 211 ;
212 [label="X[6] <= 0.4595\nmse = 624.2939\nsamples = 35\nvalue = 1906.1429"] ;
211 -> 212 ;
213 [label="X[2] <= 84.6595\nmse = 103.5556\nsamples = 18\nvalue = 1926.3333"] ;
212 -> 213 ;
214 [label="mse = 0.0\nsamples = 7\nvalue = 1939.0"] ;
213 -> 214 ;
215 [label="X[3] <= 0.6586\nmse = 2.3802\nsamples = 11\nvalue = 1918.2727"] ;
213 -> 215 ;
216 [label="mse = 0.0\nsamples = 2\nvalue = 1915.0"] ;
215 -> 216 ;
217 [label="mse = 0.0\nsamples = 9\nvalue = 1919.0"] ;
215 -> 217 ;
218 [label="X[6] <= 0.7989\nmse = 287.0035\nsamples = 17\nvalue = 1884.7647"] ;
212 -> 218 ;
219 [label="mse = 0.0\nsamples = 11\nvalue = 1897.0"] ;
218 -> 219 ;
220 [label="mse = 35.5556\nsamples = 6\nvalue = 1862.3333"] ;
218 -> 220 ;
221 [label="X[4] <= 58.8101\nmse = 4907.6327\nsamples = 7\nvalue = 1759.7143"] ;
211 -> 221 ;
222 [label="mse = 0.0\nsamples = 4\nvalue = 1810.0"] ;
221 -> 222 ;
223 [label="mse = 3584.2222\nsamples = 3\nvalue = 1692.6667"] ;
221 -> 223 ;
224 [label="mse = 0.0\nsamples = 2\nvalue = 1385.0"] ;
210 -> 224 ;
225 [label="X[3] <= 0.6915\nmse = 107477.2987\nsamples = 46\nvalue = 1499.3043"] ;
205 -> 225 ;
226 [label="X[1] <= 0.9703\nmse = 135474.4637\nsamples = 29\nvalue = 1387.1379"] ;
225 -> 226 ;
227 [label="X[7] <= 3.6417\nmse = 154909.6644\nsamples = 21\nvalue = 1417.9524"] ;
226 -> 227 ;
228 [label="X[8] <= 12.0883\nmse = 15018.4\nsamples = 5\nvalue = 1606.0"] ;
227 -> 228 ;
229 [label="mse = 24492.25\nsamples = 2\nvalue = 1517.5"] ;
228 -> 229 ;
230 [label="mse = 0.0\nsamples = 3\nvalue = 1665.0"] ;
228 -> 230 ;
231 [label="X[0] <= 0.1803\nmse = 184121.7773\nsamples = 16\nvalue = 1359.1875"] ;
227 -> 231 ;
232 [label="mse = 0.0\nsamples = 6\nvalue = 1397.0"] ;
231 -> 232 ;
233 [label="mse = 293222.25\nsamples = 10\nvalue = 1336.5"] ;
231 -> 233 ;
234 [label="X[4] <= 29.3844\nmse = 75421.6875\nsamples = 8\nvalue = 1306.25"] ;
226 -> 234 ;
235 [label="mse = 0.0\nsamples = 6\nvalue = 1433.0"] ;
234 -> 235 ;
236 [label="mse = 108900.0\nsamples = 2\nvalue = 926.0"] ;
234 -> 236 ;
237 [label="X[7] <= 3.9498\nmse = 1643.1696\nsamples = 17\nvalue = 1690.6471"] ;
225 -> 237 ;
238 [label="X[2] <= 86.6433\nmse = 3.9506\nsamples = 9\nvalue = 1656.2222"] ;
237 -> 238 ;
239 [label="mse = 0.0\nsamples = 5\nvalue = 1658.0"] ;
238 -> 239 ;
240 [label="mse = 0.0\nsamples = 4\nvalue = 1654.0"] ;
238 -> 240 ;
241 [label="X[6] <= 0.9998\nmse = 654.2344\nsamples = 8\nvalue = 1729.375"] ;
237 -> 241 ;
242 [label="mse = 0.0\nsamples = 3\nvalue = 1754.0"] ;
241 -> 242 ;
243 [label="mse = 464.64\nsamples = 5\nvalue = 1714.6"] ;
241 -> 243 ;
244 [label="X[7] <= 0.7149\nmse = 201253.0819\nsamples = 510\nvalue = 1194.2843"] ;
164 -> 244 ;
245 [label="X[4] <= 59.229\nmse = 44138.3889\nsamples = 36\nvalue = 1634.6667"] ;
244 -> 245 ;
246 [label="X[3] <= 0.5562\nmse = 3552.2222\nsamples = 27\nvalue = 1724.6667"] ;
245 -> 246 ;
247 [label="mse = 0.0\nsamples = 15\nvalue = 1675.0"] ;
246 -> 247 ;
248 [label="X[5] <= 1.8742\nmse = 1054.6875\nsamples = 12\nvalue = 1786.75"] ;
246 -> 248 ;
249 [label="mse = 0.0\nsamples = 3\nvalue = 1843.0"] ;
248 -> 249 ;
250 [label="mse = 0.0\nsamples = 9\nvalue = 1768.0"] ;
248 -> 250 ;
251 [label="X[6] <= 0.4425\nmse = 68696.8889\nsamples = 9\nvalue = 1364.6667"] ;
245 -> 251 ;
252 [label="mse = 0.0\nsamples = 6\nvalue = 1550.0"] ;
251 -> 252 ;
253 [label="mse = 0.0\nsamples = 3\nvalue = 994.0"] ;
251 -> 253 ;
254 [label="X[1] <= 0.8274\nmse = 197337.7943\nsamples = 474\nvalue = 1160.8376"] ;
244 -> 254 ;
255 [label="X[2] <= 89.7938\nmse = 180937.3016\nsamples = 112\nvalue = 967.8304"] ;
254 -> 255 ;
256 [label="X[0] <= 0.8674\nmse = 122702.5769\nsamples = 83\nvalue = 855.3976"] ;
255 -> 256 ;
257 [label="X[3] <= 0.4463\nmse = 91325.1755\nsamples = 79\nvalue = 812.8354"] ;
256 -> 257 ;
258 [label="X[5] <= 5.7856\nmse = 6865.29\nsamples = 10\nvalue = 1243.1"] ;
257 -> 258 ;
259 [label="mse = 1152.1224\nsamples = 7\nvalue = 1192.1429"] ;
258 -> 259 ;
260 [label="mse = 0.0\nsamples = 3\nvalue = 1362.0"] ;
258 -> 260 ;
261 [label="X[8] <= 11.8483\nmse = 72847.235\nsamples = 69\nvalue = 750.4783"] ;
257 -> 261 ;
262 [label="X[0] <= 0.418\nmse = 57613.0296\nsamples = 67\nvalue = 728.0149"] ;
261 -> 262 ;
263 [label="X[1] <= 0.8205\nmse = 45849.2475\nsamples = 20\nvalue = 935.05"] ;
262 -> 263 ;
264 [label="mse = 15254.2222\nsamples = 9\nvalue = 726.6667"] ;
263 -> 264 ;
265 [label="X[1] <= 0.8233\nmse = 6284.4298\nsamples = 11\nvalue = 1105.5455"] ;
263 -> 265 ;
266 [label="mse = 0.0\nsamples = 3\nvalue = 1235.0"] ;
265 -> 266 ;
267 [label="mse = 0.0\nsamples = 8\nvalue = 1057.0"] ;
265 -> 267 ;
268 [label="X[2] <= 83.6822\nmse = 36617.4821\nsamples = 47\nvalue = 639.9149"] ;
262 -> 268 ;
269 [label="mse = 0.0\nsamples = 3\nvalue = 1077.0"] ;
268 -> 269 ;
270 [label="X[8] <= 7.7336\nmse = 25200.328\nsamples = 44\nvalue = 610.1136"] ;
268 -> 270 ;
271 [label="X[0] <= 0.6046\nmse = 39658.4266\nsamples = 19\nvalue = 688.3158"] ;
270 -> 271 ;
272 [label="X[3] <= 0.6158\nmse = 5740.5813\nsamples = 17\nvalue = 631.6471"] ;
271 -> 272 ;
273 [label="X[4] <= 61.4495\nmse = 639.0533\nsamples = 13\nvalue = 671.8462"] ;
272 -> 273 ;
274 [label="mse = 0.0\nsamples = 3\nvalue = 718.0"] ;
273 -> 274 ;
275 [label="mse = 0.0\nsamples = 10\nvalue = 658.0"] ;
273 -> 275 ;
276 [label="mse = 0.0\nsamples = 4\nvalue = 501.0"] ;
272 -> 276 ;
277 [label="mse = 68644.0\nsamples = 2\nvalue = 1170.0"] ;
271 -> 277 ;
278 [label="X[2] <= 85.1976\nmse = 6031.9776\nsamples = 25\nvalue = 550.68"] ;
270 -> 278 ;
279 [label="X[6] <= 0.2097\nmse = 746.0222\nsamples = 19\nvalue = 590.6316"] ;
278 -> 279 ;
280 [label="mse = 0.0\nsamples = 2\nvalue = 511.0"] ;
279 -> 280 ;
281 [label="mse = 0.0\nsamples = 17\nvalue = 600.0"] ;
279 -> 281 ;
282 [label="X[4] <= 59.3202\nmse = 1710.8056\nsamples = 6\nvalue = 424.1667"] ;
278 -> 282 ;
283 [label="mse = 5112.25\nsamples = 2\nvalue = 420.5"] ;
282 -> 283 ;
284 [label="mse = 0.0\nsamples = 4\nvalue = 426.0"] ;
282 -> 284 ;
285 [label="mse = 0.0\nsamples = 2\nvalue = 1503.0"] ;
261 -> 285 ;
286 [label="X[4] <= 61.4495\nmse = 16.0\nsamples = 4\nvalue = 1696.0"] ;
256 -> 286 ;
287 [label="mse = 0.0\nsamples = 2\nvalue = 1700.0"] ;
286 -> 287 ;
288 [label="mse = 0.0\nsamples = 2\nvalue = 1692.0"] ;
286 -> 288 ;
289 [label="X[6] <= 0.2395\nmse = 207880.3044\nsamples = 29\nvalue = 1289.6207"] ;
255 -> 289 ;
290 [label="mse = 0.0\nsamples = 9\nvalue = 617.0"] ;
289 -> 290 ;
291 [label="X[7] <= 1.8584\nmse = 6223.31\nsamples = 20\nvalue = 1592.3"] ;
289 -> 291 ;
292 [label="mse = 0.0\nsamples = 2\nvalue = 1365.0"] ;
291 -> 292 ;
293 [label="X[0] <= 0.6383\nmse = 536.358\nsamples = 18\nvalue = 1617.5556"] ;
291 -> 293 ;
294 [label="mse = 1260.75\nsamples = 4\nvalue = 1647.5"] ;
293 -> 294 ;
295 [label="mse = 0.0\nsamples = 14\nvalue = 1609.0"] ;
293 -> 295 ;
296 [label="X[8] <= 6.7262\nmse = 187320.6948\nsamples = 362\nvalue = 1220.5525"] ;
254 -> 296 ;
297 [label="X[5] <= 3.3729\nmse = 208769.7708\nsamples = 174\nvalue = 1110.1839"] ;
296 -> 297 ;
298 [label="X[6] <= 0.5266\nmse = 250303.1042\nsamples = 121\nvalue = 1033.8926"] ;
297 -> 298 ;
299 [label="X[6] <= 0.3642\nmse = 352880.9587\nsamples = 22\nvalue = 1265.3636"] ;
298 -> 299 ;
300 [label="X[7] <= 4.959\nmse = 212885.21\nsamples = 10\nvalue = 841.7"] ;
299 -> 300 ;
301 [label="mse = 190.1389\nsamples = 6\nvalue = 540.1667"] ;
300 -> 301 ;
302 [label="X[0] <= 0.72\nmse = 190969.0\nsamples = 4\nvalue = 1294.0"] ;
300 -> 302 ;
303 [label="mse = 0.0\nsamples = 2\nvalue = 1731.0"] ;
302 -> 303 ;
304 [label="mse = 0.0\nsamples = 2\nvalue = 857.0"] ;
302 -> 304 ;
305 [label="X[2] <= 85.2127\nmse = 195321.9097\nsamples = 12\nvalue = 1618.4167"] ;
299 -> 305 ;
306 [label="mse = 0.0\nsamples = 3\nvalue = 1846.0"] ;
305 -> 306 ;
307 [label="mse = 237409.5802\nsamples = 9\nvalue = 1542.5556"] ;
305 -> 307 ;
308 [label="X[4] <= 60.8013\nmse = 212955.7429\nsamples = 99\nvalue = 982.4545"] ;
298 -> 308 ;
309 [label="X[5] <= 2.8027\nmse = 232437.38\nsamples = 23\nvalue = 806.4783"] ;
308 -> 309 ;
310 [label="X[5] <= 2.3685\nmse = 202381.65\nsamples = 20\nvalue = 898.5"] ;
309 -> 310 ;
311 [label="X[4] <= 26.8804\nmse = 173800.09\nsamples = 17\nvalue = 800.2941"] ;
310 -> 311 ;
312 [label="mse = 8978.0\nsamples = 3\nvalue = 884.0"] ;
311 -> 312 ;
313 [label="X[0] <= 0.4869\nmse = 207295.9439\nsamples = 14\nvalue = 782.3571"] ;
311 -> 313 ;
314 [label="mse = 17111.25\nsamples = 6\nvalue = 815.5"] ;
313 -> 314 ;
315 [label="X[5] <= 1.2304\nmse = 348492.75\nsamples = 8\nvalue = 757.5"] ;
313 -> 315 ;
316 [label="mse = 0.0\nsamples = 2\nvalue = 753.0"] ;
315 -> 316 ;
317 [label="mse = 464648.0\nsamples = 6\nvalue = 759.0"] ;
315 -> 317 ;
318 [label="mse = 0.0\nsamples = 3\nvalue = 1455.0"] ;
310 -> 318 ;
319 [label="mse = 0.0\nsamples = 3\nvalue = 193.0"] ;
309 -> 319 ;
320 [label="X[1] <= 0.8297\nmse = 194851.9952\nsamples = 76\nvalue = 1035.7105"] ;
308 -> 320 ;
321 [label="mse = 283668.75\nsamples = 4\nvalue = 1386.5"] ;
320 -> 321 ;
322 [label="X[0] <= 0.8932\nmse = 182701.6451\nsamples = 72\nvalue = 1016.2222"] ;
320 -> 322 ;
323 [label="X[5] <= 1.2295\nmse = 114230.5198\nsamples = 51\nvalue = 970.902"] ;
322 -> 323 ;
324 [label="mse = 0.0\nsamples = 2\nvalue = 380.0"] ;
323 -> 324 ;
325 [label="X[5] <= 1.3961\nmse = 104059.6526\nsamples = 49\nvalue = 995.0204"] ;
323 -> 325 ;
326 [label="mse = 195253.7051\nsamples = 23\nvalue = 898.3478"] ;
325 -> 326 ;
327 [label="X[0] <= 0.4683\nmse = 7807.4024\nsamples = 26\nvalue = 1080.5385"] ;
325 -> 327 ;
328 [label="X[5] <= 1.8986\nmse = 497.8172\nsamples = 19\nvalue = 1034.1579"] ;
327 -> 328 ;
329 [label="mse = 0.0\nsamples = 6\nvalue = 1067.0"] ;
328 -> 329 ;
330 [label="mse = 0.0\nsamples = 13\nvalue = 1019.0"] ;
328 -> 330 ;
331 [label="X[3] <= 0.6968\nmse = 5960.5306\nsamples = 7\nvalue = 1206.4286"] ;
327 -> 331 ;
332 [label="X[2] <= 86.4475\nmse = 1482.25\nsamples = 4\nvalue = 1144.5"] ;
331 -> 332 ;
333 [label="mse = 0.0\nsamples = 2\nvalue = 1106.0"] ;
332 -> 333 ;
334 [label="mse = 0.0\nsamples = 2\nvalue = 1183.0"] ;
332 -> 334 ;
335 [label="mse = 0.0\nsamples = 3\nvalue = 1289.0"] ;
331 -> 335 ;
336 [label="X[8] <= 4.0361\nmse = 331886.585\nsamples = 21\nvalue = 1126.2857"] ;
322 -> 336 ;
337 [label="mse = 0.0\nsamples = 4\nvalue = 813.0"] ;
336 -> 337 ;
338 [label="mse = 381450.1176\nsamples = 17\nvalue = 1200.0"] ;
336 -> 338 ;
339 [label="X[6] <= 0.7899\nmse = 70323.5885\nsamples = 53\nvalue = 1284.3585"] ;
297 -> 339 ;
340 [label="X[4] <= 92.0923\nmse = 78814.8685\nsamples = 42\nvalue = 1241.8095"] ;
339 -> 340 ;
341 [label="X[3] <= 0.5262\nmse = 109271.1736\nsamples = 22\nvalue = 1350.0909"] ;
340 -> 341 ;
342 [label="X[0] <= 0.3389\nmse = 126466.3391\nsamples = 17\nvalue = 1298.8824"] ;
341 -> 342 ;
343 [label="X[4] <= 46.3655\nmse = 59317.0867\nsamples = 14\nvalue = 1380.6429"] ;
342 -> 343 ;
344 [label="mse = 23320.2222\nsamples = 6\nvalue = 1256.3333"] ;
343 -> 344 ;
345 [label="mse = 66032.8594\nsamples = 8\nvalue = 1473.875"] ;
343 -> 345 ;
346 [label="mse = 263054.2222\nsamples = 3\nvalue = 917.3333"] ;
342 -> 346 ;
347 [label="mse = 11577.76\nsamples = 5\nvalue = 1524.2"] ;
341 -> 347 ;
348 [label="X[7] <= 2.6687\nmse = 18228.51\nsamples = 20\nvalue = 1122.7"] ;
340 -> 348 ;
349 [label="mse = 27889.0\nsamples = 2\nvalue = 750.0"] ;
348 -> 349 ;
350 [label="X[7] <= 3.4202\nmse = 6.321\nsamples = 18\nvalue = 1164.1111"] ;
348 -> 350 ;
351 [label="mse = 0.0\nsamples = 16\nvalue = 1165.0"] ;
350 -> 351 ;
352 [label="mse = 0.0\nsamples = 2\nvalue = 1157.0"] ;
350 -> 352 ;
353 [label="X[7] <= 1.1957\nmse = 4596.6942\nsamples = 11\nvalue = 1446.8182"] ;
339 -> 353 ;
354 [label="mse = 0.0\nsamples = 6\nvalue = 1505.0"] ;
353 -> 354 ;
355 [label="X[6] <= 1.2223\nmse = 1176.0\nsamples = 5\nvalue = 1377.0"] ;
353 -> 355 ;
356 [label="mse = 0.0\nsamples = 2\nvalue = 1419.0"] ;
355 -> 356 ;
357 [label="mse = 0.0\nsamples = 3\nvalue = 1349.0"] ;
355 -> 357 ;
358 [label="X[6] <= 0.7727\nmse = 145760.2304\nsamples = 188\nvalue = 1322.7021"] ;
296 -> 358 ;
359 [label="X[3] <= 0.4695\nmse = 144456.9745\nsamples = 132\nvalue = 1244.053"] ;
358 -> 359 ;
360 [label="X[4] <= 90.6688\nmse = 80677.5833\nsamples = 18\nvalue = 844.5"] ;
359 -> 360 ;
361 [label="X[0] <= 0.6609\nmse = 85165.3711\nsamples = 16\nvalue = 869.4375"] ;
360 -> 361 ;
362 [label="mse = 177208.4082\nsamples = 7\nvalue = 908.1429"] ;
361 -> 362 ;
363 [label="mse = 11504.8889\nsamples = 9\nvalue = 839.3333"] ;
361 -> 363 ;
364 [label="mse = 0.0\nsamples = 2\nvalue = 645.0"] ;
360 -> 364 ;
365 [label="X[8] <= 15.5792\nmse = 125340.6645\nsamples = 114\nvalue = 1307.1404"] ;
359 -> 365 ;
366 [label="X[7] <= 4.9202\nmse = 107753.6261\nsamples = 109\nvalue = 1336.4954"] ;
365 -> 366 ;
367 [label="X[7] <= 2.6647\nmse = 105323.9234\nsamples = 105\nvalue = 1351.981"] ;
366 -> 367 ;
368 [label="X[3] <= 0.4908\nmse = 27262.2479\nsamples = 11\nvalue = 1553.5455"] ;
367 -> 368 ;
369 [label="mse = 0.0\nsamples = 4\nvalue = 1737.0"] ;
368 -> 369 ;
370 [label="mse = 12619.3469\nsamples = 7\nvalue = 1448.7143"] ;
368 -> 370 ;
371 [label="X[7] <= 3.2532\nmse = 109148.0685\nsamples = 94\nvalue = 1328.3936"] ;
367 -> 371 ;
372 [label="X[8] <= 9.9575\nmse = 104897.1094\nsamples = 8\nvalue = 958.875"] ;
371 -> 372 ;
373 [label="mse = 0.0\nsamples = 5\nvalue = 708.0"] ;
372 -> 373 ;
374 [label="mse = 0.0\nsamples = 3\nvalue = 1377.0"] ;
372 -> 374 ;
375 [label="X[7] <= 3.5518\nmse = 95660.1785\nsamples = 86\nvalue = 1362.7674"] ;
371 -> 375 ;
376 [label="X[4] <= 96.3046\nmse = 137197.1749\nsamples = 51\nvalue = 1314.9608"] ;
375 -> 376 ;
377 [label="mse = 180983.5721\nsamples = 33\nvalue = 1364.0606"] ;
376 -> 377 ;
378 [label="mse = 44399.3858\nsamples = 18\nvalue = 1224.9444"] ;
376 -> 378 ;
379 [label="X[4] <= 14.6214\nmse = 26951.902\nsamples = 35\nvalue = 1432.4286"] ;
375 -> 379 ;
380 [label="mse = 89888.0\nsamples = 3\nvalue = 1176.0"] ;
379 -> 380 ;
381 [label="X[1] <= 0.8307\nmse = 14309.124\nsamples = 32\nvalue = 1456.4688"] ;
379 -> 381 ;
382 [label="X[1] <= 0.8289\nmse = 450.6173\nsamples = 9\nvalue = 1307.7778"] ;
381 -> 382 ;
383 [label="mse = 0.0\nsamples = 4\nvalue = 1285.0"] ;
382 -> 383 ;
384 [label="mse = 64.0\nsamples = 5\nvalue = 1326.0"] ;
382 -> 384 ;
385 [label="X[6] <= 0.4219\nmse = 7695.3573\nsamples = 23\nvalue = 1514.6522"] ;
381 -> 385 ;
386 [label="mse = 0.0\nsamples = 4\nvalue = 1670.0"] ;
385 -> 386 ;
387 [label="X[4] <= 70.5005\nmse = 3165.2078\nsamples = 19\nvalue = 1481.9474"] ;
385 -> 387 ;
388 [label="mse = 0.0\nsamples = 4\nvalue = 1373.0"] ;
387 -> 388 ;
389 [label="mse = 0.0\nsamples = 15\nvalue = 1511.0"] ;
387 -> 389 ;
390 [label="mse = 0.0\nsamples = 4\nvalue = 930.0"] ;
366 -> 390 ;
391 [label="mse = 80428.96\nsamples = 5\nvalue = 667.2"] ;
365 -> 391 ;
392 [label="X[8] <= 11.8853\nmse = 99883.2599\nsamples = 56\nvalue = 1508.0893"] ;
358 -> 392 ;
393 [label="X[8] <= 10.3027\nmse = 6885.6077\nsamples = 27\nvalue = 1708.8519"] ;
392 -> 393 ;
394 [label="X[3] <= 0.6782\nmse = 1041.16\nsamples = 20\nvalue = 1754.8"] ;
393 -> 394 ;
395 [label="X[8] <= 8.7067\nmse = 8.64\nsamples = 10\nvalue = 1722.6"] ;
394 -> 395 ;
396 [label="mse = 0.0\nsamples = 6\nvalue = 1725.0"] ;
395 -> 396 ;
397 [label="mse = 0.0\nsamples = 4\nvalue = 1719.0"] ;
395 -> 397 ;
398 [label="mse = 0.0\nsamples = 10\nvalue = 1787.0"] ;
394 -> 398 ;
399 [label="X[1] <= 0.8519\nmse = 317.3878\nsamples = 7\nvalue = 1577.5714"] ;
393 -> 399 ;
400 [label="mse = 0.0\nsamples = 4\nvalue = 1593.0"] ;
399 -> 400 ;
401 [label="mse = 0.0\nsamples = 3\nvalue = 1557.0"] ;
399 -> 401 ;
402 [label="X[0] <= 0.8491\nmse = 114003.453\nsamples = 29\nvalue = 1321.1724"] ;
392 -> 402 ;
403 [label="X[0] <= 0.661\nmse = 74697.8147\nsamples = 23\nvalue = 1440.5217"] ;
402 -> 403 ;
404 [label="mse = 170528.0\nsamples = 3\nvalue = 1014.0"] ;
403 -> 404 ;
405 [label="X[6] <= 1.0869\nmse = 28941.95\nsamples = 20\nvalue = 1504.5"] ;
403 -> 405 ;
406 [label="X[0] <= 0.7634\nmse = 27199.2344\nsamples = 16\nvalue = 1546.875"] ;
405 -> 406 ;
407 [label="mse = 0.0\nsamples = 3\nvalue = 1356.0"] ;
406 -> 407 ;
408 [label="X[4] <= 79.5168\nmse = 23128.071\nsamples = 13\nvalue = 1590.9231"] ;
406 -> 408 ;
409 [label="mse = 0.0\nsamples = 3\nvalue = 1702.0"] ;
408 -> 409 ;
410 [label="X[2] <= 80.7851\nmse = 25254.64\nsamples = 10\nvalue = 1557.6"] ;
408 -> 410 ;
411 [label="mse = 0.0\nsamples = 4\nvalue = 1538.0"] ;
410 -> 411 ;
412 [label="mse = 41664.2222\nsamples = 6\nvalue = 1570.6667"] ;
410 -> 412 ;
413 [label="mse = 0.0\nsamples = 4\nvalue = 1335.0"] ;
405 -> 413 ;
414 [label="mse = 760.5556\nsamples = 6\nvalue = 863.6667"] ;
402 -> 414 ;
415 [label="X[6] <= 1.134\nmse = 139544.9193\nsamples = 88\nvalue = 479.2159"] ;
1 -> 415 ;
416 [label="X[4] <= 23.8839\nmse = 78951.276\nsamples = 24\nvalue = 882.875"] ;
415 -> 416 ;
417 [label="X[1] <= 1.1129\nmse = 8664.0\nsamples = 5\nvalue = 560.0"] ;
416 -> 417 ;
418 [label="mse = 0.0\nsamples = 2\nvalue = 446.0"] ;
417 -> 418 ;
419 [label="mse = 0.0\nsamples = 3\nvalue = 636.0"] ;
417 -> 419 ;
420 [label="X[0] <= 0.1506\nmse = 62794.7645\nsamples = 19\nvalue = 967.8421"] ;
416 -> 420 ;
421 [label="X[2] <= 83.4794\nmse = 62279.6471\nsamples = 17\nvalue = 939.0"] ;
420 -> 421 ;
422 [label="mse = 0.0\nsamples = 5\nvalue = 1032.0"] ;
421 -> 422 ;
423 [label="mse = 83124.1875\nsamples = 12\nvalue = 900.25"] ;
421 -> 423 ;
424 [label="mse = 0.0\nsamples = 2\nvalue = 1213.0"] ;
420 -> 424 ;
425 [label="X[8] <= 14.669\nmse = 78251.2568\nsamples = 64\nvalue = 327.8438"] ;
415 -> 425 ;
426 [label="X[7] <= 1.5856\nmse = 58983.5094\nsamples = 57\nvalue = 282.2281"] ;
425 -> 426 ;
427 [label="X[3] <= 0.4732\nmse = 36673.2137\nsamples = 42\nvalue = 208.9762"] ;
426 -> 427 ;
428 [label="X[0] <= 0.3932\nmse = 294.0\nsamples = 5\nvalue = 24.0"] ;
427 -> 428 ;
429 [label="mse = 0.0\nsamples = 3\nvalue = 38.0"] ;
428 -> 429 ;
430 [label="mse = 0.0\nsamples = 2\nvalue = 3.0"] ;
428 -> 430 ;
431 [label="X[1] <= 1.2286\nmse = 36340.6749\nsamples = 37\nvalue = 233.973"] ;
427 -> 431 ;
432 [label="X[6] <= 1.5744\nmse = 40344.4266\nsamples = 19\nvalue = 312.3158"] ;
431 -> 432 ;
433 [label="X[4] <= 75.2996\nmse = 33932.1246\nsamples = 17\nvalue = 346.5882"] ;
432 -> 433 ;
434 [label="X[1] <= 1.1873\nmse = 38622.0\nsamples = 8\nvalue = 214.0"] ;
433 -> 434 ;
435 [label="X[5] <= 2.9164\nmse = 1314.24\nsamples = 5\nvalue = 63.4"] ;
434 -> 435 ;
436 [label="mse = 0.0\nsamples = 2\nvalue = 19.0"] ;
435 -> 436 ;
437 [label="mse = 0.0\nsamples = 3\nvalue = 93.0"] ;
435 -> 437 ;
438 [label="mse = 0.0\nsamples = 3\nvalue = 465.0"] ;
434 -> 438 ;
439 [label="mse = 246.9136\nsamples = 9\nvalue = 464.4444"] ;
433 -> 439 ;
440 [label="mse = 0.0\nsamples = 2\nvalue = 21.0"] ;
432 -> 440 ;
441 [label="X[6] <= 1.6459\nmse = 18797.4228\nsamples = 18\nvalue = 151.2778"] ;
431 -> 441 ;
442 [label="X[1] <= 1.2492\nmse = 28184.9587\nsamples = 11\nvalue = 119.6364"] ;
441 -> 442 ;
443 [label="mse = 34392.2469\nsamples = 9\nvalue = 116.4444"] ;
442 -> 443 ;
444 [label="mse = 0.0\nsamples = 2\nvalue = 134.0"] ;
442 -> 444 ;
445 [label="mse = 0.0\nsamples = 7\nvalue = 201.0"] ;
441 -> 445 ;
446 [label="X[4] <= 72.35\nmse = 64359.8222\nsamples = 15\nvalue = 487.3333"] ;
426 -> 446 ;
447 [label="mse = 31250.25\nsamples = 4\nvalue = 153.5"] ;
446 -> 447 ;
448 [label="X[6] <= 1.2637\nmse = 21137.8347\nsamples = 11\nvalue = 608.7273"] ;
446 -> 448 ;
449 [label="X[7] <= 2.6414\nmse = 17637.7778\nsamples = 9\nvalue = 647.3333"] ;
448 -> 449 ;
450 [label="mse = 18933.76\nsamples = 5\nvalue = 722.8"] ;
449 -> 450 ;
451 [label="mse = 0.0\nsamples = 4\nvalue = 553.0"] ;
449 -> 451 ;
452 [label="mse = 0.0\nsamples = 2\nvalue = 435.0"] ;
448 -> 452 ;
453 [label="X[8] <= 16.809\nmse = 80233.0612\nsamples = 7\nvalue = 699.2857"] ;
425 -> 453 ;
454 [label="mse = 0.0\nsamples = 2\nvalue = 918.0"] ;
453 -> 454 ;
455 [label="mse = 85538.16\nsamples = 5\nvalue = 611.8"] ;
453 -> 455 ;
456 [label="X[6] <= 0.4916\nmse = 269868.0506\nsamples = 751\nvalue = 838.1212"] ;
0 -> 456 [labeldistance=2.5, labelangle=-45, headlabel="False"] ;
457 [label="X[4] <= 98.8972\nmse = 272831.869\nsamples = 274\nvalue = 1077.7445"] ;
456 -> 457 ;
458 [label="X[6] <= 0.2994\nmse = 230133.4695\nsamples = 254\nvalue = 1009.2992"] ;
457 -> 458 ;
459 [label="X[3] <= 0.5247\nmse = 223663.863\nsamples = 213\nvalue = 1089.4554"] ;
458 -> 459 ;
460 [label="X[7] <= 3.8887\nmse = 169651.0169\nsamples = 86\nvalue = 1308.5233"] ;
459 -> 460 ;
461 [label="X[4] <= 15.2693\nmse = 103395.6202\nsamples = 72\nvalue = 1380.0694"] ;
460 -> 461 ;
462 [label="X[7] <= 2.167\nmse = 26145.9375\nsamples = 8\nvalue = 834.75"] ;
461 -> 462 ;
463 [label="mse = 0.0\nsamples = 5\nvalue = 960.0"] ;
462 -> 463 ;
464 [label="mse = 0.0\nsamples = 3\nvalue = 626.0"] ;
462 -> 464 ;
465 [label="X[5] <= 19.7801\nmse = 71233.7107\nsamples = 64\nvalue = 1448.2344"] ;
461 -> 465 ;
466 [label="X[8] <= 11.6318\nmse = 95290.5339\nsamples = 35\nvalue = 1525.5429"] ;
465 -> 466 ;
467 [label="X[4] <= 39.713\nmse = 94258.2021\nsamples = 29\nvalue = 1583.931"] ;
466 -> 467 ;
468 [label="mse = 123904.0\nsamples = 22\nvalue = 1576.0"] ;
467 -> 468 ;
469 [label="mse = 266.6939\nsamples = 7\nvalue = 1608.8571"] ;
467 -> 469 ;
470 [label="X[1] <= 1.16\nmse = 4160.2222\nsamples = 6\nvalue = 1243.3333"] ;
466 -> 470 ;
471 [label="X[1] <= 1.0988\nmse = 1400.25\nsamples = 4\nvalue = 1283.5"] ;
470 -> 471 ;
472 [label="mse = 2116.0\nsamples = 2\nvalue = 1265.0"] ;
471 -> 472 ;
473 [label="mse = 0.0\nsamples = 2\nvalue = 1302.0"] ;
471 -> 473 ;
474 [label="mse = 0.0\nsamples = 2\nvalue = 1163.0"] ;
470 -> 474 ;
475 [label="X[2] <= 87.1874\nmse = 26280.9608\nsamples = 29\nvalue = 1354.931"] ;
465 -> 475 ;
476 [label="mse = 0.0\nsamples = 5\nvalue = 1013.0"] ;
475 -> 476 ;
477 [label="X[8] <= 4.9576\nmse = 2323.9722\nsamples = 24\nvalue = 1426.1667"] ;
475 -> 477 ;
478 [label="mse = 867.0\nsamples = 4\nvalue = 1475.0"] ;
477 -> 478 ;
479 [label="mse = 2043.04\nsamples = 20\nvalue = 1416.4"] ;
477 -> 479 ;
480 [label="X[8] <= 4.3815\nmse = 348678.9592\nsamples = 14\nvalue = 940.5714"] ;
460 -> 480 ;
481 [label="X[8] <= 4.0387\nmse = 50613.0612\nsamples = 7\nvalue = 396.7143"] ;
480 -> 481 ;
482 [label="mse = 0.0\nsamples = 2\nvalue = 41.0"] ;
481 -> 482 ;
483 [label="mse = 0.0\nsamples = 5\nvalue = 539.0"] ;
481 -> 483 ;
484 [label="X[3] <= 0.4616\nmse = 55183.6735\nsamples = 7\nvalue = 1484.4286"] ;
480 -> 484 ;
485 [label="mse = 0.0\nsamples = 5\nvalue = 1633.0"] ;
484 -> 485 ;
486 [label="mse = 0.0\nsamples = 2\nvalue = 1113.0"] ;
484 -> 486 ;
487 [label="X[6] <= 0.2264\nmse = 205735.5469\nsamples = 127\nvalue = 941.1102"] ;
459 -> 487 ;
488 [label="X[5] <= 27.3006\nmse = 203014.4675\nsamples = 62\nvalue = 695.9839"] ;
487 -> 488 ;
489 [label="X[1] <= 0.8268\nmse = 726.8622\nsamples = 15\nvalue = 129.7333"] ;
488 -> 489 ;
490 [label="X[0] <= 0.7838\nmse = 31.6875\nsamples = 12\nvalue = 137.75"] ;
489 -> 490 ;
491 [label="mse = 0.0\nsamples = 3\nvalue = 128.0"] ;
490 -> 491 ;
492 [label="mse = 0.0\nsamples = 9\nvalue = 141.0"] ;
490 -> 492 ;
493 [label="mse = 2222.2222\nsamples = 3\nvalue = 97.6667"] ;
489 -> 493 ;
494 [label="X[5] <= 36.674\nmse = 132583.4432\nsamples = 47\nvalue = 876.7021"] ;
488 -> 494 ;
495 [label="X[0] <= 0.6463\nmse = 130826.6351\nsamples = 39\nvalue = 806.9231"] ;
494 -> 495 ;
496 [label="X[8] <= 5.2751\nmse = 134641.7297\nsamples = 37\nvalue = 794.0"] ;
495 -> 496 ;
497 [label="X[4] <= 57.9978\nmse = 134815.5611\nsamples = 33\nvalue = 823.8788"] ;
496 -> 497 ;
498 [label="X[7] <= 2.704\nmse = 145884.2275\nsamples = 20\nvalue = 756.65"] ;
497 -> 498 ;
499 [label="mse = 266450.0\nsamples = 3\nvalue = 773.0"] ;
498 -> 499 ;
500 [label="mse = 124552.4152\nsamples = 17\nvalue = 753.7647"] ;
498 -> 500 ;
501 [label="X[1] <= 0.8632\nmse = 100135.9053\nsamples = 13\nvalue = 927.3077"] ;
497 -> 501 ;
502 [label="mse = 108984.0496\nsamples = 11\nvalue = 889.3636"] ;
501 -> 502 ;
503 [label="mse = 0.0\nsamples = 2\nvalue = 1136.0"] ;
501 -> 503 ;
504 [label="X[1] <= 0.8572\nmse = 65080.25\nsamples = 4\nvalue = 547.5"] ;
496 -> 504 ;
505 [label="mse = 676.0\nsamples = 2\nvalue = 353.0"] ;
504 -> 505 ;
506 [label="mse = 53824.0\nsamples = 2\nvalue = 742.0"] ;
504 -> 506 ;
507 [label="mse = 0.0\nsamples = 2\nvalue = 1046.0"] ;
495 -> 507 ;
508 [label="X[8] <= 2.3102\nmse = 1693.3594\nsamples = 8\nvalue = 1216.875"] ;
494 -> 508 ;
509 [label="mse = 0.0\nsamples = 5\nvalue = 1185.0"] ;
508 -> 509 ;
510 [label="mse = 0.0\nsamples = 3\nvalue = 1270.0"] ;
508 -> 510 ;
511 [label="X[7] <= 1.2329\nmse = 96348.9018\nsamples = 65\nvalue = 1174.9231"] ;
487 -> 511 ;
512 [label="mse = 104329.0\nsamples = 2\nvalue = 426.0"] ;
511 -> 512 ;
513 [label="X[3] <= 0.6804\nmse = 77724.4011\nsamples = 63\nvalue = 1198.6984"] ;
511 -> 513 ;
514 [label="X[1] <= 0.853\nmse = 81500.9124\nsamples = 52\nvalue = 1151.6731"] ;
513 -> 514 ;
515 [label="X[1] <= 0.8362\nmse = 48015.482\nsamples = 38\nvalue = 1203.7895"] ;
514 -> 515 ;
516 [label="X[0] <= 0.6686\nmse = 35593.3983\nsamples = 29\nvalue = 1123.3448"] ;
515 -> 516 ;
517 [label="mse = 0.0\nsamples = 4\nvalue = 1367.0"] ;
516 -> 517 ;
518 [label="X[1] <= 0.8252\nmse = 30269.6704\nsamples = 25\nvalue = 1084.36"] ;
516 -> 518 ;
519 [label="mse = 88358.4375\nsamples = 8\nvalue = 1019.25"] ;
518 -> 519 ;
520 [label="mse = 0.0\nsamples = 17\nvalue = 1115.0"] ;
518 -> 520 ;
521 [label="mse = 0.0\nsamples = 9\nvalue = 1463.0"] ;
515 -> 521 ;
522 [label="X[1] <= 0.9509\nmse = 145007.0255\nsamples = 14\nvalue = 1010.2143"] ;
514 -> 522 ;
523 [label="X[7] <= 2.2541\nmse = 173522.0165\nsamples = 11\nvalue = 973.7273"] ;
522 -> 523 ;
524 [label="mse = 191111.4844\nsamples = 8\nvalue = 1004.375"] ;
523 -> 524 ;
525 [label="mse = 117432.6667\nsamples = 3\nvalue = 892.0"] ;
523 -> 525 ;
526 [label="mse = 17672.0\nsamples = 3\nvalue = 1144.0"] ;
522 -> 526 ;
527 [label="mse = 0.0\nsamples = 11\nvalue = 1421.0"] ;
513 -> 527 ;
528 [label="X[3] <= 0.6237\nmse = 56958.5461\nsamples = 41\nvalue = 592.878"] ;
458 -> 528 ;
529 [label="X[0] <= 0.8132\nmse = 47965.2773\nsamples = 32\nvalue = 521.3125"] ;
528 -> 529 ;
530 [label="X[5] <= 48.9783\nmse = 36497.5207\nsamples = 26\nvalue = 456.3077"] ;
529 -> 530 ;
531 [label="X[0] <= 0.2401\nmse = 10781.7899\nsamples = 24\nvalue = 411.0417"] ;
530 -> 531 ;
532 [label="X[4] <= 68.2106\nmse = 7888.16\nsamples = 10\nvalue = 508.2"] ;
531 -> 532 ;
533 [label="X[2] <= 81.4221\nmse = 8624.2222\nsamples = 6\nvalue = 465.6667"] ;
532 -> 533 ;
534 [label="mse = 0.0\nsamples = 2\nvalue = 597.0"] ;
533 -> 534 ;
535 [label="mse = 0.0\nsamples = 4\nvalue = 400.0"] ;
533 -> 535 ;
536 [label="mse = 0.0\nsamples = 4\nvalue = 572.0"] ;
532 -> 536 ;
537 [label="X[7] <= 3.1224\nmse = 1289.801\nsamples = 14\nvalue = 341.6429"] ;
531 -> 537 ;
538 [label="X[7] <= 2.3096\nmse = 103.69\nsamples = 10\nvalue = 324.9"] ;
537 -> 538 ;
539 [label="X[2] <= 90.2408\nmse = 5.8594\nsamples = 8\nvalue = 329.875"] ;
538 -> 539 ;
540 [label="mse = 0.0\nsamples = 3\nvalue = 333.0"] ;
539 -> 540 ;
541 [label="mse = 0.0\nsamples = 5\nvalue = 328.0"] ;
539 -> 541 ;
542 [label="mse = 0.0\nsamples = 2\nvalue = 305.0"] ;
538 -> 542 ;
543 [label="X[4] <= 69.4365\nmse = 1802.25\nsamples = 4\nvalue = 383.5"] ;
537 -> 543 ;
544 [label="mse = 3600.0\nsamples = 2\nvalue = 385.0"] ;
543 -> 544 ;
545 [label="mse = 0.0\nsamples = 2\nvalue = 382.0"] ;
543 -> 545 ;
546 [label="mse = 25440.25\nsamples = 2\nvalue = 999.5"] ;
530 -> 546 ;
547 [label="mse = 0.0\nsamples = 6\nvalue = 803.0"] ;
529 -> 547 ;
548 [label="mse = 5976.8889\nsamples = 9\nvalue = 847.3333"] ;
528 -> 548 ;
549 [label="mse = 0.0\nsamples = 20\nvalue = 1947.0"] ;
457 -> 549 ;
550 [label="X[0] <= 0.4928\nmse = 216236.3165\nsamples = 477\nvalue = 700.4759"] ;
456 -> 550 ;
551 [label="X[7] <= 1.2493\nmse = 190216.2694\nsamples = 245\nvalue = 871.1429"] ;
550 -> 551 ;
552 [label="X[5] <= 8.795\nmse = 107912.7576\nsamples = 64\nvalue = 1164.2656"] ;
551 -> 552 ;
553 [label="mse = 115600.0\nsamples = 2\nvalue = 342.0"] ;
552 -> 553 ;
554 [label="X[8] <= 1.1647\nmse = 85150.8754\nsamples = 62\nvalue = 1190.7903"] ;
552 -> 554 ;
555 [label="X[3] <= 0.5941\nmse = 109191.358\nsamples = 9\nvalue = 1501.4444"] ;
554 -> 555 ;
556 [label="mse = 0.0\nsamples = 4\nvalue = 1132.0"] ;
555 -> 556 ;
557 [label="mse = 0.0\nsamples = 5\nvalue = 1797.0"] ;
555 -> 557 ;
558 [label="X[5] <= 11.9993\nmse = 61897.8854\nsamples = 53\nvalue = 1138.0377"] ;
554 -> 558 ;
559 [label="X[3] <= 0.437\nmse = 35.2653\nsamples = 7\nvalue = 1400.8571"] ;
558 -> 559 ;
560 [label="mse = 0.0\nsamples = 3\nvalue = 1394.0"] ;
559 -> 560 ;
561 [label="mse = 0.0\nsamples = 4\nvalue = 1406.0"] ;
559 -> 561 ;
562 [label="X[3] <= 0.6404\nmse = 59200.9546\nsamples = 46\nvalue = 1098.0435"] ;
558 -> 562 ;
563 [label="X[7] <= 0.4758\nmse = 70129.0273\nsamples = 32\nvalue = 1030.6875"] ;
562 -> 563 ;
564 [label="mse = 0.0\nsamples = 2\nvalue = 184.0"] ;
563 -> 564 ;
565 [label="X[5] <= 36.8122\nmse = 23826.1822\nsamples = 30\nvalue = 1087.1333"] ;
563 -> 565 ;
566 [label="mse = 26297.6327\nsamples = 7\nvalue = 904.2857"] ;
565 -> 566 ;
567 [label="X[4] <= 64.5623\nmse = 9801.8223\nsamples = 23\nvalue = 1142.7826"] ;
565 -> 567 ;
568 [label="X[2] <= 81.0037\nmse = 4716.2766\nsamples = 21\nvalue = 1119.9048"] ;
567 -> 568 ;
569 [label="mse = 0.0\nsamples = 17\nvalue = 1140.0"] ;
568 -> 569 ;
570 [label="X[6] <= 1.4438\nmse = 15750.25\nsamples = 4\nvalue = 1034.5"] ;
568 -> 570 ;
571 [label="mse = 0.0\nsamples = 2\nvalue = 909.0"] ;
570 -> 571 ;
572 [label="mse = 0.0\nsamples = 2\nvalue = 1160.0"] ;
570 -> 572 ;
573 [label="mse = 0.0\nsamples = 2\nvalue = 1383.0"] ;
567 -> 573 ;
574 [label="X[5] <= 16.7762\nmse = 150.0\nsamples = 14\nvalue = 1252.0"] ;
562 -> 574 ;
575 [label="mse = 0.0\nsamples = 2\nvalue = 1222.0"] ;
574 -> 575 ;
576 [label="mse = 0.0\nsamples = 12\nvalue = 1257.0"] ;
574 -> 576 ;
577 [label="X[8] <= 6.8362\nmse = 178194.7583\nsamples = 181\nvalue = 767.4972"] ;
551 -> 577 ;
578 [label="X[1] <= 0.82\nmse = 189793.5038\nsamples = 131\nvalue = 679.0076"] ;
577 -> 578 ;
579 [label="mse = 162.24\nsamples = 5\nvalue = 44.4"] ;
578 -> 579 ;
580 [label="X[8] <= 1.0518\nmse = 180703.1542\nsamples = 126\nvalue = 704.1905"] ;
578 -> 580 ;
581 [label="mse = 0.0\nsamples = 2\nvalue = 1668.0"] ;
580 -> 581 ;
582 [label="X[0] <= 0.1429\nmse = 168393.3418\nsamples = 124\nvalue = 688.6452"] ;
580 -> 582 ;
583 [label="mse = 0.0\nsamples = 6\nvalue = 208.0"] ;
582 -> 583 ;
584 [label="X[5] <= 16.6102\nmse = 164611.6538\nsamples = 118\nvalue = 713.0847"] ;
582 -> 584 ;
585 [label="X[8] <= 1.4602\nmse = 96162.2358\nsamples = 21\nvalue = 449.9524"] ;
584 -> 585 ;
586 [label="X[5] <= 11.4491\nmse = 32.0\nsamples = 6\nvalue = 113.0"] ;
585 -> 586 ;
587 [label="mse = 0.0\nsamples = 2\nvalue = 105.0"] ;
586 -> 587 ;
588 [label="mse = 0.0\nsamples = 4\nvalue = 117.0"] ;
586 -> 588 ;
589 [label="X[3] <= 0.6292\nmse = 71033.6622\nsamples = 15\nvalue = 584.7333"] ;
585 -> 589 ;
590 [label="X[3] <= 0.4856\nmse = 62951.0579\nsamples = 11\nvalue = 667.8182"] ;
589 -> 590 ;
591 [label="X[3] <= 0.4606\nmse = 129367.36\nsamples = 5\nvalue = 606.2"] ;
590 -> 591 ;
592 [label="mse = 156800.0\nsamples = 3\nvalue = 758.0"] ;
591 -> 592 ;
593 [label="mse = 1806.25\nsamples = 2\nvalue = 378.5"] ;
591 -> 593 ;
594 [label="X[8] <= 1.9182\nmse = 1803.4722\nsamples = 6\nvalue = 719.1667"] ;
590 -> 594 ;
595 [label="mse = 0.0\nsamples = 4\nvalue = 691.0"] ;
594 -> 595 ;
596 [label="mse = 650.25\nsamples = 2\nvalue = 775.5"] ;
594 -> 596 ;
597 [label="mse = 22072.6875\nsamples = 4\nvalue = 356.25"] ;
589 -> 597 ;
598 [label="X[6] <= 0.7327\nmse = 161195.5747\nsamples = 97\nvalue = 770.0515"] ;
584 -> 598 ;
599 [label="X[8] <= 1.4436\nmse = 285057.9246\nsamples = 26\nvalue = 969.8077"] ;
598 -> 599 ;
600 [label="X[4] <= 43.7445\nmse = 279078.1799\nsamples = 17\nvalue = 736.7647"] ;
599 -> 600 ;
601 [label="mse = 67512.69\nsamples = 10\nvalue = 1146.1"] ;
600 -> 601 ;
602 [label="mse = 0.0\nsamples = 7\nvalue = 152.0"] ;
600 -> 602 ;
603 [label="mse = 0.0\nsamples = 9\nvalue = 1410.0"] ;
599 -> 603 ;
604 [label="X[7] <= 3.019\nmse = 95874.3987\nsamples = 71\nvalue = 696.9014"] ;
598 -> 604 ;
605 [label="X[2] <= 84.1952\nmse = 122539.7511\nsamples = 45\nvalue = 752.9333"] ;
604 -> 605 ;
606 [label="X[1] <= 0.8632\nmse = 201465.0612\nsamples = 7\nvalue = 534.2857"] ;
605 -> 606 ;
607 [label="mse = 0.0\nsamples = 3\nvalue = 16.0"] ;
606 -> 607 ;
608 [label="mse = 0.0\nsamples = 4\nvalue = 923.0"] ;
606 -> 608 ;
609 [label="X[2] <= 84.6096\nmse = 97572.1136\nsamples = 38\nvalue = 793.2105"] ;
605 -> 609 ;
610 [label="mse = 120903.0489\nsamples = 30\nvalue = 777.5333"] ;
609 -> 610 ;
611 [label="X[0] <= 0.2969\nmse = 5703.25\nsamples = 8\nvalue = 852.0"] ;
609 -> 611 ;
612 [label="mse = 625.0\nsamples = 2\nvalue = 723.0"] ;
611 -> 612 ;
613 [label="mse = 0.0\nsamples = 6\nvalue = 895.0"] ;
611 -> 613 ;
614 [label="X[2] <= 86.0151\nmse = 34884.1479\nsamples = 26\nvalue = 599.9231"] ;
604 -> 614 ;
615 [label="X[7] <= 4.0681\nmse = 27692.9338\nsamples = 23\nvalue = 636.6087"] ;
614 -> 615 ;
616 [label="mse = 0.0\nsamples = 3\nvalue = 703.0"] ;
615 -> 616 ;
617 [label="mse = 31086.5275\nsamples = 20\nvalue = 626.65"] ;
615 -> 617 ;
618 [label="mse = 593.5556\nsamples = 3\nvalue = 318.6667"] ;
614 -> 618 ;
619 [label="X[7] <= 1.7018\nmse = 73539.3044\nsamples = 50\nvalue = 999.34"] ;
577 -> 619 ;
620 [label="X[7] <= 1.3293\nmse = 30423.4286\nsamples = 7\nvalue = 642.0"] ;
619 -> 620 ;
621 [label="mse = 0.0\nsamples = 2\nvalue = 890.0"] ;
620 -> 621 ;
622 [label="X[5] <= 34.2552\nmse = 8150.56\nsamples = 5\nvalue = 542.8"] ;
620 -> 622 ;
623 [label="mse = 392.0\nsamples = 3\nvalue = 615.0"] ;
622 -> 623 ;
624 [label="mse = 240.25\nsamples = 2\nvalue = 434.5"] ;
622 -> 624 ;
625 [label="X[1] <= 1.1199\nmse = 56387.1801\nsamples = 43\nvalue = 1057.5116"] ;
619 -> 625 ;
626 [label="X[2] <= 87.7172\nmse = 46415.102\nsamples = 35\nvalue = 1117.5714"] ;
625 -> 626 ;
627 [label="X[2] <= 82.9605\nmse = 27419.6451\nsamples = 18\nvalue = 1221.2778"] ;
626 -> 627 ;
628 [label="X[2] <= 81.6943\nmse = 13070.4375\nsamples = 8\nvalue = 1104.75"] ;
627 -> 628 ;
629 [label="X[8] <= 14.9344\nmse = 10340.25\nsamples = 6\nvalue = 1142.5"] ;
628 -> 629 ;
630 [label="mse = 9430.2222\nsamples = 3\nvalue = 1112.3333"] ;
629 -> 630 ;
631 [label="mse = 9430.2222\nsamples = 3\nvalue = 1172.6667"] ;
629 -> 631 ;
632 [label="mse = 4160.25\nsamples = 2\nvalue = 991.5"] ;
628 -> 632 ;
633 [label="X[8] <= 13.3654\nmse = 19345.65\nsamples = 10\nvalue = 1314.5"] ;
627 -> 633 ;
634 [label="mse = 12587.5556\nsamples = 3\nvalue = 1383.3333"] ;
633 -> 634 ;
635 [label="X[7] <= 3.3234\nmse = 19341.1429\nsamples = 7\nvalue = 1285.0"] ;
633 -> 635 ;
636 [label="mse = 33549.1875\nsamples = 4\nvalue = 1274.25"] ;
635 -> 636 ;
637 [label="mse = 37.5556\nsamples = 3\nvalue = 1299.3333"] ;
635 -> 637 ;
638 [label="X[0] <= 0.1827\nmse = 43082.7682\nsamples = 17\nvalue = 1007.7647"] ;
626 -> 638 ;
639 [label="mse = 0.0\nsamples = 11\nvalue = 1091.0"] ;
638 -> 639 ;
640 [label="X[8] <= 8.2505\nmse = 86080.1389\nsamples = 6\nvalue = 855.1667"] ;
638 -> 640 ;
641 [label="mse = 0.0\nsamples = 2\nvalue = 468.0"] ;
640 -> 641 ;
642 [label="X[7] <= 3.6892\nmse = 16696.6875\nsamples = 4\nvalue = 1048.75"] ;
640 -> 642 ;
643 [label="mse = 27722.25\nsamples = 2\nvalue = 995.5"] ;
642 -> 643 ;
644 [label="mse = 0.0\nsamples = 2\nvalue = 1102.0"] ;
642 -> 644 ;
645 [label="X[0] <= 0.1164\nmse = 15189.9375\nsamples = 8\nvalue = 794.75"] ;
625 -> 645 ;
646 [label="mse = 0.0\nsamples = 2\nvalue = 958.0"] ;
645 -> 646 ;
647 [label="X[0] <= 0.1819\nmse = 8408.5556\nsamples = 6\nvalue = 740.3333"] ;
645 -> 647 ;
648 [label="mse = 546.75\nsamples = 4\nvalue = 681.5"] ;
647 -> 648 ;
649 [label="mse = 3364.0\nsamples = 2\nvalue = 858.0"] ;
647 -> 649 ;
650 [label="X[7] <= 4.697\nmse = 180472.1164\nsamples = 232\nvalue = 520.2457"] ;
550 -> 650 ;
651 [label="X[6] <= 0.6905\nmse = 153602.187\nsamples = 219\nvalue = 479.0137"] ;
650 -> 651 ;
652 [label="X[4] <= 81.9981\nmse = 161456.0228\nsamples = 104\nvalue = 345.375"] ;
651 -> 652 ;
653 [label="X[8] <= 4.6641\nmse = 137383.3516\nsamples = 98\nvalue = 304.5204"] ;
652 -> 653 ;
654 [label="X[6] <= 0.5344\nmse = 141642.1884\nsamples = 65\nvalue = 391.8923"] ;
653 -> 654 ;
655 [label="X[5] <= 25.9533\nmse = 208235.5122\nsamples = 39\nvalue = 487.0256"] ;
654 -> 655 ;
656 [label="X[4] <= 54.6423\nmse = 184114.9481\nsamples = 37\nvalue = 444.4324"] ;
655 -> 656 ;
657 [label="X[3] <= 0.5137\nmse = 183443.8563\nsamples = 35\nvalue = 469.0286"] ;
656 -> 657 ;
658 [label="X[4] <= 19.5526\nmse = 185247.871\nsamples = 31\nvalue = 497.0"] ;
657 -> 658 ;
659 [label="mse = 0.0\nsamples = 4\nvalue = 407.0"] ;
658 -> 659 ;
660 [label="mse = 211314.2222\nsamples = 27\nvalue = 510.3333"] ;
658 -> 660 ;
661 [label="mse = 116406.1875\nsamples = 4\nvalue = 252.25"] ;
657 -> 661 ;
662 [label="mse = 0.0\nsamples = 2\nvalue = 14.0"] ;
656 -> 662 ;
663 [label="mse = 0.0\nsamples = 2\nvalue = 1275.0"] ;
655 -> 663 ;
664 [label="X[0] <= 0.61\nmse = 7813.3861\nsamples = 26\nvalue = 249.1923"] ;
654 -> 664 ;
665 [label="mse = 81796.0\nsamples = 2\nvalue = 382.0"] ;
664 -> 665 ;
666 [label="X[2] <= 82.4148\nmse = 55.8594\nsamples = 24\nvalue = 238.125"] ;
664 -> 666 ;
667 [label="mse = 0.0\nsamples = 13\nvalue = 245.0"] ;
666 -> 667 ;
668 [label="mse = 0.0\nsamples = 11\nvalue = 230.0"] ;
666 -> 668 ;
669 [label="X[2] <= 83.179\nmse = 84341.2746\nsamples = 33\nvalue = 132.4242"] ;
653 -> 669 ;
670 [label="X[8] <= 5.5044\nmse = 313.2487\nsamples = 28\nvalue = 56.4643"] ;
669 -> 670 ;
671 [label="mse = 0.0\nsamples = 14\nvalue = 44.0"] ;
670 -> 671 ;
672 [label="mse = 315.7806\nsamples = 14\nvalue = 68.9286"] ;
670 -> 672 ;
673 [label="X[7] <= 2.6647\nmse = 341642.16\nsamples = 5\nvalue = 557.8"] ;
669 -> 673 ;
674 [label="mse = 1058.0\nsamples = 3\nvalue = 81.0"] ;
673 -> 674 ;
675 [label="mse = 0.0\nsamples = 2\nvalue = 1273.0"] ;
673 -> 675 ;
676 [label="mse = 82102.8889\nsamples = 6\nvalue = 1012.6667"] ;
652 -> 676 ;
677 [label="X[4] <= 91.7584\nmse = 115742.4265\nsamples = 115\nvalue = 599.8696"] ;
651 -> 677 ;
678 [label="X[7] <= 0.844\nmse = 102243.2911\nsamples = 105\nvalue = 637.581"] ;
677 -> 678 ;
679 [label="X[8] <= 6.6323\nmse = 20272.5306\nsamples = 7\nvalue = 197.4286"] ;
678 -> 679 ;
680 [label="mse = 0.0\nsamples = 5\nvalue = 165.0"] ;
679 -> 680 ;
681 [label="mse = 61752.25\nsamples = 2\nvalue = 278.5"] ;
679 -> 681 ;
682 [label="X[7] <= 4.1335\nmse = 93271.7547\nsamples = 98\nvalue = 669.0204"] ;
678 -> 682 ;
683 [label="X[2] <= 81.146\nmse = 81271.6906\nsamples = 93\nvalue = 698.4839"] ;
682 -> 683 ;
684 [label="X[5] <= 12.4128\nmse = 940.1875\nsamples = 4\nvalue = 57.75"] ;
683 -> 684 ;
685 [label="mse = 0.0\nsamples = 2\nvalue = 28.0"] ;
684 -> 685 ;
686 [label="mse = 110.25\nsamples = 2\nvalue = 87.5"] ;
684 -> 686 ;
687 [label="X[1] <= 0.9635\nmse = 65601.5953\nsamples = 89\nvalue = 727.2809"] ;
683 -> 687 ;
688 [label="X[8] <= 14.645\nmse = 54012.5791\nsamples = 85\nvalue = 702.5176"] ;
687 -> 688 ;
689 [label="X[8] <= 11.775\nmse = 47485.0322\nsamples = 72\nvalue = 673.6528"] ;
688 -> 689 ;
690 [label="X[3] <= 0.5575\nmse = 42945.391\nsamples = 70\nvalue = 685.4571"] ;
689 -> 690 ;
691 [label="X[8] <= 3.2341\nmse = 33992.1631\nsamples = 32\nvalue = 753.6562"] ;
690 -> 691 ;
692 [label="X[6] <= 0.7257\nmse = 21979.8469\nsamples = 28\nvalue = 781.2857"] ;
691 -> 692 ;
693 [label="mse = 0.0\nsamples = 11\nvalue = 762.0"] ;
692 -> 693 ;
694 [label="mse = 35805.7093\nsamples = 17\nvalue = 793.7647"] ;
692 -> 694 ;
695 [label="X[1] <= 0.8211\nmse = 75328.6875\nsamples = 4\nvalue = 560.25"] ;
691 -> 695 ;
696 [label="mse = 0.0\nsamples = 2\nvalue = 755.0"] ;
695 -> 696 ;
697 [label="mse = 74802.25\nsamples = 2\nvalue = 365.5"] ;
695 -> 697 ;
698 [label="X[2] <= 89.359\nmse = 43269.9204\nsamples = 38\nvalue = 628.0263"] ;
690 -> 698 ;
699 [label="X[0] <= 0.7023\nmse = 36545.8347\nsamples = 33\nvalue = 586.2727"] ;
698 -> 699 ;
700 [label="mse = 1655.7755\nsamples = 14\nvalue = 501.7143"] ;
699 -> 700 ;
701 [label="X[0] <= 0.8344\nmse = 53103.7175\nsamples = 19\nvalue = 648.5789"] ;
699 -> 701 ;
702 [label="mse = 165300.5556\nsamples = 6\nvalue = 604.3333"] ;
701 -> 702 ;
703 [label="mse = 0.0\nsamples = 13\nvalue = 669.0"] ;
701 -> 703 ;
704 [label="X[5] <= 8.8314\nmse = 201.84\nsamples = 5\nvalue = 903.6"] ;
698 -> 704 ;
705 [label="mse = 0.0\nsamples = 3\nvalue = 892.0"] ;
704 -> 705 ;
706 [label="mse = 0.0\nsamples = 2\nvalue = 921.0"] ;
704 -> 706 ;
707 [label="mse = 30800.25\nsamples = 2\nvalue = 260.5"] ;
689 -> 707 ;
708 [label="X[3] <= 0.4964\nmse = 59993.1598\nsamples = 13\nvalue = 862.3846"] ;
688 -> 708 ;
709 [label="mse = 0.0\nsamples = 2\nvalue = 367.0"] ;
708 -> 709 ;
710 [label="X[4] <= 72.1913\nmse = 18169.157\nsamples = 11\nvalue = 952.4545"] ;
708 -> 710 ;
711 [label="X[6] <= 0.8427\nmse = 2765.1111\nsamples = 9\nvalue = 893.0"] ;
710 -> 711 ;
712 [label="mse = 0.0\nsamples = 5\nvalue = 859.0"] ;
711 -> 712 ;
713 [label="X[3] <= 0.5547\nmse = 2970.25\nsamples = 4\nvalue = 935.5"] ;
711 -> 713 ;
714 [label="mse = 0.0\nsamples = 2\nvalue = 881.0"] ;
713 -> 714 ;
715 [label="mse = 0.0\nsamples = 2\nvalue = 990.0"] ;
713 -> 715 ;
716 [label="mse = 0.0\nsamples = 2\nvalue = 1220.0"] ;
710 -> 716 ;
717 [label="mse = 21930.75\nsamples = 4\nvalue = 1253.5"] ;
687 -> 717 ;
718 [label="mse = 0.0\nsamples = 5\nvalue = 121.0"] ;
682 -> 718 ;
719 [label="X[7] <= 1.3591\nmse = 85758.89\nsamples = 10\nvalue = 203.9"] ;
677 -> 719 ;
720 [label="mse = 21025.0\nsamples = 2\nvalue = 744.0"] ;
719 -> 720 ;
721 [label="X[5] <= 18.4474\nmse = 10783.6094\nsamples = 8\nvalue = 68.875"] ;
719 -> 721 ;
722 [label="X[6] <= 0.8427\nmse = 72.25\nsamples = 6\nvalue = 16.5"] ;
721 -> 722 ;
723 [label="mse = 0.0\nsamples = 3\nvalue = 25.0"] ;
722 -> 723 ;
724 [label="mse = 0.0\nsamples = 3\nvalue = 8.0"] ;
722 -> 724 ;
725 [label="mse = 10000.0\nsamples = 2\nvalue = 226.0"] ;
721 -> 725 ;
726 [label="X[4] <= 72.4636\nmse = 122017.5148\nsamples = 13\nvalue = 1214.8462"] ;
650 -> 726 ;
727 [label="mse = 0.0\nsamples = 8\nvalue = 1491.0"] ;
726 -> 727 ;
728 [label="mse = 0.0\nsamples = 5\nvalue = 773.0"] ;
726 -> 728 ;
}