digraph Tree {
node [shape=box] ;
0 [label="X[2] <= 2.3581\nmse = 334450.356\nsamples = 2000\nvalue = 995.295"] ;
1 [label="X[7] <= 0.9337\nmse = 378061.7007\nsamples = 1160\nvalue = 1136.8233"] ;
0 -> 1 [labeldistance=2.5, labelangle=45, headlabel="True"] ;
2 [label="X[1] <= 0.9646\nmse = 209689.8815\nsamples = 315\nvalue = 1446.819"] ;
1 -> 2 ;
3 [label="X[2] <= 2.0555\nmse = 97381.7179\nsamples = 188\nvalue = 1606.9255"] ;
2 -> 3 ;
4 [label="X[1] <= 0.8432\nmse = 28155.1021\nsamples = 68\nvalue = 1795.4706"] ;
3 -> 4 ;
5 [label="mse = 0.0\nsamples = 7\nvalue = 1518.0"] ;
4 -> 5 ;
6 [label="X[4] <= 87.6045\nmse = 21537.2636\nsamples = 61\nvalue = 1827.3115"] ;
4 -> 6 ;
7 [label="mse = 26153.8594\nsamples = 8\nvalue = 1560.875"] ;
6 -> 7 ;
8 [label="X[4] <= 94.5176\nmse = 8507.7964\nsamples = 53\nvalue = 1867.5283"] ;
6 -> 8 ;
9 [label="X[1] <= 0.8742\nmse = 5218.142\nsamples = 44\nvalue = 1895.75"] ;
8 -> 9 ;
10 [label="mse = 1882.0\nsamples = 27\nvalue = 1845.3333"] ;
9 -> 10 ;
11 [label="X[7] <= 0.7089\nmse = 67.91\nsamples = 17\nvalue = 1975.8235"] ;
9 -> 11 ;
12 [label="mse = 0.0\nsamples = 6\nvalue = 1965.0"] ;
11 -> 12 ;
13 [label="X[6] <= 0.5233\nmse = 6.1983\nsamples = 11\nvalue = 1981.7273"] ;
11 -> 13 ;
14 [label="mse = 0.0\nsamples = 6\nvalue = 1984.0"] ;
13 -> 14 ;
15 [label="mse = 0.0\nsamples = 5\nvalue = 1979.0"] ;
13 -> 15 ;
16 [label="X[5] <= 1.2488\nmse = 1660.2469\nsamples = 9\nvalue = 1729.5556"] ;
8 -> 16 ;
17 [label="mse = 0.0\nsamples = 4\nvalue = 1684.0"] ;
16 -> 17 ;
18 [label="mse = 0.0\nsamples = 5\nvalue = 1766.0"] ;
16 -> 18 ;
19 [label="X[3] <= 0.8417\nmse = 105050.3097\nsamples = 120\nvalue = 1500.0833"] ;
3 -> 19 ;
20 [label="X[2] <= 2.1037\nmse = 59493.5802\nsamples = 63\nvalue = 1349.5556"] ;
19 -> 20 ;
21 [label="mse = 10862.6875\nsamples = 4\nvalue = 780.25"] ;
20 -> 21 ;
22 [label="X[8] <= 12.8787\nmse = 39327.3835\nsamples = 59\nvalue = 1388.1525"] ;
20 -> 22 ;
23 [label="X[3] <= 0.6259\nmse = 63490.3711\nsamples = 16\nvalue = 1218.5625"] ;
22 -> 23 ;
24 [label="mse = 0.0\nsamples = 3\nvalue = 1709.0"] ;
23 -> 24 ;
25 [label="mse = 9826.0828\nsamples = 13\nvalue = 1105.3846"] ;
23 -> 25 ;
26 [label="X[6] <= 0.6336\nmse = 15652.795\nsamples = 43\nvalue = 1451.2558"] ;
22 -> 26 ;
27 [label="X[1] <= 0.853\nmse = 11942.0255\nsamples = 28\nvalue = 1516.2143"] ;
26 -> 27 ;
28 [label="mse = 0.0\nsamples = 7\nvalue = 1367.0"] ;
27 -> 28 ;
29 [label="X[0] <= 0.1067\nmse = 6027.1882\nsamples = 21\nvalue = 1565.9524"] ;
27 -> 29 ;
30 [label="X[3] <= 0.6336\nmse = 1392.8099\nsamples = 11\nvalue = 1634.0909"] ;
29 -> 30 ;
31 [label="mse = 522.4691\nsamples = 9\nvalue = 1619.4444"] ;
30 -> 31 ;
32 [label="mse = 0.0\nsamples = 2\nvalue = 1700.0"] ;
30 -> 32 ;
33 [label="mse = 400.0\nsamples = 10\nvalue = 1491.0"] ;
29 -> 33 ;
34 [label="mse = 0.0\nsamples = 15\nvalue = 1330.0"] ;
26 -> 34 ;
35 [label="X[6] <= 0.1748\nmse = 102678.8446\nsamples = 57\nvalue = 1666.4561"] ;
19 -> 35 ;
36 [label="X[5] <= 6.6804\nmse = 80483.1074\nsamples = 11\nvalue = 1285.2727"] ;
35 -> 36 ;
37 [label="mse = 0.0\nsamples = 8\nvalue = 1459.0"] ;
36 -> 37 ;
38 [label="mse = 0.0\nsamples = 3\nvalue = 822.0"] ;
36 -> 38 ;
39 [label="X[3] <= 0.8956\nmse = 64931.8904\nsamples = 46\nvalue = 1757.6087"] ;
35 -> 39 ;
40 [label="X[8] <= 14.47\nmse = 49266.3051\nsamples = 39\nvalue = 1817.9487"] ;
39 -> 40 ;
41 [label="mse = 0.0\nsamples = 12\nvalue = 1898.0"] ;
40 -> 41 ;
42 [label="X[7] <= 0.7089\nmse = 67048.5295\nsamples = 27\nvalue = 1782.3704"] ;
40 -> 42 ;
43 [label="mse = 192475.6543\nsamples = 9\nvalue = 1754.8889"] ;
42 -> 43 ;
44 [label="mse = 3768.5432\nsamples = 18\nvalue = 1796.1111"] ;
42 -> 44 ;
45 [label="X[2] <= 2.1499\nmse = 18909.3878\nsamples = 7\nvalue = 1421.4286"] ;
39 -> 45 ;
46 [label="mse = 3600.0\nsamples = 2\nvalue = 1210.0"] ;
45 -> 46 ;
47 [label="mse = 0.0\nsamples = 5\nvalue = 1506.0"] ;
45 -> 47 ;
48 [label="X[8] <= 14.6297\nmse = 281822.0115\nsamples = 127\nvalue = 1209.811"] ;
2 -> 48 ;
49 [label="X[5] <= 1.6236\nmse = 16039.5207\nsamples = 11\nvalue = 390.4545"] ;
48 -> 49 ;
50 [label="mse = 14820.9877\nsamples = 9\nvalue = 388.8889"] ;
49 -> 50 ;
51 [label="mse = 21462.25\nsamples = 2\nvalue = 397.5"] ;
49 -> 51 ;
52 [label="X[8] <= 15.7122\nmse = 237326.5775\nsamples = 116\nvalue = 1287.5086"] ;
48 -> 52 ;
53 [label="X[0] <= 0.1435\nmse = 9347.9773\nsamples = 23\nvalue = 1801.3913"] ;
52 -> 53 ;
54 [label="mse = 0.0\nsamples = 15\nvalue = 1872.0"] ;
53 -> 54 ;
55 [label="mse = 0.0\nsamples = 8\nvalue = 1669.0"] ;
53 -> 55 ;
56 [label="X[8] <= 17.2336\nmse = 212247.7274\nsamples = 93\nvalue = 1160.4194"] ;
52 -> 56 ;
57 [label="X[2] <= 2.1017\nmse = 38135.5556\nsamples = 9\nvalue = 558.3333"] ;
56 -> 57 ;
58 [label="mse = 0.0\nsamples = 4\nvalue = 340.0"] ;
57 -> 58 ;
59 [label="mse = 0.0\nsamples = 5\nvalue = 733.0"] ;
57 -> 59 ;
60 [label="X[4] <= 85.2097\nmse = 187901.0663\nsamples = 84\nvalue = 1224.9286"] ;
56 -> 60 ;
61 [label="X[3] <= 0.7079\nmse = 7776.3743\nsamples = 23\nvalue = 1494.1304"] ;
60 -> 61 ;
62 [label="X[6] <= 0.5522\nmse = 194.2489\nsamples = 15\nvalue = 1431.5333"] ;
61 -> 62 ;
63 [label="mse = 0.0\nsamples = 2\nvalue = 1396.0"] ;
62 -> 63 ;
64 [label="mse = 0.0\nsamples = 13\nvalue = 1437.0"] ;
62 -> 64 ;
65 [label="X[2] <= 2.1017\nmse = 870.25\nsamples = 8\nvalue = 1611.5"] ;
61 -> 65 ;
66 [label="mse = 0.0\nsamples = 4\nvalue = 1641.0"] ;
65 -> 66 ;
67 [label="mse = 0.0\nsamples = 4\nvalue = 1582.0"] ;
65 -> 67 ;
68 [label="X[8] <= 19.1773\nmse = 218189.5888\nsamples = 61\nvalue = 1123.4262"] ;
60 -> 68 ;
69 [label="X[3] <= 0.7079\nmse = 228292.3585\nsamples = 47\nvalue = 1011.3617"] ;
68 -> 69 ;
70 [label="X[3] <= 0.6374\nmse = 163548.2656\nsamples = 25\nvalue = 1335.12"] ;
69 -> 70 ;
71 [label="X[2] <= 2.097\nmse = 193237.4072\nsamples = 19\nvalue = 1262.5263"] ;
70 -> 71 ;
72 [label="mse = 0.0\nsamples = 4\nvalue = 1346.0"] ;
71 -> 72 ;
73 [label="mse = 242413.7956\nsamples = 15\nvalue = 1240.2667"] ;
71 -> 73 ;
74 [label="mse = 0.0\nsamples = 6\nvalue = 1565.0"] ;
70 -> 74 ;
75 [label="mse = 47396.5207\nsamples = 22\nvalue = 643.4545"] ;
69 -> 75 ;
76 [label="mse = 573.6582\nsamples = 14\nvalue = 1499.6429"] ;
68 -> 76 ;
77 [label="X[5] <= 3.8024\nmse = 391650.002\nsamples = 845\nvalue = 1021.2627"] ;
1 -> 77 ;
78 [label="X[6] <= 0.4768\nmse = 355469.1363\nsamples = 594\nvalue = 1174.9411"] ;
77 -> 78 ;
79 [label="X[3] <= 0.809\nmse = 323861.7916\nsamples = 425\nvalue = 1288.5812"] ;
78 -> 79 ;
80 [label="X[8] <= 14.006\nmse = 368085.4945\nsamples = 311\nvalue = 1200.7042"] ;
79 -> 80 ;
81 [label="X[4] <= 88.1137\nmse = 455565.3061\nsamples = 127\nvalue = 957.9685"] ;
80 -> 81 ;
82 [label="X[2] <= 2.0914\nmse = 35908.3488\nsamples = 18\nvalue = 1772.3889"] ;
81 -> 82 ;
83 [label="mse = 0.0\nsamples = 8\nvalue = 1971.0"] ;
82 -> 83 ;
84 [label="X[1] <= 0.9658\nmse = 7832.25\nsamples = 10\nvalue = 1613.5"] ;
82 -> 84 ;
85 [label="mse = 0.0\nsamples = 5\nvalue = 1525.0"] ;
84 -> 85 ;
86 [label="mse = 0.0\nsamples = 5\nvalue = 1702.0"] ;
84 -> 86 ;
87 [label="X[8] <= 11.9502\nmse = 397245.9375\nsamples = 109\nvalue = 823.4771"] ;
81 -> 87 ;
88 [label="X[7] <= 2.9522\nmse = 64906.6745\nsamples = 47\nvalue = 475.4681"] ;
87 -> 88 ;
89 [label="X[4] <= 91.6501\nmse = 65140.8722\nsamples = 37\nvalue = 414.7838"] ;
88 -> 89 ;
90 [label="X[6] <= 0.3234\nmse = 49613.7452\nsamples = 19\nvalue = 255.2105"] ;
89 -> 90 ;
91 [label="mse = 0.0\nsamples = 10\nvalue = 186.0"] ;
90 -> 91 ;
92 [label="mse = 93504.0988\nsamples = 9\nvalue = 332.1111"] ;
90 -> 92 ;
93 [label="X[4] <= 95.3734\nmse = 26280.8395\nsamples = 18\nvalue = 583.2222"] ;
89 -> 93 ;
94 [label="mse = 631.75\nsamples = 8\nvalue = 763.5"] ;
93 -> 94 ;
95 [label="mse = 0.0\nsamples = 10\nvalue = 439.0"] ;
93 -> 95 ;
96 [label="mse = 0.0\nsamples = 10\nvalue = 700.0"] ;
88 -> 96 ;
97 [label="X[2] <= 2.0179\nmse = 487773.7222\nsamples = 62\nvalue = 1087.2903"] ;
87 -> 97 ;
98 [label="X[4] <= 99.4759\nmse = 533846.4256\nsamples = 34\nvalue = 727.4706"] ;
97 -> 98 ;
99 [label="X[3] <= 0.7409\nmse = 143243.4236\nsamples = 22\nvalue = 252.4091"] ;
98 -> 99 ;
100 [label="mse = 265963.5556\nsamples = 3\nvalue = 884.6667"] ;
99 -> 100 ;
101 [label="X[1] <= 0.8715\nmse = 50782.1385\nsamples = 19\nvalue = 152.5789"] ;
99 -> 101 ;
102 [label="mse = 0.0\nsamples = 3\nvalue = 673.0"] ;
101 -> 102 ;
103 [label="mse = 0.0\nsamples = 16\nvalue = 55.0"] ;
101 -> 103 ;
104 [label="X[0] <= 0.1338\nmse = 77651.9097\nsamples = 12\nvalue = 1598.4167"] ;
98 -> 104 ;
105 [label="mse = 83420.1389\nsamples = 6\nvalue = 1408.8333"] ;
104 -> 105 ;
106 [label="mse = 0.0\nsamples = 6\nvalue = 1788.0"] ;
104 -> 106 ;
107 [label="X[3] <= 0.7168\nmse = 83711.8827\nsamples = 28\nvalue = 1524.2143"] ;
97 -> 107 ;
108 [label="mse = 0.0\nsamples = 4\nvalue = 929.0"] ;
107 -> 108 ;
109 [label="X[3] <= 0.7907\nmse = 28776.0764\nsamples = 24\nvalue = 1623.4167"] ;
107 -> 109 ;
110 [label="mse = 151.29\nsamples = 10\nvalue = 1823.9"] ;
109 -> 110 ;
111 [label="mse = 5.7398\nsamples = 14\nvalue = 1480.2143"] ;
109 -> 111 ;
112 [label="X[0] <= 0.117\nmse = 238967.5978\nsamples = 184\nvalue = 1368.2446"] ;
80 -> 112 ;
113 [label="X[2] <= 2.2142\nmse = 194347.8302\nsamples = 54\nvalue = 1106.3889"] ;
112 -> 113 ;
114 [label="X[1] <= 0.8976\nmse = 167539.2604\nsamples = 29\nvalue = 1378.6552"] ;
113 -> 114 ;
115 [label="X[2] <= 2.1516\nmse = 142577.3802\nsamples = 26\nvalue = 1446.3462"] ;
114 -> 115 ;
116 [label="X[7] <= 2.2555\nmse = 143231.4566\nsamples = 24\nvalue = 1416.9583"] ;
115 -> 116 ;
117 [label="mse = 128984.6939\nsamples = 14\nvalue = 1484.8571"] ;
116 -> 117 ;
118 [label="mse = 147686.49\nsamples = 10\nvalue = 1321.9"] ;
116 -> 118 ;
119 [label="mse = 0.0\nsamples = 2\nvalue = 1799.0"] ;
115 -> 119 ;
120 [label="mse = 0.0\nsamples = 3\nvalue = 792.0"] ;
114 -> 120 ;
121 [label="X[5] <= 2.3915\nmse = 39708.3264\nsamples = 25\nvalue = 790.56"] ;
113 -> 121 ;
122 [label="X[1] <= 0.8384\nmse = 42914.8789\nsamples = 17\nvalue = 860.9412"] ;
121 -> 122 ;
123 [label="mse = 103640.8163\nsamples = 7\nvalue = 879.4286"] ;
122 -> 123 ;
124 [label="mse = 0.0\nsamples = 10\nvalue = 848.0"] ;
122 -> 124 ;
125 [label="mse = 0.0\nsamples = 8\nvalue = 641.0"] ;
121 -> 125 ;
126 [label="X[0] <= 0.1929\nmse = 217188.6151\nsamples = 130\nvalue = 1477.0154"] ;
112 -> 126 ;
127 [label="X[8] <= 19.1773\nmse = 161096.7669\nsamples = 110\nvalue = 1564.8182"] ;
126 -> 127 ;
128 [label="X[0] <= 0.1294\nmse = 129776.5471\nsamples = 107\nvalue = 1596.0654"] ;
127 -> 128 ;
129 [label="X[7] <= 1.7926\nmse = 1273.6735\nsamples = 14\nvalue = 1748.4286"] ;
128 -> 129 ;
130 [label="mse = 0.0\nsamples = 4\nvalue = 1692.0"] ;
129 -> 130 ;
131 [label="mse = 0.0\nsamples = 10\nvalue = 1771.0"] ;
129 -> 131 ;
132 [label="X[1] <= 1.0332\nmse = 145100.3274\nsamples = 93\nvalue = 1573.129"] ;
128 -> 132 ;
133 [label="X[5] <= 1.2318\nmse = 135816.049\nsamples = 89\nvalue = 1599.2022"] ;
132 -> 133 ;
134 [label="mse = 1249.8489\nsamples = 15\nvalue = 1850.8667"] ;
133 -> 134 ;
135 [label="X[7] <= 3.1906\nmse = 147652.4777\nsamples = 74\nvalue = 1548.1892"] ;
133 -> 135 ;
136 [label="X[2] <= 2.2393\nmse = 881.6327\nsamples = 7\nvalue = 1384.7143"] ;
135 -> 136 ;
137 [label="mse = 0.0\nsamples = 3\nvalue = 1419.0"] ;
136 -> 137 ;
138 [label="mse = 0.0\nsamples = 4\nvalue = 1359.0"] ;
136 -> 138 ;
139 [label="X[1] <= 0.9476\nmse = 159902.9726\nsamples = 67\nvalue = 1565.2687"] ;
135 -> 139 ;
140 [label="X[1] <= 0.8458\nmse = 176931.9456\nsamples = 60\nvalue = 1552.2333"] ;
139 -> 140 ;
141 [label="X[5] <= 2.9154\nmse = 217868.9481\nsamples = 39\nvalue = 1592.359"] ;
140 -> 141 ;
142 [label="mse = 0.0\nsamples = 4\nvalue = 1428.0"] ;
141 -> 142 ;
143 [label="mse = 239328.1224\nsamples = 35\nvalue = 1611.1429"] ;
141 -> 143 ;
144 [label="mse = 92362.8707\nsamples = 21\nvalue = 1477.7143"] ;
140 -> 144 ;
145 [label="mse = 0.0\nsamples = 7\nvalue = 1677.0"] ;
139 -> 145 ;
146 [label="mse = 0.0\nsamples = 4\nvalue = 993.0"] ;
132 -> 146 ;
147 [label="mse = 1283.5556\nsamples = 3\nvalue = 450.3333"] ;
127 -> 147 ;
148 [label="X[4] <= 90.9855\nmse = 250085.19\nsamples = 20\nvalue = 994.1"] ;
126 -> 148 ;
149 [label="X[6] <= 0.1165\nmse = 158649.1094\nsamples = 16\nvalue = 818.625"] ;
148 -> 149 ;
150 [label="mse = 181261.0909\nsamples = 11\nvalue = 943.0"] ;
149 -> 150 ;
151 [label="mse = 0.0\nsamples = 5\nvalue = 545.0"] ;
149 -> 151 ;
152 [label="mse = 0.0\nsamples = 4\nvalue = 1696.0"] ;
148 -> 152 ;
153 [label="X[4] <= 99.6749\nmse = 124676.5845\nsamples = 114\nvalue = 1528.3158"] ;
79 -> 153 ;
154 [label="X[2] <= 2.0829\nmse = 71588.2889\nsamples = 90\nvalue = 1605.3333"] ;
153 -> 154 ;
155 [label="X[1] <= 0.8715\nmse = 8927.2136\nsamples = 23\nvalue = 1915.2174"] ;
154 -> 155 ;
156 [label="mse = 0.0\nsamples = 9\nvalue = 1918.0"] ;
155 -> 156 ;
157 [label="mse = 14657.9592\nsamples = 14\nvalue = 1913.4286"] ;
155 -> 157 ;
158 [label="X[8] <= 11.2761\nmse = 48817.6249\nsamples = 67\nvalue = 1498.9552"] ;
154 -> 158 ;
159 [label="X[5] <= 1.1693\nmse = 154.3806\nsamples = 17\nvalue = 1764.1765"] ;
158 -> 159 ;
160 [label="mse = 0.0\nsamples = 6\nvalue = 1781.0"] ;
159 -> 160 ;
161 [label="mse = 0.0\nsamples = 11\nvalue = 1755.0"] ;
159 -> 161 ;
162 [label="X[7] <= 2.2138\nmse = 33315.1716\nsamples = 50\nvalue = 1408.78"] ;
158 -> 162 ;
163 [label="X[5] <= 1.9705\nmse = 8133.8081\nsamples = 47\nvalue = 1445.0213"] ;
162 -> 163 ;
164 [label="X[8] <= 15.7009\nmse = 9191.8962\nsamples = 17\nvalue = 1536.4706"] ;
163 -> 164 ;
165 [label="mse = 0.0\nsamples = 5\nvalue = 1432.0"] ;
164 -> 165 ;
166 [label="X[4] <= 89.4526\nmse = 6579.5\nsamples = 12\nvalue = 1580.0"] ;
164 -> 166 ;
167 [label="X[6] <= 0.2528\nmse = 11674.8\nsamples = 5\nvalue = 1531.0"] ;
166 -> 167 ;
168 [label="mse = 0.0\nsamples = 2\nvalue = 1639.0"] ;
167 -> 168 ;
169 [label="mse = 6498.0\nsamples = 3\nvalue = 1459.0"] ;
167 -> 169 ;
170 [label="mse = 0.0\nsamples = 7\nvalue = 1615.0"] ;
166 -> 170 ;
171 [label="X[7] <= 1.496\nmse = 109.76\nsamples = 30\nvalue = 1393.2"] ;
163 -> 171 ;
172 [label="mse = 0.0\nsamples = 14\nvalue = 1382.0"] ;
171 -> 172 ;
173 [label="mse = 0.0\nsamples = 16\nvalue = 1403.0"] ;
171 -> 173 ;
174 [label="mse = 84872.0\nsamples = 3\nvalue = 841.0"] ;
162 -> 174 ;
175 [label="X[5] <= 1.698\nmse = 218099.25\nsamples = 24\nvalue = 1239.5"] ;
153 -> 175 ;
176 [label="mse = 0.0\nsamples = 4\nvalue = 1688.0"] ;
175 -> 176 ;
177 [label="mse = 213442.56\nsamples = 20\nvalue = 1149.8"] ;
175 -> 177 ;
178 [label="X[2] <= 2.1393\nmse = 320807.8857\nsamples = 169\nvalue = 889.1598"] ;
78 -> 178 ;
179 [label="X[8] <= 12.0833\nmse = 285847.4257\nsamples = 56\nvalue = 1331.5536"] ;
178 -> 179 ;
180 [label="X[1] <= 0.9218\nmse = 868.2766\nsamples = 21\nvalue = 1915.0952"] ;
179 -> 180 ;
181 [label="mse = 0.0\nsamples = 10\nvalue = 1946.0"] ;
180 -> 181 ;
182 [label="mse = 0.0\nsamples = 11\nvalue = 1887.0"] ;
180 -> 182 ;
183 [label="X[1] <= 0.9886\nmse = 129934.8735\nsamples = 35\nvalue = 981.4286"] ;
179 -> 183 ;
184 [label="mse = 0.0\nsamples = 5\nvalue = 198.0"] ;
183 -> 184 ;
185 [label="X[8] <= 17.0372\nmse = 32248.4\nsamples = 30\nvalue = 1112.0"] ;
183 -> 185 ;
186 [label="X[7] <= 3.482\nmse = 18766.8\nsamples = 15\nvalue = 961.0"] ;
185 -> 186 ;
187 [label="mse = 0.0\nsamples = 11\nvalue = 934.0"] ;
186 -> 187 ;
188 [label="mse = 62857.6875\nsamples = 4\nvalue = 1035.25"] ;
186 -> 188 ;
189 [label="X[8] <= 17.561\nmse = 128.0\nsamples = 15\nvalue = 1263.0"] ;
185 -> 189 ;
190 [label="mse = 0.0\nsamples = 5\nvalue = 1279.0"] ;
189 -> 190 ;
191 [label="mse = 0.0\nsamples = 10\nvalue = 1255.0"] ;
189 -> 191 ;
192 [label="X[1] <= 0.9305\nmse = 193077.3476\nsamples = 113\nvalue = 669.9204"] ;
178 -> 192 ;
193 [label="X[0] <= 0.1185\nmse = 57493.3785\nsamples = 65\nvalue = 389.4"] ;
192 -> 193 ;
194 [label="mse = 47698.56\nsamples = 5\nvalue = 881.2"] ;
193 -> 194 ;
195 [label="X[0] <= 0.1859\nmse = 36474.3764\nsamples = 60\nvalue = 348.4167"] ;
193 -> 195 ;
196 [label="X[1] <= 0.8683\nmse = 24206.9811\nsamples = 54\nvalue = 308.0185"] ;
195 -> 196 ;
197 [label="X[2] <= 2.1623\nmse = 16463.4291\nsamples = 45\nvalue = 262.2444"] ;
196 -> 197 ;
198 [label="X[3] <= 0.6118\nmse = 8855.6116\nsamples = 22\nvalue = 332.5455"] ;
197 -> 198 ;
199 [label="mse = 0.0\nsamples = 2\nvalue = 81.0"] ;
198 -> 199 ;
200 [label="X[3] <= 0.7539\nmse = 2780.91\nsamples = 20\nvalue = 357.7"] ;
198 -> 200 ;
201 [label="mse = 0.0\nsamples = 11\nvalue = 310.0"] ;
200 -> 201 ;
202 [label="mse = 0.0\nsamples = 9\nvalue = 416.0"] ;
200 -> 202 ;
203 [label="X[8] <= 13.0387\nmse = 14491.3043\nsamples = 23\nvalue = 195.0"] ;
197 -> 203 ;
204 [label="mse = 38293.3594\nsamples = 8\nvalue = 241.875"] ;
203 -> 204 ;
205 [label="mse = 0.0\nsamples = 15\nvalue = 170.0"] ;
203 -> 205 ;
206 [label="mse = 66.7654\nsamples = 9\nvalue = 536.8889"] ;
196 -> 206 ;
207 [label="mse = 0.0\nsamples = 6\nvalue = 712.0"] ;
195 -> 207 ;
208 [label="X[8] <= 12.8725\nmse = 125816.7899\nsamples = 48\nvalue = 1049.7917"] ;
192 -> 208 ;
209 [label="X[4] <= 92.6244\nmse = 113343.686\nsamples = 22\nvalue = 1264.3636"] ;
208 -> 209 ;
210 [label="mse = 325314.5833\nsamples = 6\nvalue = 1064.5"] ;
209 -> 210 ;
211 [label="X[2] <= 2.2023\nmse = 13257.7148\nsamples = 16\nvalue = 1339.3125"] ;
209 -> 211 ;
212 [label="mse = 0.0\nsamples = 13\nvalue = 1284.0"] ;
211 -> 212 ;
213 [label="mse = 0.0\nsamples = 3\nvalue = 1579.0"] ;
211 -> 213 ;
214 [label="X[0] <= 0.1468\nmse = 64448.716\nsamples = 26\nvalue = 868.2308"] ;
208 -> 214 ;
215 [label="X[6] <= 0.6634\nmse = 31182.8469\nsamples = 23\nvalue = 927.3913"] ;
214 -> 215 ;
216 [label="mse = 0.0\nsamples = 3\nvalue = 1208.0"] ;
215 -> 216 ;
217 [label="X[2] <= 2.2014\nmse = 22277.41\nsamples = 20\nvalue = 885.3"] ;
215 -> 217 ;
218 [label="mse = 30347.5062\nsamples = 9\nvalue = 968.2222"] ;
217 -> 218 ;
219 [label="X[1] <= 1.0437\nmse = 5445.7025\nsamples = 11\nvalue = 817.4545"] ;
217 -> 219 ;
220 [label="mse = 4433.5802\nsamples = 9\nvalue = 837.5556"] ;
219 -> 220 ;
221 [label="mse = 0.0\nsamples = 2\nvalue = 727.0"] ;
219 -> 221 ;
222 [label="mse = 86933.5556\nsamples = 3\nvalue = 414.6667"] ;
214 -> 222 ;
223 [label="X[1] <= 0.8348\nmse = 289115.9252\nsamples = 251\nvalue = 657.5777"] ;
77 -> 223 ;
224 [label="X[4] <= 80.9673\nmse = 58638.9343\nsamples = 17\nvalue = 1314.6471"] ;
223 -> 224 ;
225 [label="mse = 0.0\nsamples = 5\nvalue = 961.0"] ;
224 -> 225 ;
226 [label="X[2] <= 2.1116\nmse = 9248.0\nsamples = 12\nvalue = 1462.0"] ;
224 -> 226 ;
227 [label="mse = 0.0\nsamples = 8\nvalue = 1530.0"] ;
226 -> 227 ;
228 [label="mse = 0.0\nsamples = 4\nvalue = 1326.0"] ;
226 -> 228 ;
229 [label="X[7] <= 1.1066\nmse = 272215.5348\nsamples = 234\nvalue = 609.8419"] ;
223 -> 229 ;
230 [label="X[2] <= 2.2096\nmse = 192850.1881\nsamples = 164\nvalue = 477.0305"] ;
229 -> 230 ;
231 [label="X[6] <= 0.3241\nmse = 167784.1303\nsamples = 160\nvalue = 450.0312"] ;
230 -> 231 ;
232 [label="X[6] <= 0.2276\nmse = 283445.8843\nsamples = 11\nvalue = 944.5455"] ;
231 -> 232 ;
233 [label="X[4] <= 86.4718\nmse = 234329.5062\nsamples = 9\nvalue = 801.7778"] ;
232 -> 233 ;
234 [label="mse = 0.0\nsamples = 3\nvalue = 562.0"] ;
233 -> 234 ;
235 [label="mse = 308374.2222\nsamples = 6\nvalue = 921.6667"] ;
233 -> 235 ;
236 [label="mse = 0.0\nsamples = 2\nvalue = 1587.0"] ;
232 -> 236 ;
237 [label="X[4] <= 97.1709\nmse = 139858.9206\nsamples = 149\nvalue = 413.5235"] ;
231 -> 237 ;
238 [label="X[4] <= 87.4774\nmse = 125751.5461\nsamples = 147\nvalue = 398.8639"] ;
237 -> 238 ;
239 [label="X[4] <= 84.0028\nmse = 142094.9467\nsamples = 13\nvalue = 790.7692"] ;
238 -> 239 ;
240 [label="mse = 0.0\nsamples = 6\nvalue = 410.0"] ;
239 -> 240 ;
241 [label="X[6] <= 0.3832\nmse = 33097.8367\nsamples = 7\nvalue = 1117.1429"] ;
239 -> 241 ;
242 [label="mse = 0.0\nsamples = 5\nvalue = 1221.0"] ;
241 -> 242 ;
243 [label="mse = 21462.25\nsamples = 2\nvalue = 857.5"] ;
241 -> 243 ;
244 [label="X[4] <= 89.8314\nmse = 107819.9232\nsamples = 134\nvalue = 360.8433"] ;
238 -> 244 ;
245 [label="X[3] <= 0.8949\nmse = 73978.5684\nsamples = 62\nvalue = 253.5645"] ;
244 -> 245 ;
246 [label="X[6] <= 0.3832\nmse = 53522.4471\nsamples = 53\nvalue = 190.9245"] ;
245 -> 246 ;
247 [label="mse = 0.0\nsamples = 16\nvalue = 26.0"] ;
246 -> 247 ;
248 [label="X[1] <= 0.9658\nmse = 59818.7246\nsamples = 37\nvalue = 262.2432"] ;
246 -> 248 ;
249 [label="X[8] <= 17.1478\nmse = 18038.4915\nsamples = 23\nvalue = 198.1739"] ;
248 -> 249 ;
250 [label="mse = 26496.1875\nsamples = 4\nvalue = 450.75"] ;
249 -> 250 ;
251 [label="mse = 0.0\nsamples = 19\nvalue = 145.0"] ;
249 -> 251 ;
252 [label="X[5] <= 5.2627\nmse = 110634.9643\nsamples = 14\nvalue = 367.5"] ;
248 -> 252 ;
253 [label="mse = 1506.1983\nsamples = 11\nvalue = 194.7273"] ;
252 -> 253 ;
254 [label="mse = 0.0\nsamples = 3\nvalue = 1001.0"] ;
252 -> 254 ;
255 [label="X[0] <= 0.1348\nmse = 35263.358\nsamples = 9\nvalue = 622.4444"] ;
245 -> 255 ;
256 [label="X[8] <= 11.8103\nmse = 4249.7143\nsamples = 7\nvalue = 718.0"] ;
255 -> 256 ;
257 [label="mse = 3888.0\nsamples = 4\nvalue = 757.0"] ;
256 -> 257 ;
258 [label="mse = 0.0\nsamples = 3\nvalue = 666.0"] ;
256 -> 258 ;
259 [label="mse = 0.0\nsamples = 2\nvalue = 288.0"] ;
255 -> 259 ;
260 [label="X[3] <= 0.9209\nmse = 118516.9228\nsamples = 72\nvalue = 453.2222"] ;
244 -> 260 ;
261 [label="X[0] <= 0.1022\nmse = 200891.1775\nsamples = 37\nvalue = 568.1081"] ;
260 -> 261 ;
262 [label="X[1] <= 0.9128\nmse = 178435.1462\nsamples = 34\nvalue = 511.0294"] ;
261 -> 262 ;
263 [label="X[7] <= 0.9648\nmse = 1398.3802\nsamples = 11\nvalue = 299.2727"] ;
262 -> 263 ;
264 [label="mse = 0.0\nsamples = 4\nvalue = 333.0"] ;
263 -> 264 ;
265 [label="mse = 1176.0\nsamples = 7\nvalue = 280.0"] ;
263 -> 265 ;
266 [label="mse = 231402.6465\nsamples = 23\nvalue = 612.3043"] ;
262 -> 266 ;
267 [label="mse = 0.0\nsamples = 3\nvalue = 1215.0"] ;
261 -> 267 ;
268 [label="X[4] <= 92.8996\nmse = 2732.2906\nsamples = 35\nvalue = 331.7714"] ;
260 -> 268 ;
269 [label="X[1] <= 0.9068\nmse = 669.1405\nsamples = 31\nvalue = 348.3871"] ;
268 -> 269 ;
270 [label="mse = 136.3202\nsamples = 28\nvalue = 356.0357"] ;
269 -> 270 ;
271 [label="mse = 0.0\nsamples = 3\nvalue = 277.0"] ;
269 -> 271 ;
272 [label="mse = 0.0\nsamples = 4\nvalue = 203.0"] ;
268 -> 272 ;
273 [label="mse = 0.0\nsamples = 2\nvalue = 1491.0"] ;
237 -> 273 ;
274 [label="mse = 0.0\nsamples = 4\nvalue = 1557.0"] ;
230 -> 274 ;
275 [label="X[1] <= 0.9042\nmse = 320012.4857\nsamples = 70\nvalue = 921.0"] ;
229 -> 275 ;
276 [label="X[0] <= 0.1027\nmse = 56092.6836\nsamples = 16\nvalue = 617.0625"] ;
275 -> 276 ;
277 [label="mse = 131623.84\nsamples = 5\nvalue = 750.4"] ;
276 -> 277 ;
278 [label="X[8] <= 10.4283\nmse = 10005.7025\nsamples = 11\nvalue = 556.4545"] ;
276 -> 278 ;
279 [label="mse = 0.0\nsamples = 2\nvalue = 724.0"] ;
278 -> 279 ;
280 [label="X[5] <= 7.4308\nmse = 4604.8395\nsamples = 9\nvalue = 519.2222"] ;
278 -> 280 ;
281 [label="mse = 972.0\nsamples = 4\nvalue = 447.0"] ;
280 -> 281 ;
282 [label="mse = 0.0\nsamples = 5\nvalue = 577.0"] ;
280 -> 282 ;
283 [label="X[4] <= 99.9539\nmse = 362729.6821\nsamples = 54\nvalue = 1011.0556"] ;
275 -> 283 ;
284 [label="X[6] <= 0.5562\nmse = 358843.2586\nsamples = 49\nvalue = 1071.9184"] ;
283 -> 284 ;
285 [label="X[4] <= 87.4774\nmse = 357237.6247\nsamples = 43\nvalue = 1146.1628"] ;
284 -> 285 ;
286 [label="X[8] <= 16.6908\nmse = 106214.2222\nsamples = 12\nvalue = 924.6667"] ;
285 -> 286 ;
287 [label="mse = 162812.25\nsamples = 2\nvalue = 409.5"] ;
286 -> 287 ;
288 [label="mse = 31199.41\nsamples = 10\nvalue = 1027.7"] ;
286 -> 288 ;
289 [label="X[0] <= 0.1638\nmse = 428065.3777\nsamples = 31\nvalue = 1231.9032"] ;
285 -> 289 ;
290 [label="X[2] <= 2.2126\nmse = 438319.3099\nsamples = 28\nvalue = 1290.6071"] ;
289 -> 290 ;
291 [label="X[0] <= 0.1062\nmse = 6918.2344\nsamples = 8\nvalue = 1463.625"] ;
290 -> 291 ;
292 [label="X[8] <= 16.9556\nmse = 0.96\nsamples = 5\nvalue = 1399.2"] ;
291 -> 292 ;
293 [label="mse = 0.0\nsamples = 3\nvalue = 1400.0"] ;
292 -> 293 ;
294 [label="mse = 0.0\nsamples = 2\nvalue = 1398.0"] ;
292 -> 294 ;
295 [label="mse = 0.0\nsamples = 3\nvalue = 1571.0"] ;
291 -> 295 ;
296 [label="mse = 594116.04\nsamples = 20\nvalue = 1221.4"] ;
290 -> 296 ;
297 [label="mse = 0.0\nsamples = 3\nvalue = 684.0"] ;
289 -> 297 ;
298 [label="X[1] <= 1.0844\nmse = 47731.4722\nsamples = 6\nvalue = 539.8333"] ;
284 -> 298 ;
299 [label="mse = 3217.6875\nsamples = 4\nvalue = 554.75"] ;
298 -> 299 ;
300 [label="mse = 135424.0\nsamples = 2\nvalue = 510.0"] ;
298 -> 300 ;
301 [label="X[0] <= 0.1562\nmse = 8755.44\nsamples = 5\nvalue = 414.6"] ;
283 -> 301 ;
302 [label="mse = 0.0\nsamples = 2\nvalue = 300.0"] ;
301 -> 302 ;
303 [label="mse = 0.0\nsamples = 3\nvalue = 491.0"] ;
301 -> 303 ;
304 [label="X[8] <= 10.5923\nmse = 208366.0576\nsamples = 840\nvalue = 799.8512"] ;
0 -> 304 [labeldistance=2.5, labelangle=-45, headlabel="False"] ;
305 [label="X[2] <= 3.3162\nmse = 222750.4346\nsamples = 83\nvalue = 1277.5904"] ;
304 -> 305 ;
306 [label="X[5] <= 1.698\nmse = 17339.81\nsamples = 30\nvalue = 1799.7"] ;
305 -> 306 ;
307 [label="mse = 21901.4814\nsamples = 22\nvalue = 1778.1364"] ;
306 -> 307 ;
308 [label="mse = 0.0\nsamples = 8\nvalue = 1859.0"] ;
306 -> 308 ;
309 [label="X[7] <= 0.7829\nmse = 97379.3742\nsamples = 53\nvalue = 982.0566"] ;
305 -> 309 ;
310 [label="X[1] <= 0.8689\nmse = 39100.2415\nsamples = 41\nvalue = 1083.9512"] ;
309 -> 310 ;
311 [label="X[2] <= 4.9308\nmse = 7002.1389\nsamples = 12\nvalue = 1314.8333"] ;
310 -> 311 ;
312 [label="mse = 0.0\nsamples = 2\nvalue = 1198.0"] ;
311 -> 312 ;
313 [label="mse = 5126.56\nsamples = 10\nvalue = 1338.2"] ;
311 -> 313 ;
314 [label="X[2] <= 4.3123\nmse = 21196.9322\nsamples = 29\nvalue = 988.4138"] ;
310 -> 314 ;
315 [label="mse = 0.0\nsamples = 5\nvalue = 785.0"] ;
314 -> 315 ;
316 [label="X[3] <= 0.6814\nmse = 15196.8316\nsamples = 24\nvalue = 1030.7917"] ;
314 -> 316 ;
317 [label="mse = 0.0\nsamples = 4\nvalue = 1175.0"] ;
316 -> 317 ;
318 [label="X[2] <= 6.1086\nmse = 13245.1475\nsamples = 20\nvalue = 1001.95"] ;
316 -> 318 ;
319 [label="mse = 0.0\nsamples = 2\nvalue = 687.0"] ;
318 -> 319 ;
320 [label="mse = 2470.7191\nsamples = 18\nvalue = 1036.9444"] ;
318 -> 320 ;
321 [label="X[4] <= 87.411\nmse = 139824.7431\nsamples = 12\nvalue = 633.9167"] ;
309 -> 321 ;
322 [label="X[7] <= 1.3468\nmse = 8605.44\nsamples = 5\nvalue = 432.4"] ;
321 -> 322 ;
323 [label="mse = 0.0\nsamples = 3\nvalue = 481.0"] ;
322 -> 323 ;
324 [label="mse = 12656.25\nsamples = 2\nvalue = 359.5"] ;
322 -> 324 ;
325 [label="X[6] <= 1.1438\nmse = 183827.551\nsamples = 7\nvalue = 777.8571"] ;
321 -> 325 ;
326 [label="mse = 230289.76\nsamples = 5\nvalue = 865.8"] ;
325 -> 326 ;
327 [label="mse = 0.0\nsamples = 2\nvalue = 558.0"] ;
325 -> 327 ;
328 [label="X[6] <= 0.6457\nmse = 179020.7326\nsamples = 757\nvalue = 747.4703"] ;
304 -> 328 ;
329 [label="X[2] <= 2.4727\nmse = 164372.754\nsamples = 548\nvalue = 826.1752"] ;
328 -> 329 ;
330 [label="X[3] <= 0.6257\nmse = 20621.1275\nsamples = 20\nvalue = 309.35"] ;
329 -> 330 ;
331 [label="mse = 0.0\nsamples = 2\nvalue = 51.0"] ;
330 -> 331 ;
332 [label="X[5] <= 3.4366\nmse = 14672.2747\nsamples = 18\nvalue = 338.0556"] ;
330 -> 332 ;
333 [label="mse = 0.0\nsamples = 2\nvalue = 567.0"] ;
332 -> 333 ;
334 [label="X[7] <= 1.0556\nmse = 9135.3711\nsamples = 16\nvalue = 309.4375"] ;
332 -> 334 ;
335 [label="X[1] <= 0.8878\nmse = 1097.5062\nsamples = 9\nvalue = 240.2222"] ;
334 -> 335 ;
336 [label="mse = 0.0\nsamples = 6\nvalue = 217.0"] ;
335 -> 336 ;
337 [label="mse = 56.8889\nsamples = 3\nvalue = 286.6667"] ;
335 -> 337 ;
338 [label="X[3] <= 0.6561\nmse = 5390.8163\nsamples = 7\nvalue = 398.4286"] ;
334 -> 338 ;
339 [label="mse = 324.0\nsamples = 5\nvalue = 353.0"] ;
338 -> 339 ;
340 [label="mse = 0.0\nsamples = 2\nvalue = 512.0"] ;
338 -> 340 ;
341 [label="X[6] <= 0.1516\nmse = 159316.9062\nsamples = 528\nvalue = 845.7519"] ;
329 -> 341 ;
342 [label="X[2] <= 2.8418\nmse = 103207.8506\nsamples = 193\nvalue = 972.5751"] ;
341 -> 342 ;
343 [label="X[1] <= 0.9133\nmse = 177994.3333\nsamples = 6\nvalue = 526.0"] ;
342 -> 343 ;
344 [label="mse = 0.0\nsamples = 2\nvalue = 53.0"] ;
343 -> 344 ;
345 [label="X[0] <= 0.1468\nmse = 99194.75\nsamples = 4\nvalue = 762.5"] ;
343 -> 345 ;
346 [label="mse = 0.0\nsamples = 2\nvalue = 776.0"] ;
345 -> 346 ;
347 [label="mse = 198025.0\nsamples = 2\nvalue = 749.0"] ;
345 -> 347 ;
348 [label="X[3] <= 0.756\nmse = 94204.1726\nsamples = 187\nvalue = 986.9037"] ;
342 -> 348 ;
349 [label="X[7] <= 0.0671\nmse = 78784.8571\nsamples = 14\nvalue = 746.0"] ;
348 -> 349 ;
350 [label="X[2] <= 4.1405\nmse = 70234.0\nsamples = 6\nvalue = 981.0"] ;
349 -> 350 ;
351 [label="mse = 0.0\nsamples = 3\nvalue = 1246.0"] ;
350 -> 351 ;
352 [label="mse = 18.0\nsamples = 3\nvalue = 716.0"] ;
350 -> 352 ;
353 [label="X[8] <= 18.2092\nmse = 12715.1875\nsamples = 8\nvalue = 569.75"] ;
349 -> 353 ;
354 [label="mse = 9073.5556\nsamples = 3\nvalue = 694.3333"] ;
353 -> 354 ;
355 [label="mse = 0.0\nsamples = 5\nvalue = 495.0"] ;
353 -> 355 ;
356 [label="X[2] <= 4.5633\nmse = 90375.4768\nsamples = 173\nvalue = 1006.3988"] ;
348 -> 356 ;
357 [label="X[8] <= 17.1095\nmse = 45666.4506\nsamples = 51\nvalue = 1124.3137"] ;
356 -> 357 ;
358 [label="X[0] <= 0.124\nmse = 20208.2415\nsamples = 41\nvalue = 1173.0488"] ;
357 -> 358 ;
359 [label="X[8] <= 13.6733\nmse = 6091.2989\nsamples = 30\nvalue = 1236.3667"] ;
358 -> 359 ;
360 [label="X[5] <= 1.6517\nmse = 652.6875\nsamples = 16\nvalue = 1166.75"] ;
359 -> 360 ;
361 [label="mse = 0.0\nsamples = 12\nvalue = 1152.0"] ;
360 -> 361 ;
362 [label="mse = 0.0\nsamples = 4\nvalue = 1211.0"] ;
360 -> 362 ;
363 [label="X[8] <= 15.4753\nmse = 437.9235\nsamples = 14\nvalue = 1315.9286"] ;
359 -> 363 ;
364 [label="mse = 0.0\nsamples = 3\nvalue = 1356.0"] ;
363 -> 364 ;
365 [label="mse = 0.0\nsamples = 11\nvalue = 1305.0"] ;
363 -> 365 ;
366 [label="X[8] <= 14.818\nmse = 17954.7769\nsamples = 11\nvalue = 1000.3636"] ;
358 -> 366 ;
367 [label="mse = 0.0\nsamples = 2\nvalue = 730.0"] ;
366 -> 367 ;
368 [label="X[2] <= 3.477\nmse = 2091.358\nsamples = 9\nvalue = 1060.4444"] ;
366 -> 368 ;
369 [label="mse = 0.0\nsamples = 2\nvalue = 1146.0"] ;
368 -> 369 ;
370 [label="mse = 0.0\nsamples = 7\nvalue = 1036.0"] ;
368 -> 370 ;
371 [label="X[6] <= 0.0793\nmse = 100381.65\nsamples = 10\nvalue = 924.5"] ;
357 -> 371 ;
372 [label="mse = 69768.75\nsamples = 4\nvalue = 642.5"] ;
371 -> 372 ;
373 [label="X[3] <= 0.9192\nmse = 32430.25\nsamples = 6\nvalue = 1112.5"] ;
371 -> 373 ;
374 [label="mse = 67.6875\nsamples = 4\nvalue = 1239.75"] ;
373 -> 374 ;
375 [label="mse = 0.0\nsamples = 2\nvalue = 858.0"] ;
373 -> 375 ;
376 [label="X[4] <= 94.1841\nmse = 100823.2919\nsamples = 122\nvalue = 957.1066"] ;
356 -> 376 ;
377 [label="X[2] <= 7.5281\nmse = 89442.2123\nsamples = 85\nvalue = 999.8941"] ;
376 -> 377 ;
378 [label="X[5] <= 1.7631\nmse = 116558.8164\nsamples = 61\nvalue = 1041.2623"] ;
377 -> 378 ;
379 [label="X[8] <= 16.7591\nmse = 167093.5471\nsamples = 42\nvalue = 1015.3095"] ;
378 -> 379 ;
380 [label="mse = 268681.2397\nsamples = 22\nvalue = 1061.1818"] ;
379 -> 380 ;
381 [label="X[6] <= 0.0646\nmse = 50486.2275\nsamples = 20\nvalue = 964.85"] ;
379 -> 381 ;
382 [label="X[8] <= 16.9687\nmse = 3192.5802\nsamples = 18\nvalue = 1037.5556"] ;
381 -> 382 ;
383 [label="X[1] <= 0.9547\nmse = 881.6327\nsamples = 7\nvalue = 1009.7143"] ;
382 -> 383 ;
384 [label="mse = 0.0\nsamples = 4\nvalue = 984.0"] ;
383 -> 384 ;
385 [label="mse = 0.0\nsamples = 3\nvalue = 1044.0"] ;
383 -> 385 ;
386 [label="mse = 3856.0165\nsamples = 11\nvalue = 1055.2727"] ;
382 -> 386 ;
387 [label="mse = 380.25\nsamples = 2\nvalue = 310.5"] ;
381 -> 387 ;
388 [label="X[7] <= 2.2622\nmse = 70.338\nsamples = 19\nvalue = 1098.6316"] ;
378 -> 388 ;
389 [label="mse = 0.0\nsamples = 16\nvalue = 1095.0"] ;
388 -> 389 ;
390 [label="mse = 0.0\nsamples = 3\nvalue = 1118.0"] ;
388 -> 390 ;
391 [label="X[5] <= 5.036\nmse = 5115.9375\nsamples = 24\nvalue = 894.75"] ;
377 -> 391 ;
392 [label="X[1] <= 0.863\nmse = 2420.0\nsamples = 9\nvalue = 811.0"] ;
391 -> 392 ;
393 [label="mse = 0.0\nsamples = 4\nvalue = 866.0"] ;
392 -> 393 ;
394 [label="mse = 0.0\nsamples = 5\nvalue = 767.0"] ;
392 -> 394 ;
395 [label="mse = 0.0\nsamples = 15\nvalue = 945.0"] ;
391 -> 395 ;
396 [label="X[7] <= 3.8317\nmse = 113101.1264\nsamples = 37\nvalue = 858.8108"] ;
376 -> 396 ;
397 [label="X[2] <= 5.1449\nmse = 122348.5562\nsamples = 26\nvalue = 915.4615"] ;
396 -> 397 ;
398 [label="mse = 98554.6875\nsamples = 8\nvalue = 1047.75"] ;
397 -> 398 ;
399 [label="mse = 121688.8889\nsamples = 18\nvalue = 856.6667"] ;
397 -> 399 ;
400 [label="X[3] <= 0.9433\nmse = 65728.2645\nsamples = 11\nvalue = 724.9091"] ;
396 -> 400 ;
401 [label="mse = 94291.3469\nsamples = 7\nvalue = 667.7143"] ;
400 -> 401 ;
402 [label="mse = 0.0\nsamples = 4\nvalue = 825.0"] ;
400 -> 402 ;
403 [label="X[1] <= 0.8677\nmse = 177037.4988\nsamples = 335\nvalue = 772.6866"] ;
341 -> 403 ;
404 [label="X[8] <= 16.3208\nmse = 205854.7683\nsamples = 65\nvalue = 995.4308"] ;
403 -> 404 ;
405 [label="X[0] <= 0.1033\nmse = 168785.0532\nsamples = 55\nvalue = 1088.9636"] ;
404 -> 405 ;
406 [label="mse = 0.0\nsamples = 6\nvalue = 383.0"] ;
405 -> 406 ;
407 [label="X[4] <= 95.3853\nmse = 120953.262\nsamples = 49\nvalue = 1175.4082"] ;
405 -> 407 ;
408 [label="X[5] <= 7.123\nmse = 86273.0098\nsamples = 44\nvalue = 1105.1136"] ;
407 -> 408 ;
409 [label="X[6] <= 0.4031\nmse = 7815.4675\nsamples = 26\nvalue = 1204.3846"] ;
408 -> 409 ;
410 [label="X[5] <= 3.9996\nmse = 696.96\nsamples = 10\nvalue = 1310.2"] ;
409 -> 410 ;
411 [label="mse = 0.0\nsamples = 8\nvalue = 1297.0"] ;
410 -> 411 ;
412 [label="mse = 0.0\nsamples = 2\nvalue = 1363.0"] ;
410 -> 412 ;
413 [label="X[3] <= 0.6908\nmse = 892.6875\nsamples = 16\nvalue = 1138.25"] ;
409 -> 413 ;
414 [label="mse = 0.0\nsamples = 4\nvalue = 1190.0"] ;
413 -> 414 ;
415 [label="mse = 0.0\nsamples = 12\nvalue = 1121.0"] ;
413 -> 415 ;
416 [label="X[5] <= 7.3183\nmse = 164804.8673\nsamples = 18\nvalue = 961.7222"] ;
408 -> 416 ;
417 [label="mse = 0.0\nsamples = 3\nvalue = 307.0"] ;
416 -> 417 ;
418 [label="X[7] <= 2.486\nmse = 94887.1556\nsamples = 15\nvalue = 1092.6667"] ;
416 -> 418 ;
419 [label="X[6] <= 0.495\nmse = 23314.0496\nsamples = 11\nvalue = 1220.3636"] ;
418 -> 419 ;
420 [label="mse = 46314.1875\nsamples = 4\nvalue = 1116.75"] ;
419 -> 420 ;
421 [label="X[5] <= 7.663\nmse = 530.8163\nsamples = 7\nvalue = 1279.5714"] ;
419 -> 421 ;
422 [label="mse = 0.0\nsamples = 5\nvalue = 1265.0"] ;
421 -> 422 ;
423 [label="mse = 0.0\nsamples = 2\nvalue = 1316.0"] ;
421 -> 423 ;
424 [label="mse = 123552.25\nsamples = 4\nvalue = 741.5"] ;
418 -> 424 ;
425 [label="mse = 0.0\nsamples = 5\nvalue = 1794.0"] ;
407 -> 425 ;
426 [label="X[2] <= 3.3359\nmse = 96983.0\nsamples = 10\nvalue = 481.0"] ;
404 -> 426 ;
427 [label="mse = 7591.9592\nsamples = 7\nvalue = 287.4286"] ;
426 -> 427 ;
428 [label="mse = 14129.5556\nsamples = 3\nvalue = 932.6667"] ;
426 -> 428 ;
429 [label="X[0] <= 0.1162\nmse = 155280.1701\nsamples = 270\nvalue = 719.063"] ;
403 -> 429 ;
430 [label="X[2] <= 5.9081\nmse = 98403.016\nsamples = 134\nvalue = 857.209"] ;
429 -> 430 ;
431 [label="X[4] <= 87.6199\nmse = 90282.3699\nsamples = 129\nvalue = 878.0465"] ;
430 -> 431 ;
432 [label="X[2] <= 3.3235\nmse = 71082.9644\nsamples = 114\nvalue = 833.9035"] ;
431 -> 432 ;
433 [label="X[0] <= 0.1113\nmse = 14877.551\nsamples = 7\nvalue = 356.8571"] ;
432 -> 433 ;
434 [label="mse = 0.0\nsamples = 2\nvalue = 164.0"] ;
433 -> 434 ;
435 [label="mse = 0.0\nsamples = 5\nvalue = 434.0"] ;
433 -> 435 ;
436 [label="X[1] <= 1.0569\nmse = 58898.0061\nsamples = 107\nvalue = 865.1121"] ;
432 -> 436 ;
437 [label="X[5] <= 1.4136\nmse = 66892.9239\nsamples = 82\nvalue = 821.6829"] ;
436 -> 437 ;
438 [label="X[7] <= 1.7938\nmse = 58642.5511\nsamples = 78\nvalue = 836.9872"] ;
437 -> 438 ;
439 [label="X[8] <= 10.9312\nmse = 61446.2484\nsamples = 50\nvalue = 793.54"] ;
438 -> 439 ;
440 [label="mse = 23450.0138\nsamples = 17\nvalue = 858.5294"] ;
439 -> 440 ;
441 [label="X[7] <= 1.0606\nmse = 77723.3903\nsamples = 33\nvalue = 760.0606"] ;
439 -> 441 ;
442 [label="X[2] <= 5.2415\nmse = 96234.2899\nsamples = 26\nvalue = 782.6923"] ;
441 -> 442 ;
443 [label="X[8] <= 15.2957\nmse = 108577.1078\nsamples = 23\nvalue = 787.6087"] ;
442 -> 443 ;
444 [label="mse = 137411.358\nsamples = 18\nvalue = 785.5556"] ;
443 -> 444 ;
445 [label="mse = 4704.0\nsamples = 5\nvalue = 795.0"] ;
443 -> 445 ;
446 [label="mse = 0.0\nsamples = 3\nvalue = 745.0"] ;
442 -> 446 ;
447 [label="mse = 0.0\nsamples = 7\nvalue = 676.0"] ;
441 -> 447 ;
448 [label="X[3] <= 0.7952\nmse = 44245.8163\nsamples = 28\nvalue = 914.5714"] ;
438 -> 448 ;
449 [label="mse = 0.0\nsamples = 10\nvalue = 833.0"] ;
448 -> 449 ;
450 [label="mse = 63076.5432\nsamples = 18\nvalue = 959.8889"] ;
448 -> 450 ;
451 [label="mse = 134145.6875\nsamples = 4\nvalue = 523.25"] ;
437 -> 451 ;
452 [label="X[1] <= 1.1621\nmse = 6196.8864\nsamples = 25\nvalue = 1007.56"] ;
436 -> 452 ;
453 [label="mse = 0.0\nsamples = 3\nvalue = 1023.0"] ;
452 -> 453 ;
454 [label="mse = 7004.9752\nsamples = 22\nvalue = 1005.4545"] ;
452 -> 454 ;
455 [label="X[2] <= 3.2469\nmse = 108837.0489\nsamples = 15\nvalue = 1213.5333"] ;
431 -> 455 ;
456 [label="mse = 198147.0\nsamples = 8\nvalue = 1165.0"] ;
455 -> 456 ;
457 [label="X[7] <= 2.2642\nmse = 1000.0\nsamples = 7\nvalue = 1269.0"] ;
455 -> 457 ;
458 [label="mse = 0.0\nsamples = 2\nvalue = 1319.0"] ;
457 -> 458 ;
459 [label="mse = 0.0\nsamples = 5\nvalue = 1249.0"] ;
457 -> 459 ;
460 [label="X[2] <= 6.5771\nmse = 7689.84\nsamples = 5\nvalue = 319.6"] ;
430 -> 460 ;
461 [label="mse = 0.0\nsamples = 2\nvalue = 427.0"] ;
460 -> 461 ;
462 [label="mse = 0.0\nsamples = 3\nvalue = 248.0"] ;
460 -> 462 ;
463 [label="X[0] <= 0.1931\nmse = 173990.0929\nsamples = 136\nvalue = 582.9485"] ;
429 -> 463 ;
464 [label="X[5] <= 2.5341\nmse = 160167.9789\nsamples = 128\nvalue = 548.7891"] ;
463 -> 464 ;
465 [label="X[3] <= 0.8506\nmse = 201624.9469\nsamples = 73\nvalue = 642.1096"] ;
464 -> 465 ;
466 [label="X[8] <= 18.8841\nmse = 204246.6424\nsamples = 65\nvalue = 595.9385"] ;
465 -> 466 ;
467 [label="X[5] <= 1.3062\nmse = 200232.6735\nsamples = 61\nvalue = 627.6885"] ;
466 -> 467 ;
468 [label="mse = 0.0\nsamples = 7\nvalue = 921.0"] ;
467 -> 468 ;
469 [label="X[4] <= 89.4576\nmse = 213590.8519\nsamples = 54\nvalue = 589.6667"] ;
467 -> 469 ;
470 [label="X[6] <= 0.5483\nmse = 32682.7822\nsamples = 15\nvalue = 765.4667"] ;
469 -> 470 ;
471 [label="X[4] <= 85.0852\nmse = 3030.5455\nsamples = 11\nvalue = 856.0"] ;
470 -> 471 ;
472 [label="mse = 0.0\nsamples = 2\nvalue = 742.0"] ;
471 -> 472 ;
473 [label="mse = 174.2222\nsamples = 9\nvalue = 881.3333"] ;
471 -> 473 ;
474 [label="X[1] <= 0.9455\nmse = 29702.25\nsamples = 4\nvalue = 516.5"] ;
470 -> 474 ;
475 [label="mse = 0.0\nsamples = 2\nvalue = 671.0"] ;
474 -> 475 ;
476 [label="mse = 11664.0\nsamples = 2\nvalue = 362.0"] ;
474 -> 476 ;
477 [label="X[4] <= 99.6048\nmse = 266712.2538\nsamples = 39\nvalue = 522.0513"] ;
469 -> 477 ;
478 [label="X[4] <= 95.7738\nmse = 261366.4397\nsamples = 37\nvalue = 490.2162"] ;
477 -> 478 ;
479 [label="mse = 54990.25\nsamples = 2\nvalue = 563.5"] ;
478 -> 479 ;
480 [label="mse = 272834.942\nsamples = 35\nvalue = 486.0286"] ;
478 -> 480 ;
481 [label="mse = 0.0\nsamples = 2\nvalue = 1111.0"] ;
477 -> 481 ;
482 [label="X[2] <= 5.3587\nmse = 15648.1875\nsamples = 4\nvalue = 111.75"] ;
466 -> 482 ;
483 [label="mse = 6320.25\nsamples = 2\nvalue = 223.5"] ;
482 -> 483 ;
484 [label="mse = 0.0\nsamples = 2\nvalue = 0.0"] ;
482 -> 484 ;
485 [label="X[5] <= 2.1146\nmse = 22272.6875\nsamples = 8\nvalue = 1017.25"] ;
465 -> 485 ;
486 [label="mse = 26406.25\nsamples = 2\nvalue = 880.5"] ;
485 -> 486 ;
487 [label="mse = 12583.4722\nsamples = 6\nvalue = 1062.8333"] ;
485 -> 487 ;
488 [label="X[3] <= 0.8116\nmse = 78242.6856\nsamples = 55\nvalue = 424.9273"] ;
464 -> 488 ;
489 [label="X[6] <= 0.2918\nmse = 44938.6168\nsamples = 21\nvalue = 615.381"] ;
488 -> 489 ;
490 [label="X[2] <= 4.0962\nmse = 18294.8889\nsamples = 9\nvalue = 778.3333"] ;
489 -> 490 ;
491 [label="X[3] <= 0.741\nmse = 697.6\nsamples = 5\nvalue = 876.0"] ;
490 -> 491 ;
492 [label="mse = 784.0\nsamples = 2\nvalue = 900.0"] ;
491 -> 492 ;
493 [label="mse = 0.0\nsamples = 3\nvalue = 860.0"] ;
491 -> 493 ;
494 [label="X[8] <= 17.3855\nmse = 13463.6875\nsamples = 4\nvalue = 656.25"] ;
490 -> 494 ;
495 [label="mse = 12544.0\nsamples = 2\nvalue = 735.0"] ;
494 -> 495 ;
496 [label="mse = 1980.25\nsamples = 2\nvalue = 577.5"] ;
494 -> 496 ;
497 [label="X[3] <= 0.7148\nmse = 30069.9722\nsamples = 12\nvalue = 493.1667"] ;
489 -> 497 ;
498 [label="X[3] <= 0.6622\nmse = 9230.16\nsamples = 10\nvalue = 544.8"] ;
497 -> 498 ;
499 [label="mse = 6162.25\nsamples = 2\nvalue = 399.5"] ;
498 -> 499 ;
500 [label="X[1] <= 0.9945\nmse = 3399.6094\nsamples = 8\nvalue = 581.125"] ;
498 -> 500 ;
501 [label="X[2] <= 5.222\nmse = 2172.4722\nsamples = 6\nvalue = 556.8333"] ;
500 -> 501 ;
502 [label="mse = 2745.1875\nsamples = 4\nvalue = 543.75"] ;
501 -> 502 ;
503 [label="mse = 0.0\nsamples = 2\nvalue = 583.0"] ;
501 -> 503 ;
504 [label="mse = 0.0\nsamples = 2\nvalue = 654.0"] ;
500 -> 504 ;
505 [label="mse = 54289.0\nsamples = 2\nvalue = 235.0"] ;
497 -> 505 ;
506 [label="X[6] <= 0.2921\nmse = 62571.6194\nsamples = 34\nvalue = 307.2941"] ;
488 -> 506 ;
507 [label="mse = 50193.75\nsamples = 24\nvalue = 215.5"] ;
506 -> 507 ;
508 [label="X[3] <= 0.8876\nmse = 23521.04\nsamples = 10\nvalue = 527.6"] ;
506 -> 508 ;
509 [label="mse = 11130.25\nsamples = 2\nvalue = 358.5"] ;
508 -> 509 ;
510 [label="X[0] <= 0.1747\nmse = 17682.8594\nsamples = 8\nvalue = 569.875"] ;
508 -> 510 ;
511 [label="mse = 13456.0\nsamples = 2\nvalue = 765.0"] ;
510 -> 511 ;
512 [label="mse = 2170.1389\nsamples = 6\nvalue = 504.8333"] ;
510 -> 512 ;
513 [label="X[4] <= 94.5856\nmse = 77755.5\nsamples = 8\nvalue = 1129.5"] ;
463 -> 513 ;
514 [label="mse = 97847.2222\nsamples = 6\nvalue = 1091.3333"] ;
513 -> 514 ;
515 [label="mse = 0.0\nsamples = 2\nvalue = 1244.0"] ;
513 -> 515 ;
516 [label="X[8] <= 18.1405\nmse = 158599.4148\nsamples = 209\nvalue = 541.1053"] ;
328 -> 516 ;
517 [label="X[0] <= 0.1029\nmse = 131257.5554\nsamples = 144\nvalue = 660.2639"] ;
516 -> 517 ;
518 [label="X[1] <= 0.8705\nmse = 45309.6046\nsamples = 38\nvalue = 453.9737"] ;
517 -> 518 ;
519 [label="X[4] <= 92.8996\nmse = 6561.0\nsamples = 24\nvalue = 315.0"] ;
518 -> 519 ;
520 [label="mse = 0.0\nsamples = 12\nvalue = 234.0"] ;
519 -> 520 ;
521 [label="mse = 0.0\nsamples = 12\nvalue = 396.0"] ;
519 -> 521 ;
522 [label="X[8] <= 14.5381\nmse = 21868.0255\nsamples = 14\nvalue = 692.2143"] ;
518 -> 522 ;
523 [label="mse = 8721.5556\nsamples = 3\nvalue = 552.6667"] ;
522 -> 523 ;
524 [label="mse = 18694.0165\nsamples = 11\nvalue = 730.2727"] ;
522 -> 524 ;
525 [label="X[3] <= 0.9453\nmse = 141344.2265\nsamples = 106\nvalue = 734.217"] ;
517 -> 525 ;
526 [label="X[7] <= 2.2016\nmse = 83929.8697\nsamples = 97\nvalue = 656.8351"] ;
525 -> 526 ;
527 [label="X[6] <= 0.7718\nmse = 47390.7675\nsamples = 53\nvalue = 529.6038"] ;
526 -> 527 ;
528 [label="mse = 64170.25\nsamples = 4\nvalue = 164.5"] ;
527 -> 528 ;
529 [label="X[2] <= 5.2389\nmse = 34251.0171\nsamples = 49\nvalue = 559.4082"] ;
527 -> 529 ;
530 [label="X[7] <= 0.9337\nmse = 33348.7589\nsamples = 28\nvalue = 625.75"] ;
529 -> 530 ;
531 [label="X[4] <= 84.4359\nmse = 5702.96\nsamples = 5\nvalue = 816.2"] ;
530 -> 531 ;
532 [label="mse = 684.6667\nsamples = 3\nvalue = 759.0"] ;
531 -> 532 ;
533 [label="mse = 961.0\nsamples = 2\nvalue = 902.0"] ;
531 -> 533 ;
534 [label="X[4] <= 92.6024\nmse = 29759.5312\nsamples = 23\nvalue = 584.3478"] ;
530 -> 534 ;
535 [label="X[7] <= 1.2894\nmse = 9718.8639\nsamples = 13\nvalue = 659.4615"] ;
534 -> 535 ;
536 [label="mse = 43472.25\nsamples = 2\nvalue = 751.5"] ;
535 -> 536 ;
537 [label="mse = 1761.6529\nsamples = 11\nvalue = 642.7273"] ;
535 -> 537 ;
538 [label="X[6] <= 0.9227\nmse = 38942.61\nsamples = 10\nvalue = 486.7"] ;
534 -> 538 ;
539 [label="mse = 8888.8889\nsamples = 3\nvalue = 435.3333"] ;
538 -> 539 ;
540 [label="mse = 50207.3469\nsamples = 7\nvalue = 508.7143"] ;
538 -> 540 ;
541 [label="X[7] <= 0.8649\nmse = 21761.2834\nsamples = 21\nvalue = 470.9524"] ;
529 -> 541 ;
542 [label="X[3] <= 0.7923\nmse = 1482.25\nsamples = 4\nvalue = 369.5"] ;
541 -> 542 ;
543 [label="mse = 0.0\nsamples = 2\nvalue = 408.0"] ;
542 -> 543 ;
544 [label="mse = 0.0\nsamples = 2\nvalue = 331.0"] ;
542 -> 544 ;
545 [label="X[7] <= 1.3585\nmse = 23541.2042\nsamples = 17\nvalue = 494.8235"] ;
541 -> 545 ;
546 [label="X[1] <= 0.897\nmse = 52992.6939\nsamples = 7\nvalue = 539.8571"] ;
545 -> 546 ;
547 [label="mse = 39490.24\nsamples = 5\nvalue = 460.4"] ;
546 -> 547 ;
548 [label="mse = 31506.25\nsamples = 2\nvalue = 738.5"] ;
546 -> 548 ;
549 [label="X[5] <= 2.5002\nmse = 511.81\nsamples = 10\nvalue = 463.3"] ;
545 -> 549 ;
550 [label="X[8] <= 15.6011\nmse = 52.2449\nsamples = 7\nvalue = 477.5714"] ;
549 -> 550 ;
551 [label="mse = 0.0\nsamples = 2\nvalue = 489.0"] ;
550 -> 551 ;
552 [label="mse = 0.0\nsamples = 5\nvalue = 473.0"] ;
550 -> 552 ;
553 [label="mse = 0.0\nsamples = 3\nvalue = 430.0"] ;
549 -> 553 ;
554 [label="X[1] <= 0.9489\nmse = 84956.5826\nsamples = 44\nvalue = 810.0909"] ;
526 -> 554 ;
555 [label="X[0] <= 0.1189\nmse = 34897.6875\nsamples = 16\nvalue = 1046.75"] ;
554 -> 555 ;
556 [label="mse = 0.0\nsamples = 7\nvalue = 1168.0"] ;
555 -> 556 ;
557 [label="X[5] <= 2.9507\nmse = 41712.2469\nsamples = 9\nvalue = 952.4444"] ;
555 -> 557 ;
558 [label="mse = 9025.0\nsamples = 2\nvalue = 637.0"] ;
557 -> 558 ;
559 [label="X[1] <= 0.9279\nmse = 14498.5306\nsamples = 7\nvalue = 1042.5714"] ;
557 -> 559 ;
560 [label="X[3] <= 0.8237\nmse = 4195.44\nsamples = 5\nvalue = 1110.4"] ;
559 -> 560 ;
561 [label="mse = 4802.0\nsamples = 3\nvalue = 1140.0"] ;
560 -> 561 ;
562 [label="mse = 0.0\nsamples = 2\nvalue = 1066.0"] ;
560 -> 562 ;
563 [label="mse = 0.0\nsamples = 2\nvalue = 873.0"] ;
559 -> 563 ;
564 [label="X[2] <= 4.9853\nmse = 63269.1939\nsamples = 28\nvalue = 674.8571"] ;
554 -> 564 ;
565 [label="X[2] <= 2.8927\nmse = 68554.0267\nsamples = 15\nvalue = 802.8"] ;
564 -> 565 ;
566 [label="X[3] <= 0.6957\nmse = 101890.1224\nsamples = 7\nvalue = 655.8571"] ;
565 -> 566 ;
567 [label="mse = 56448.0\nsamples = 3\nvalue = 921.0"] ;
566 -> 567 ;
568 [label="X[2] <= 2.5059\nmse = 43702.0\nsamples = 4\nvalue = 457.0"] ;
566 -> 568 ;
569 [label="mse = 0.0\nsamples = 2\nvalue = 479.0"] ;
568 -> 569 ;
570 [label="mse = 86436.0\nsamples = 2\nvalue = 435.0"] ;
568 -> 570 ;
571 [label="X[3] <= 0.7107\nmse = 3960.2344\nsamples = 8\nvalue = 931.375"] ;
565 -> 571 ;
572 [label="mse = 0.0\nsamples = 3\nvalue = 1012.0"] ;
571 -> 572 ;
573 [label="X[2] <= 3.9683\nmse = 96.0\nsamples = 5\nvalue = 883.0"] ;
571 -> 573 ;
574 [label="mse = 0.0\nsamples = 3\nvalue = 875.0"] ;
573 -> 574 ;
575 [label="mse = 0.0\nsamples = 2\nvalue = 895.0"] ;
573 -> 575 ;
576 [label="X[6] <= 0.7725\nmse = 16490.0237\nsamples = 13\nvalue = 527.2308"] ;
564 -> 576 ;
577 [label="mse = 7494.4375\nsamples = 8\nvalue = 448.75"] ;
576 -> 577 ;
578 [label="X[7] <= 3.8874\nmse = 5260.56\nsamples = 5\nvalue = 652.8"] ;
576 -> 578 ;
579 [label="mse = 648.0\nsamples = 3\nvalue = 604.0"] ;
578 -> 579 ;
580 [label="mse = 3249.0\nsamples = 2\nvalue = 726.0"] ;
578 -> 580 ;
581 [label="X[4] <= 92.8996\nmse = 41.7284\nsamples = 9\nvalue = 1568.2222"] ;
525 -> 581 ;
582 [label="mse = 0.0\nsamples = 4\nvalue = 1561.0"] ;
581 -> 582 ;
583 [label="mse = 0.0\nsamples = 5\nvalue = 1574.0"] ;
581 -> 583 ;
584 [label="X[3] <= 0.7423\nmse = 118029.8002\nsamples = 65\nvalue = 277.1231"] ;
516 -> 584 ;
585 [label="X[5] <= 4.5813\nmse = 32311.2344\nsamples = 8\nvalue = 689.625"] ;
584 -> 585 ;
586 [label="X[5] <= 2.7123\nmse = 2530.1389\nsamples = 6\nvalue = 622.8333"] ;
585 -> 586 ;
587 [label="mse = 3584.2222\nsamples = 3\nvalue = 595.6667"] ;
586 -> 587 ;
588 [label="mse = 0.0\nsamples = 3\nvalue = 650.0"] ;
586 -> 588 ;
589 [label="mse = 68121.0\nsamples = 2\nvalue = 890.0"] ;
585 -> 589 ;
590 [label="X[7] <= 3.0086\nmse = 102826.8427\nsamples = 57\nvalue = 219.2281"] ;
584 -> 590 ;
591 [label="X[4] <= 92.0297\nmse = 190921.3923\nsamples = 21\nvalue = 390.1905"] ;
590 -> 591 ;
592 [label="X[3] <= 0.9129\nmse = 188625.1136\nsamples = 19\nvalue = 344.2105"] ;
591 -> 592 ;
593 [label="mse = 930.25\nsamples = 2\nvalue = 402.5"] ;
592 -> 593 ;
594 [label="mse = 210260.1107\nsamples = 17\nvalue = 337.3529"] ;
592 -> 594 ;
595 [label="mse = 1849.0\nsamples = 2\nvalue = 827.0"] ;
591 -> 595 ;
596 [label="X[1] <= 0.8534\nmse = 24442.9167\nsamples = 36\nvalue = 119.5"] ;
590 -> 596 ;
597 [label="mse = 41738.49\nsamples = 20\nvalue = 151.1"] ;
596 -> 597 ;
598 [label="X[2] <= 5.7647\nmse = 15.0\nsamples = 16\nvalue = 80.0"] ;
596 -> 598 ;
599 [label="mse = 0.0\nsamples = 10\nvalue = 83.0"] ;
598 -> 599 ;
600 [label="mse = 0.0\nsamples = 6\nvalue = 75.0"] ;
598 -> 600 ;
}