digraph Tree {
node [shape=box] ;
0 [label="X[0] <= 3.9599\nmse = 261.25\nsamples = 56\nvalue = 27.5"] ;
1 [label="X[16] <= 1.0288\nmse = 228.1224\nsamples = 49\nvalue = 30.2857"] ;
0 -> 1 [labeldistance=2.5, labelangle=45, headlabel="True"] ;
2 [label="X[11] <= 1.0377\nmse = 123.8542\nsamples = 12\nvalue = 18.75"] ;
1 -> 2 ;
3 [label="X[25] <= 4.204\nmse = 15.6875\nsamples = 4\nvalue = 32.75"] ;
2 -> 3 ;
4 [label="mse = 16.0\nsamples = 2\nvalue = 30.0"] ;
3 -> 4 ;
5 [label="mse = 0.25\nsamples = 2\nvalue = 35.5"] ;
3 -> 5 ;
6 [label="X[10] <= 4.7594\nmse = 30.9375\nsamples = 8\nvalue = 11.75"] ;
2 -> 6 ;
7 [label="mse = 0.6667\nsamples = 3\nvalue = 18.0"] ;
6 -> 7 ;
8 [label="X[23] <= 5.904\nmse = 11.6\nsamples = 5\nvalue = 8.0"] ;
6 -> 8 ;
9 [label="mse = 1.5556\nsamples = 3\nvalue = 5.6667"] ;
8 -> 9 ;
10 [label="mse = 6.25\nsamples = 2\nvalue = 11.5"] ;
8 -> 10 ;
11 [label="X[12] <= 1.6385\nmse = 204.7831\nsamples = 37\nvalue = 34.027"] ;
1 -> 11 ;
12 [label="X[13] <= 1.0493\nmse = 162.7475\nsamples = 20\nvalue = 39.05"] ;
11 -> 12 ;
13 [label="X[17] <= 1.0665\nmse = 196.2449\nsamples = 7\nvalue = 28.5714"] ;
12 -> 13 ;
14 [label="X[16] <= 1.1072\nmse = 42.1875\nsamples = 4\nvalue = 38.25"] ;
13 -> 14 ;
15 [label="mse = 30.25\nsamples = 2\nvalue = 33.5"] ;
14 -> 15 ;
16 [label="mse = 9.0\nsamples = 2\nvalue = 43.0"] ;
14 -> 16 ;
17 [label="mse = 110.2222\nsamples = 3\nvalue = 15.6667"] ;
13 -> 17 ;
18 [label="X[4] <= 5.8804\nmse = 53.7515\nsamples = 13\nvalue = 44.6923"] ;
12 -> 18 ;
19 [label="X[16] <= 1.0871\nmse = 21.284\nsamples = 9\nvalue = 47.7778"] ;
18 -> 19 ;
20 [label="X[11] <= 1.0544\nmse = 4.9167\nsamples = 6\nvalue = 50.5"] ;
19 -> 20 ;
21 [label="mse = 1.5556\nsamples = 3\nvalue = 48.6667"] ;
20 -> 21 ;
22 [label="mse = 1.5556\nsamples = 3\nvalue = 52.3333"] ;
20 -> 22 ;
23 [label="mse = 9.5556\nsamples = 3\nvalue = 42.3333"] ;
19 -> 23 ;
24 [label="X[6] <= 3.8852\nmse = 57.1875\nsamples = 4\nvalue = 37.75"] ;
18 -> 24 ;
25 [label="mse = 9.0\nsamples = 2\nvalue = 45.0"] ;
24 -> 25 ;
26 [label="mse = 0.25\nsamples = 2\nvalue = 30.5"] ;
24 -> 26 ;
27 [label="X[25] <= 4.1099\nmse = 189.6332\nsamples = 17\nvalue = 28.1176"] ;
11 -> 27 ;
28 [label="X[14] <= 1.0135\nmse = 84.2344\nsamples = 8\nvalue = 19.375"] ;
27 -> 28 ;
29 [label="X[24] <= 1.0505\nmse = 45.5\nsamples = 4\nvalue = 27.0"] ;
28 -> 29 ;
30 [label="mse = 30.25\nsamples = 2\nvalue = 21.5"] ;
29 -> 30 ;
31 [label="mse = 0.25\nsamples = 2\nvalue = 32.5"] ;
29 -> 31 ;
32 [label="X[17] <= 1.0406\nmse = 6.6875\nsamples = 4\nvalue = 11.75"] ;
28 -> 32 ;
33 [label="mse = 2.25\nsamples = 2\nvalue = 9.5"] ;
32 -> 33 ;
34 [label="mse = 1.0\nsamples = 2\nvalue = 14.0"] ;
32 -> 34 ;
35 [label="X[4] <= 5.3682\nmse = 154.9877\nsamples = 9\nvalue = 35.8889"] ;
27 -> 35 ;
36 [label="X[21] <= 101.0025\nmse = 48.96\nsamples = 5\nvalue = 45.8"] ;
35 -> 36 ;
37 [label="mse = 6.2222\nsamples = 3\nvalue = 40.3333"] ;
36 -> 37 ;
38 [label="mse = 1.0\nsamples = 2\nvalue = 54.0"] ;
36 -> 38 ;
39 [label="X[17] <= 1.0542\nmse = 11.25\nsamples = 4\nvalue = 23.5"] ;
35 -> 39 ;
40 [label="mse = 9.0\nsamples = 2\nvalue = 26.0"] ;
39 -> 40 ;
41 [label="mse = 1.0\nsamples = 2\nvalue = 21.0"] ;
39 -> 41 ;
42 [label="X[2] <= 1.6554\nmse = 58.5714\nsamples = 7\nvalue = 8.0"] ;
0 -> 42 [labeldistance=2.5, labelangle=-45, headlabel="False"] ;
43 [label="X[14] <= 1.0197\nmse = 3.25\nsamples = 4\nvalue = 2.5"] ;
42 -> 43 ;
44 [label="mse = 1.0\nsamples = 2\nvalue = 1.0"] ;
43 -> 44 ;
45 [label="mse = 1.0\nsamples = 2\nvalue = 4.0"] ;
43 -> 45 ;
46 [label="mse = 38.2222\nsamples = 3\nvalue = 15.3333"] ;
42 -> 46 ;
}