digraph Tree {
node [shape=box] ;
0 [label="X[14] <= 1.0028\nmse = 506.9167\nsamples = 78\nvalue = 38.5"] ;
1 [label="X[5] <= 1.055\nmse = 442.6667\nsamples = 9\nvalue = 58.6667"] ;
0 -> 1 [labeldistance=2.5, labelangle=45, headlabel="True"] ;
2 [label="mse = 196.0\nsamples = 2\nvalue = 23.0"] ;
1 -> 2 ;
3 [label="X[2] <= 1.5373\nmse = 45.8367\nsamples = 7\nvalue = 68.8571"] ;
1 -> 3 ;
4 [label="X[25] <= 4.2352\nmse = 18.64\nsamples = 5\nvalue = 72.4"] ;
3 -> 4 ;
5 [label="mse = 0.6667\nsamples = 3\nvalue = 75.0"] ;
4 -> 5 ;
6 [label="mse = 20.25\nsamples = 2\nvalue = 68.5"] ;
4 -> 6 ;
7 [label="mse = 4.0\nsamples = 2\nvalue = 60.0"] ;
3 -> 7 ;
8 [label="X[2] <= 1.7205\nmse = 455.3308\nsamples = 69\nvalue = 35.8696"] ;
0 -> 8 [labeldistance=2.5, labelangle=-45, headlabel="False"] ;
9 [label="X[10] <= 6.0254\nmse = 427.4233\nsamples = 66\nvalue = 37.303"] ;
8 -> 9 ;
10 [label="X[12] <= 1.6525\nmse = 297.8302\nsamples = 18\nvalue = 48.0556"] ;
9 -> 10 ;
11 [label="X[8] <= 1.0\nmse = 191.0612\nsamples = 7\nvalue = 31.7143"] ;
10 -> 11 ;
12 [label="X[12] <= 1.4727\nmse = 80.8\nsamples = 5\nvalue = 25.0"] ;
11 -> 12 ;
13 [label="mse = 6.2222\nsamples = 3\nvalue = 30.6667"] ;
12 -> 13 ;
14 [label="mse = 72.25\nsamples = 2\nvalue = 16.5"] ;
12 -> 14 ;
15 [label="mse = 72.25\nsamples = 2\nvalue = 48.5"] ;
11 -> 15 ;
16 [label="X[2] <= 1.4973\nmse = 87.7025\nsamples = 11\nvalue = 58.4545"] ;
10 -> 16 ;
17 [label="X[11] <= 1.0685\nmse = 52.4\nsamples = 5\nvalue = 51.0"] ;
16 -> 17 ;
18 [label="mse = 30.25\nsamples = 2\nvalue = 43.5"] ;
17 -> 18 ;
19 [label="mse = 4.6667\nsamples = 3\nvalue = 56.0"] ;
17 -> 19 ;
20 [label="X[1] <= 1.1348\nmse = 32.2222\nsamples = 6\nvalue = 64.6667"] ;
16 -> 20 ;
21 [label="X[23] <= 2.1657\nmse = 2.5\nsamples = 4\nvalue = 68.0"] ;
20 -> 21 ;
22 [label="mse = 0.25\nsamples = 2\nvalue = 69.5"] ;
21 -> 22 ;
23 [label="mse = 0.25\nsamples = 2\nvalue = 66.5"] ;
21 -> 23 ;
24 [label="mse = 25.0\nsamples = 2\nvalue = 58.0"] ;
20 -> 24 ;
25 [label="X[21] <= 81.5553\nmse = 416.4058\nsamples = 48\nvalue = 33.2708"] ;
9 -> 25 ;
26 [label="X[21] <= 79.4611\nmse = 463.44\nsamples = 5\nvalue = 59.6"] ;
25 -> 26 ;
27 [label="mse = 441.0\nsamples = 2\nvalue = 39.0"] ;
26 -> 27 ;
28 [label="mse = 6.8889\nsamples = 3\nvalue = 73.3333"] ;
26 -> 28 ;
29 [label="X[15] <= 1.5283\nmse = 320.9562\nsamples = 43\nvalue = 30.2093"] ;
25 -> 29 ;
30 [label="X[6] <= 2.289\nmse = 244.6368\nsamples = 31\nvalue = 23.5161"] ;
29 -> 30 ;
31 [label="X[2] <= 1.4948\nmse = 127.6875\nsamples = 4\nvalue = 47.75"] ;
30 -> 31 ;
32 [label="mse = 56.25\nsamples = 2\nvalue = 57.5"] ;
31 -> 32 ;
33 [label="mse = 9.0\nsamples = 2\nvalue = 38.0"] ;
31 -> 33 ;
34 [label="X[12] <= 1.2048\nmse = 162.0686\nsamples = 27\nvalue = 19.9259"] ;
30 -> 34 ;
35 [label="X[16] <= 1.0874\nmse = 224.5833\nsamples = 6\nvalue = 32.5"] ;
34 -> 35 ;
36 [label="mse = 24.8889\nsamples = 3\nvalue = 45.6667"] ;
35 -> 36 ;
37 [label="mse = 77.5556\nsamples = 3\nvalue = 19.3333"] ;
35 -> 37 ;
38 [label="X[6] <= 5.0971\nmse = 86.127\nsamples = 21\nvalue = 16.3333"] ;
34 -> 38 ;
39 [label="X[15] <= 1.4786\nmse = 67.3611\nsamples = 18\nvalue = 18.5"] ;
38 -> 39 ;
40 [label="X[13] <= 1.1105\nmse = 51.9844\nsamples = 16\nvalue = 16.875"] ;
39 -> 40 ;
41 [label="X[0] <= 3.7032\nmse = 41.0533\nsamples = 13\nvalue = 18.8462"] ;
40 -> 41 ;
42 [label="X[10] <= 6.9162\nmse = 21.75\nsamples = 8\nvalue = 15.5"] ;
41 -> 42 ;
43 [label="mse = 4.6667\nsamples = 3\nvalue = 20.0"] ;
42 -> 43 ;
44 [label="X[0] <= 2.3966\nmse = 12.56\nsamples = 5\nvalue = 12.8"] ;
42 -> 44 ;
45 [label="mse = 12.25\nsamples = 2\nvalue = 9.5"] ;
44 -> 45 ;
46 [label="mse = 0.6667\nsamples = 3\nvalue = 15.0"] ;
44 -> 46 ;
47 [label="X[10] <= 7.2168\nmse = 25.36\nsamples = 5\nvalue = 24.2"] ;
41 -> 47 ;
48 [label="mse = 2.8889\nsamples = 3\nvalue = 20.6667"] ;
47 -> 48 ;
49 [label="mse = 12.25\nsamples = 2\nvalue = 29.5"] ;
47 -> 49 ;
50 [label="mse = 9.5556\nsamples = 3\nvalue = 8.3333"] ;
40 -> 50 ;
51 [label="mse = 0.25\nsamples = 2\nvalue = 31.5"] ;
39 -> 51 ;
52 [label="mse = 1.5556\nsamples = 3\nvalue = 3.3333"] ;
38 -> 52 ;
53 [label="X[14] <= 1.0306\nmse = 103.4167\nsamples = 12\nvalue = 47.5"] ;
29 -> 53 ;
54 [label="X[23] <= 4.6519\nmse = 52.29\nsamples = 10\nvalue = 44.1"] ;
53 -> 54 ;
55 [label="X[18] <= 9.6399\nmse = 20.25\nsamples = 8\nvalue = 47.0"] ;
54 -> 55 ;
56 [label="X[16] <= 1.104\nmse = 3.8889\nsamples = 6\nvalue = 44.6667"] ;
55 -> 56 ;
57 [label="mse = 0.6667\nsamples = 3\nvalue = 43.0"] ;
56 -> 57 ;
58 [label="mse = 1.5556\nsamples = 3\nvalue = 46.3333"] ;
56 -> 58 ;
59 [label="mse = 4.0\nsamples = 2\nvalue = 54.0"] ;
55 -> 59 ;
60 [label="mse = 12.25\nsamples = 2\nvalue = 32.5"] ;
54 -> 60 ;
61 [label="mse = 12.25\nsamples = 2\nvalue = 64.5"] ;
53 -> 61 ;
62 [label="mse = 29.5556\nsamples = 3\nvalue = 4.3333"] ;
8 -> 62 ;
}