digraph Tree {
node [shape=box] ;
0 [label="X[9] <= 1.7918\nmse = 331331.1669\nsamples = 2000\nvalue = 994.4155"] ;
1 [label="X[18] <= 9.8759\nmse = 193061.0329\nsamples = 363\nvalue = 681.7769"] ;
0 -> 1 [labeldistance=2.5, labelangle=45, headlabel="True"] ;
2 [label="X[10] <= 2.824\nmse = 144801.2926\nsamples = 321\nvalue = 623.0156"] ;
1 -> 2 ;
3 [label="X[10] <= 2.2804\nmse = 76603.5644\nsamples = 203\nvalue = 487.8522"] ;
2 -> 3 ;
4 [label="X[20] <= 1.0\nmse = 79263.8655\nsamples = 144\nvalue = 553.5972"] ;
3 -> 4 ;
5 [label="X[18] <= 8.5554\nmse = 68837.8678\nsamples = 137\nvalue = 530.9708"] ;
4 -> 5 ;
6 [label="X[0] <= 3.2041\nmse = 60948.5455\nsamples = 121\nvalue = 565.9091"] ;
5 -> 6 ;
7 [label="X[15] <= 1.0\nmse = 67040.9149\nsamples = 24\nvalue = 758.4583"] ;
6 -> 7 ;
8 [label="X[19] <= 0.9559\nmse = 56429.5623\nsamples = 19\nvalue = 681.7368"] ;
7 -> 8 ;
9 [label="mse = 0.0\nsamples = 8\nvalue = 595.0"] ;
8 -> 9 ;
10 [label="mse = 88018.5124\nsamples = 11\nvalue = 744.8182"] ;
8 -> 10 ;
11 [label="mse = 0.0\nsamples = 5\nvalue = 1050.0"] ;
7 -> 11 ;
12 [label="X[4] <= 2.83\nmse = 47998.2374\nsamples = 97\nvalue = 518.268"] ;
6 -> 12 ;
13 [label="X[5] <= 1.0717\nmse = 26142.1875\nsamples = 20\nvalue = 764.75"] ;
12 -> 13 ;
14 [label="mse = 0.0\nsamples = 9\nvalue = 586.0"] ;
13 -> 14 ;
15 [label="mse = 0.0\nsamples = 11\nvalue = 911.0"] ;
13 -> 15 ;
16 [label="X[11] <= 1.0416\nmse = 33796.3157\nsamples = 77\nvalue = 454.2468"] ;
12 -> 16 ;
17 [label="X[18] <= 3.0143\nmse = 25155.3457\nsamples = 53\nvalue = 517.1132"] ;
16 -> 17 ;
18 [label="mse = 578.0\nsamples = 3\nvalue = 44.0"] ;
17 -> 18 ;
19 [label="X[6] <= 3.296\nmse = 12394.01\nsamples = 50\nvalue = 545.5"] ;
17 -> 19 ;
20 [label="X[7] <= 1.26\nmse = 8698.9579\nsamples = 48\nvalue = 558.4792"] ;
19 -> 20 ;
21 [label="mse = 0.0\nsamples = 19\nvalue = 466.0"] ;
20 -> 21 ;
22 [label="X[19] <= 0.9953\nmse = 5123.8573\nsamples = 29\nvalue = 619.069"] ;
20 -> 22 ;
23 [label="X[0] <= 5.7099\nmse = 5383.6416\nsamples = 25\nvalue = 610.28"] ;
22 -> 23 ;
24 [label="X[2] <= 1.3823\nmse = 3742.4691\nsamples = 18\nvalue = 626.5556"] ;
23 -> 24 ;
25 [label="mse = 0.0\nsamples = 3\nvalue = 661.0"] ;
24 -> 25 ;
26 [label="mse = 4206.2222\nsamples = 15\nvalue = 619.6667"] ;
24 -> 26 ;
27 [label="mse = 7171.102\nsamples = 7\nvalue = 568.4286"] ;
23 -> 27 ;
28 [label="mse = 0.0\nsamples = 4\nvalue = 674.0"] ;
22 -> 28 ;
29 [label="mse = 0.0\nsamples = 2\nvalue = 234.0"] ;
19 -> 29 ;
30 [label="X[2] <= 1.4545\nmse = 24876.9097\nsamples = 24\nvalue = 315.4167"] ;
16 -> 30 ;
31 [label="mse = 0.0\nsamples = 8\nvalue = 537.0"] ;
30 -> 31 ;
32 [label="X[11] <= 1.0788\nmse = 490.9844\nsamples = 16\nvalue = 204.625"] ;
30 -> 32 ;
33 [label="mse = 0.0\nsamples = 2\nvalue = 146.0"] ;
32 -> 33 ;
34 [label="mse = 0.0\nsamples = 14\nvalue = 213.0"] ;
32 -> 34 ;
35 [label="X[10] <= 2.1597\nmse = 49456.8125\nsamples = 16\nvalue = 266.75"] ;
5 -> 35 ;
36 [label="X[9] <= 1.3077\nmse = 38562.6864\nsamples = 13\nvalue = 202.0769"] ;
35 -> 36 ;
37 [label="X[11] <= 1.0883\nmse = 37944.96\nsamples = 10\nvalue = 254.8"] ;
36 -> 37 ;
38 [label="X[15] <= 1.0\nmse = 44671.3469\nsamples = 7\nvalue = 308.2857"] ;
37 -> 38 ;
39 [label="mse = 0.0\nsamples = 3\nvalue = 326.0"] ;
38 -> 39 ;
40 [label="mse = 77763.0\nsamples = 4\nvalue = 295.0"] ;
38 -> 40 ;
41 [label="mse = 0.0\nsamples = 3\nvalue = 130.0"] ;
37 -> 41 ;
42 [label="mse = 470.2222\nsamples = 3\nvalue = 26.3333"] ;
36 -> 42 ;
43 [label="mse = 0.0\nsamples = 3\nvalue = 547.0"] ;
35 -> 43 ;
44 [label="mse = 77196.2449\nsamples = 7\nvalue = 996.4286"] ;
4 -> 44 ;
45 [label="X[23] <= 3.8236\nmse = 33812.848\nsamples = 59\nvalue = 327.3898"] ;
3 -> 45 ;
46 [label="X[12] <= 3.04\nmse = 8244.5744\nsamples = 34\nvalue = 462.1176"] ;
45 -> 46 ;
47 [label="mse = 0.0\nsamples = 5\nvalue = 312.0"] ;
46 -> 47 ;
48 [label="X[6] <= 5.7812\nmse = 5110.7586\nsamples = 29\nvalue = 488.0"] ;
46 -> 48 ;
49 [label="mse = 0.0\nsamples = 8\nvalue = 394.0"] ;
48 -> 49 ;
50 [label="X[1] <= 1.1355\nmse = 2409.2971\nsamples = 21\nvalue = 523.8095"] ;
48 -> 50 ;
51 [label="mse = 0.0\nsamples = 17\nvalue = 500.0"] ;
50 -> 51 ;
52 [label="mse = 0.0\nsamples = 4\nvalue = 625.0"] ;
50 -> 52 ;
53 [label="X[23] <= 5.7612\nmse = 10326.3744\nsamples = 25\nvalue = 144.16"] ;
45 -> 53 ;
54 [label="X[7] <= 1.26\nmse = 4052.0138\nsamples = 17\nvalue = 84.4706"] ;
53 -> 54 ;
55 [label="X[9] <= 1.5141\nmse = 1145.41\nsamples = 10\nvalue = 132.7"] ;
54 -> 55 ;
56 [label="X[26] <= 1.0\nmse = 1332.25\nsamples = 4\nvalue = 103.5"] ;
55 -> 56 ;
57 [label="mse = 0.0\nsamples = 2\nvalue = 67.0"] ;
56 -> 57 ;
58 [label="mse = 0.0\nsamples = 2\nvalue = 140.0"] ;
56 -> 58 ;
59 [label="mse = 73.4722\nsamples = 6\nvalue = 152.1667"] ;
55 -> 59 ;
60 [label="X[0] <= 3.0486\nmse = 134.2449\nsamples = 7\nvalue = 15.5714"] ;
54 -> 60 ;
61 [label="X[22] <= 0.9993\nmse = 60.64\nsamples = 5\nvalue = 21.6"] ;
60 -> 61 ;
62 [label="mse = 8.0\nsamples = 3\nvalue = 27.0"] ;
61 -> 62 ;
63 [label="mse = 30.25\nsamples = 2\nvalue = 13.5"] ;
61 -> 63 ;
64 [label="mse = 0.25\nsamples = 2\nvalue = 0.5"] ;
60 -> 64 ;
65 [label="mse = 0.0\nsamples = 8\nvalue = 271.0"] ;
53 -> 65 ;
66 [label="X[14] <= 0.8853\nmse = 176626.6889\nsamples = 118\nvalue = 855.5424"] ;
2 -> 66 ;
67 [label="X[0] <= 1.3227\nmse = 116454.5215\nsamples = 74\nvalue = 1008.7297"] ;
66 -> 67 ;
68 [label="mse = 13355.7025\nsamples = 11\nvalue = 396.4545"] ;
67 -> 68 ;
69 [label="X[2] <= 1.5991\nmse = 57571.7874\nsamples = 63\nvalue = 1115.6349"] ;
67 -> 69 ;
70 [label="X[13] <= 1.1194\nmse = 18067.6818\nsamples = 54\nvalue = 1199.1481"] ;
69 -> 70 ;
71 [label="X[9] <= 1.4408\nmse = 1266.8056\nsamples = 48\nvalue = 1245.1667"] ;
70 -> 71 ;
72 [label="mse = 0.0\nsamples = 20\nvalue = 1205.0"] ;
71 -> 72 ;
73 [label="X[1] <= 1.0689\nmse = 196.1224\nsamples = 28\nvalue = 1273.8571"] ;
71 -> 73 ;
74 [label="mse = 0.0\nsamples = 8\nvalue = 1296.0"] ;
73 -> 74 ;
75 [label="mse = 0.0\nsamples = 20\nvalue = 1265.0"] ;
73 -> 75 ;
76 [label="mse = 0.0\nsamples = 6\nvalue = 831.0"] ;
70 -> 76 ;
77 [label="mse = 1669.1358\nsamples = 9\nvalue = 614.5556"] ;
69 -> 77 ;
78 [label="X[26] <= 1.0\nmse = 171984.2645\nsamples = 44\nvalue = 597.9091"] ;
66 -> 78 ;
79 [label="X[23] <= 4.4554\nmse = 338.0\nsamples = 6\nvalue = 66.0"] ;
78 -> 79 ;
80 [label="mse = 0.0\nsamples = 4\nvalue = 53.0"] ;
79 -> 80 ;
81 [label="mse = 0.0\nsamples = 2\nvalue = 92.0"] ;
79 -> 81 ;
82 [label="X[2] <= 1.4395\nmse = 147359.9889\nsamples = 38\nvalue = 681.8947"] ;
78 -> 82 ;
83 [label="X[12] <= 3.04\nmse = 111077.4017\nsamples = 19\nvalue = 945.5789"] ;
82 -> 83 ;
84 [label="mse = 0.0\nsamples = 6\nvalue = 455.0"] ;
83 -> 84 ;
85 [label="mse = 0.0\nsamples = 13\nvalue = 1172.0"] ;
83 -> 85 ;
86 [label="X[10] <= 2.8546\nmse = 44583.8504\nsamples = 19\nvalue = 418.2105"] ;
82 -> 86 ;
87 [label="X[13] <= 1.0546\nmse = 8081.8367\nsamples = 7\nvalue = 151.1429"] ;
86 -> 87 ;
88 [label="mse = 0.0\nsamples = 2\nvalue = 9.0"] ;
87 -> 88 ;
89 [label="mse = 0.0\nsamples = 5\nvalue = 208.0"] ;
87 -> 89 ;
90 [label="mse = 0.0\nsamples = 12\nvalue = 574.0"] ;
86 -> 90 ;
91 [label="X[8] <= 1.14\nmse = 333818.9144\nsamples = 42\nvalue = 1130.881"] ;
1 -> 91 ;
92 [label="mse = 0.0\nsamples = 16\nvalue = 1647.0"] ;
91 -> 92 ;
93 [label="X[19] <= 0.9154\nmse = 274443.2737\nsamples = 26\nvalue = 813.2692"] ;
91 -> 93 ;
94 [label="mse = 0.0\nsamples = 11\nvalue = 1417.0"] ;
93 -> 94 ;
95 [label="X[23] <= 3.7636\nmse = 12393.3156\nsamples = 15\nvalue = 370.5333"] ;
93 -> 95 ;
96 [label="mse = 6697.6875\nsamples = 4\nvalue = 216.75"] ;
95 -> 96 ;
97 [label="mse = 2737.5207\nsamples = 11\nvalue = 426.4545"] ;
95 -> 97 ;
98 [label="X[10] <= 2.7538\nmse = 335511.7662\nsamples = 1637\nvalue = 1063.7422"] ;
0 -> 98 [labeldistance=2.5, labelangle=-45, headlabel="False"] ;
99 [label="X[6] <= 2.7383\nmse = 325506.8999\nsamples = 1514\nvalue = 1104.3639"] ;
98 -> 99 ;
100 [label="X[23] <= 5.1157\nmse = 294286.1924\nsamples = 364\nvalue = 873.1813"] ;
99 -> 100 ;
101 [label="X[10] <= 2.727\nmse = 196962.7123\nsamples = 158\nvalue = 565.6772"] ;
100 -> 101 ;
102 [label="X[13] <= 1.1063\nmse = 71310.3789\nsamples = 120\nvalue = 418.7667"] ;
101 -> 102 ;
103 [label="X[19] <= 0.9358\nmse = 41307.8613\nsamples = 65\nvalue = 264.2154"] ;
102 -> 103 ;
104 [label="X[5] <= 0.9567\nmse = 26999.1391\nsamples = 29\nvalue = 398.5862"] ;
103 -> 104 ;
105 [label="mse = 0.0\nsamples = 3\nvalue = 740.0"] ;
104 -> 105 ;
106 [label="X[13] <= 1.0472\nmse = 15112.9246\nsamples = 26\nvalue = 359.1923"] ;
104 -> 106 ;
107 [label="X[19] <= 0.9199\nmse = 5735.0385\nsamples = 21\nvalue = 309.2381"] ;
106 -> 107 ;
108 [label="mse = 2809.0\nsamples = 2\nvalue = 99.0"] ;
107 -> 108 ;
109 [label="X[16] <= 1.0\nmse = 900.6537\nsamples = 19\nvalue = 331.3684"] ;
107 -> 109 ;
110 [label="X[23] <= 1.6733\nmse = 47.6389\nsamples = 12\nvalue = 308.8333"] ;
109 -> 110 ;
111 [label="mse = 0.0\nsamples = 7\nvalue = 303.0"] ;
110 -> 111 ;
112 [label="mse = 0.0\nsamples = 5\nvalue = 317.0"] ;
110 -> 112 ;
113 [label="mse = 0.0\nsamples = 7\nvalue = 370.0"] ;
109 -> 113 ;
114 [label="mse = 0.0\nsamples = 5\nvalue = 569.0"] ;
106 -> 114 ;
115 [label="X[17] <= 1.07\nmse = 26573.027\nsamples = 36\nvalue = 155.9722"] ;
103 -> 115 ;
116 [label="X[24] <= 0.954\nmse = 6571.8957\nsamples = 27\nvalue = 104.2593"] ;
115 -> 116 ;
117 [label="mse = 0.0\nsamples = 5\nvalue = 246.0"] ;
116 -> 117 ;
118 [label="X[0] <= 5.527\nmse = 2461.7707\nsamples = 22\nvalue = 72.0455"] ;
116 -> 118 ;
119 [label="X[5] <= 1.0957\nmse = 2079.1136\nsamples = 19\nvalue = 61.7895"] ;
118 -> 119 ;
120 [label="X[2] <= 1.3576\nmse = 1661.2622\nsamples = 15\nvalue = 47.7333"] ;
119 -> 120 ;
121 [label="mse = 32.0\nsamples = 3\nvalue = 10.0"] ;
120 -> 121 ;
122 [label="X[21] <= 85.1078\nmse = 1623.6389\nsamples = 12\nvalue = 57.1667"] ;
120 -> 122 ;
123 [label="X[18] <= 6.4503\nmse = 95.6327\nsamples = 7\nvalue = 31.2857"] ;
122 -> 123 ;
124 [label="mse = 0.1875\nsamples = 4\nvalue = 39.75"] ;
123 -> 124 ;
125 [label="mse = 0.0\nsamples = 3\nvalue = 20.0"] ;
123 -> 125 ;
126 [label="X[12] <= 3.04\nmse = 1512.24\nsamples = 5\nvalue = 93.4"] ;
122 -> 126 ;
127 [label="mse = 484.0\nsamples = 2\nvalue = 131.0"] ;
126 -> 127 ;
128 [label="mse = 626.8889\nsamples = 3\nvalue = 68.3333"] ;
126 -> 128 ;
129 [label="mse = 126.75\nsamples = 4\nvalue = 114.5"] ;
119 -> 129 ;
130 [label="mse = 0.0\nsamples = 3\nvalue = 137.0"] ;
118 -> 130 ;
131 [label="X[21] <= 95.4045\nmse = 54485.6543\nsamples = 9\nvalue = 311.1111"] ;
115 -> 131 ;
132 [label="X[2] <= 1.6023\nmse = 29013.5556\nsamples = 6\nvalue = 443.3333"] ;
131 -> 132 ;
133 [label="mse = 33973.5556\nsamples = 3\nvalue = 333.6667"] ;
132 -> 133 ;
134 [label="mse = 0.0\nsamples = 3\nvalue = 553.0"] ;
132 -> 134 ;
135 [label="mse = 533.5556\nsamples = 3\nvalue = 46.6667"] ;
131 -> 135 ;
136 [label="X[17] <= 1.0597\nmse = 45177.2979\nsamples = 55\nvalue = 601.4182"] ;
102 -> 136 ;
137 [label="X[1] <= 1.0463\nmse = 6066.9646\nsamples = 46\nvalue = 689.7609"] ;
136 -> 137 ;
138 [label="X[0] <= 4.7588\nmse = 14339.4844\nsamples = 8\nvalue = 568.625"] ;
137 -> 138 ;
139 [label="mse = 4160.25\nsamples = 2\nvalue = 389.5"] ;
138 -> 139 ;
140 [label="X[13] <= 1.1095\nmse = 3472.2222\nsamples = 6\nvalue = 628.3333"] ;
138 -> 140 ;
141 [label="mse = 0.0\nsamples = 2\nvalue = 545.0"] ;
140 -> 141 ;
142 [label="mse = 0.0\nsamples = 4\nvalue = 670.0"] ;
140 -> 142 ;
143 [label="X[1] <= 1.0642\nmse = 585.7729\nsamples = 38\nvalue = 715.2632"] ;
137 -> 143 ;
144 [label="mse = 0.0\nsamples = 16\nvalue = 743.0"] ;
143 -> 144 ;
145 [label="X[10] <= 2.5037\nmse = 45.3554\nsamples = 22\nvalue = 695.0909"] ;
143 -> 145 ;
146 [label="mse = 0.0\nsamples = 14\nvalue = 690.0"] ;
145 -> 146 ;
147 [label="mse = 0.0\nsamples = 8\nvalue = 704.0"] ;
145 -> 147 ;
148 [label="X[22] <= 0.9057\nmse = 1306.5432\nsamples = 9\nvalue = 149.8889"] ;
136 -> 148 ;
149 [label="mse = 40.1389\nsamples = 6\nvalue = 175.1667"] ;
148 -> 149 ;
150 [label="mse = 5.5556\nsamples = 3\nvalue = 99.3333"] ;
148 -> 150 ;
151 [label="X[9] <= 2.7255\nmse = 310374.3968\nsamples = 38\nvalue = 1029.6053"] ;
101 -> 151 ;
152 [label="X[26] <= 1.0\nmse = 280385.3297\nsamples = 33\nvalue = 928.9394"] ;
151 -> 152 ;
153 [label="X[23] <= 3.3638\nmse = 200354.88\nsamples = 25\nvalue = 1131.8"] ;
152 -> 153 ;
154 [label="mse = 0.0\nsamples = 16\nvalue = 1446.0"] ;
153 -> 154 ;
155 [label="X[1] <= 1.0298\nmse = 69027.0617\nsamples = 9\nvalue = 573.2222"] ;
153 -> 155 ;
156 [label="mse = 0.0\nsamples = 2\nvalue = 201.0"] ;
155 -> 156 ;
157 [label="mse = 37853.3878\nsamples = 7\nvalue = 679.5714"] ;
155 -> 157 ;
158 [label="mse = 0.0\nsamples = 8\nvalue = 295.0"] ;
152 -> 158 ;
159 [label="mse = 0.0\nsamples = 5\nvalue = 1694.0"] ;
151 -> 159 ;
160 [label="X[9] <= 2.2261\nmse = 240780.2173\nsamples = 206\nvalue = 1109.034"] ;
100 -> 160 ;
161 [label="mse = 0.0\nsamples = 20\nvalue = 1776.0"] ;
160 -> 161 ;
162 [label="X[10] <= 1.8481\nmse = 213694.6144\nsamples = 186\nvalue = 1037.3172"] ;
160 -> 162 ;
163 [label="X[2] <= 1.5409\nmse = 167087.7264\nsamples = 102\nvalue = 1271.3824"] ;
162 -> 163 ;
164 [label="X[2] <= 1.4465\nmse = 225140.059\nsamples = 21\nvalue = 1707.8095"] ;
163 -> 164 ;
165 [label="mse = 0.0\nsamples = 3\nvalue = 550.0"] ;
164 -> 165 ;
166 [label="X[11] <= 0.9033\nmse = 2006.1728\nsamples = 18\nvalue = 1900.7778"] ;
164 -> 166 ;
167 [label="mse = 0.0\nsamples = 5\nvalue = 1973.0"] ;
166 -> 167 ;
168 [label="mse = 0.0\nsamples = 13\nvalue = 1873.0"] ;
166 -> 168 ;
169 [label="X[26] <= 1.0\nmse = 89853.9326\nsamples = 81\nvalue = 1158.2346"] ;
163 -> 169 ;
170 [label="X[11] <= 1.0252\nmse = 153736.997\nsamples = 41\nvalue = 1263.6829"] ;
169 -> 170 ;
171 [label="X[0] <= 5.2659\nmse = 141723.4097\nsamples = 36\nvalue = 1310.4167"] ;
170 -> 171 ;
172 [label="X[23] <= 5.4148\nmse = 3900.2344\nsamples = 8\nvalue = 1610.375"] ;
171 -> 172 ;
173 [label="mse = 0.0\nsamples = 5\nvalue = 1562.0"] ;
172 -> 173 ;
174 [label="mse = 0.0\nsamples = 3\nvalue = 1691.0"] ;
172 -> 174 ;
175 [label="mse = 148049.4184\nsamples = 28\nvalue = 1224.7143"] ;
171 -> 175 ;
176 [label="mse = 111288.96\nsamples = 5\nvalue = 927.2"] ;
170 -> 176 ;
177 [label="X[13] <= 1.0465\nmse = 1294.1775\nsamples = 40\nvalue = 1050.15"] ;
169 -> 177 ;
178 [label="mse = 0.0\nsamples = 11\nvalue = 993.0"] ;
177 -> 178 ;
179 [label="X[2] <= 1.6336\nmse = 76.2806\nsamples = 29\nvalue = 1071.8276"] ;
177 -> 179 ;
180 [label="mse = 0.0\nsamples = 18\nvalue = 1065.0"] ;
179 -> 180 ;
181 [label="mse = 0.0\nsamples = 11\nvalue = 1083.0"] ;
179 -> 181 ;
182 [label="X[3] <= 0.8044\nmse = 122980.11\nsamples = 84\nvalue = 753.0952"] ;
162 -> 182 ;
183 [label="X[21] <= 98.8067\nmse = 114691.3088\nsamples = 43\nvalue = 966.3953"] ;
182 -> 183 ;
184 [label="X[22] <= 0.8885\nmse = 74008.6118\nsamples = 27\nvalue = 1130.4074"] ;
183 -> 184 ;
185 [label="X[18] <= 5.422\nmse = 96159.0533\nsamples = 13\nvalue = 1303.1538"] ;
184 -> 185 ;
186 [label="mse = 0.0\nsamples = 3\nvalue = 737.0"] ;
185 -> 186 ;
187 [label="mse = 0.0\nsamples = 10\nvalue = 1473.0"] ;
185 -> 187 ;
188 [label="mse = 0.0\nsamples = 14\nvalue = 970.0"] ;
184 -> 188 ;
189 [label="X[10] <= 2.4725\nmse = 61347.8594\nsamples = 16\nvalue = 689.625"] ;
183 -> 189 ;
190 [label="X[4] <= 2.83\nmse = 573.9796\nsamples = 14\nvalue = 782.8571"] ;
189 -> 190 ;
191 [label="mse = 0.0\nsamples = 5\nvalue = 815.0"] ;
190 -> 191 ;
192 [label="mse = 0.0\nsamples = 9\nvalue = 765.0"] ;
190 -> 192 ;
193 [label="mse = 0.0\nsamples = 2\nvalue = 37.0"] ;
189 -> 193 ;
194 [label="X[9] <= 2.943\nmse = 33913.0184\nsamples = 41\nvalue = 529.3902"] ;
182 -> 194 ;
195 [label="X[26] <= 1.0\nmse = 5943.3389\nsamples = 29\nvalue = 637.6207"] ;
194 -> 195 ;
196 [label="X[2] <= 1.6764\nmse = 961.5586\nsamples = 16\nvalue = 703.9375"] ;
195 -> 196 ;
197 [label="mse = 0.0\nsamples = 6\nvalue = 664.0"] ;
196 -> 197 ;
198 [label="mse = 7.29\nsamples = 10\nvalue = 727.9"] ;
196 -> 198 ;
199 [label="mse = 0.0\nsamples = 13\nvalue = 556.0"] ;
195 -> 199 ;
200 [label="X[26] <= 1.0\nmse = 4785.9722\nsamples = 12\nvalue = 267.8333"] ;
194 -> 200 ;
201 [label="mse = 1396.6094\nsamples = 8\nvalue = 293.125"] ;
200 -> 201 ;
202 [label="mse = 7726.6875\nsamples = 4\nvalue = 217.25"] ;
200 -> 202 ;
203 [label="X[17] <= 1.0665\nmse = 313117.819\nsamples = 1150\nvalue = 1177.5383"] ;
99 -> 203 ;
204 [label="X[2] <= 1.4944\nmse = 295308.2569\nsamples = 845\nvalue = 1259.6296"] ;
203 -> 204 ;
205 [label="X[6] <= 5.9195\nmse = 243995.2005\nsamples = 361\nvalue = 1448.7729"] ;
204 -> 205 ;
206 [label="X[13] <= 1.089\nmse = 205492.7614\nsamples = 348\nvalue = 1490.0086"] ;
205 -> 206 ;
207 [label="X[0] <= 3.1833\nmse = 189120.1244\nsamples = 218\nvalue = 1380.7982"] ;
206 -> 207 ;
208 [label="X[9] <= 3.065\nmse = 160905.3297\nsamples = 181\nvalue = 1467.3094"] ;
207 -> 208 ;
209 [label="X[10] <= 1.8238\nmse = 120676.1503\nsamples = 122\nvalue = 1370.9262"] ;
208 -> 209 ;
210 [label="X[23] <= 4.0601\nmse = 32610.8889\nsamples = 27\nvalue = 863.6667"] ;
209 -> 210 ;
211 [label="X[7] <= 1.26\nmse = 29811.4215\nsamples = 22\nvalue = 820.1818"] ;
210 -> 211 ;
212 [label="mse = 0.0\nsamples = 9\nvalue = 952.0"] ;
211 -> 212 ;
213 [label="mse = 30092.3787\nsamples = 13\nvalue = 728.9231"] ;
211 -> 213 ;
214 [label="mse = 0.0\nsamples = 5\nvalue = 1055.0"] ;
210 -> 214 ;
215 [label="X[16] <= 1.0\nmse = 51789.8121\nsamples = 95\nvalue = 1515.0947"] ;
209 -> 215 ;
216 [label="X[2] <= 1.4221\nmse = 603.5665\nsamples = 27\nvalue = 1314.6296"] ;
215 -> 216 ;
217 [label="mse = 0.0\nsamples = 16\nvalue = 1335.0"] ;
216 -> 217 ;
218 [label="mse = 0.0\nsamples = 11\nvalue = 1285.0"] ;
216 -> 218 ;
219 [label="X[19] <= 0.9513\nmse = 49821.8605\nsamples = 68\nvalue = 1594.6912"] ;
215 -> 219 ;
220 [label="X[5] <= 1.041\nmse = 53347.0672\nsamples = 41\nvalue = 1504.3902"] ;
219 -> 220 ;
221 [label="X[24] <= 1.0282\nmse = 5669.2653\nsamples = 35\nvalue = 1545.1429"] ;
220 -> 221 ;
222 [label="X[11] <= 1.09\nmse = 3182.0\nsamples = 30\nvalue = 1523.0"] ;
221 -> 222 ;
223 [label="X[8] <= 1.14\nmse = 6301.25\nsamples = 12\nvalue = 1491.5"] ;
222 -> 223 ;
224 [label="mse = 0.0\nsamples = 10\nvalue = 1527.0"] ;
223 -> 224 ;
225 [label="mse = 0.0\nsamples = 2\nvalue = 1314.0"] ;
223 -> 225 ;
226 [label="mse = 0.0\nsamples = 18\nvalue = 1544.0"] ;
222 -> 226 ;
227 [label="mse = 0.0\nsamples = 5\nvalue = 1678.0"] ;
221 -> 227 ;
228 [label="mse = 265267.2222\nsamples = 6\nvalue = 1266.6667"] ;
220 -> 228 ;
229 [label="X[15] <= 1.0\nmse = 13283.4842\nsamples = 27\nvalue = 1731.8148"] ;
219 -> 229 ;
230 [label="mse = 0.0\nsamples = 7\nvalue = 1537.0"] ;
229 -> 230 ;
231 [label="mse = 0.0\nsamples = 20\nvalue = 1800.0"] ;
229 -> 231 ;
232 [label="X[14] <= 0.7868\nmse = 185161.0514\nsamples = 59\nvalue = 1666.6102"] ;
208 -> 232 ;
233 [label="mse = 0.0\nsamples = 20\nvalue = 1756.0"] ;
232 -> 233 ;
234 [label="X[22] <= 0.8938\nmse = 273916.3314\nsamples = 39\nvalue = 1620.7692"] ;
232 -> 234 ;
235 [label="mse = 0.0\nsamples = 6\nvalue = 1820.0"] ;
234 -> 235 ;
236 [label="X[2] <= 1.461\nmse = 315190.2479\nsamples = 33\nvalue = 1584.5455"] ;
234 -> 236 ;
237 [label="mse = 191844.0\nsamples = 10\nvalue = 1372.0"] ;
236 -> 237 ;
238 [label="mse = 340637.6938\nsamples = 23\nvalue = 1676.9565"] ;
236 -> 238 ;
239 [label="X[22] <= 0.988\nmse = 111430.7275\nsamples = 37\nvalue = 957.5946"] ;
207 -> 239 ;
240 [label="mse = 0.0\nsamples = 8\nvalue = 1380.0"] ;
239 -> 240 ;
241 [label="X[14] <= 0.9106\nmse = 79370.9608\nsamples = 29\nvalue = 841.069"] ;
239 -> 241 ;
242 [label="mse = 1892.25\nsamples = 2\nvalue = 56.5"] ;
241 -> 242 ;
243 [label="X[6] <= 4.6518\nmse = 36136.4472\nsamples = 27\nvalue = 899.1852"] ;
241 -> 243 ;
244 [label="X[10] <= 2.5437\nmse = 35718.9074\nsamples = 23\nvalue = 930.6957"] ;
243 -> 244 ;
245 [label="X[2] <= 1.4397\nmse = 1112.8889\nsamples = 12\nvalue = 855.6667"] ;
244 -> 245 ;
246 [label="mse = 0.0\nsamples = 6\nvalue = 889.0"] ;
245 -> 246 ;
247 [label="X[12] <= 3.04\nmse = 3.5556\nsamples = 6\nvalue = 822.3333"] ;
245 -> 247 ;
248 [label="mse = 0.0\nsamples = 2\nvalue = 825.0"] ;
247 -> 248 ;
249 [label="mse = 0.0\nsamples = 4\nvalue = 821.0"] ;
247 -> 249 ;
250 [label="X[24] <= 1.0026\nmse = 60630.4298\nsamples = 11\nvalue = 1012.5455"] ;
244 -> 250 ;
251 [label="mse = 64362.2449\nsamples = 7\nvalue = 1118.5714"] ;
250 -> 251 ;
252 [label="mse = 0.0\nsamples = 4\nvalue = 827.0"] ;
250 -> 252 ;
253 [label="mse = 0.0\nsamples = 4\nvalue = 718.0"] ;
243 -> 253 ;
254 [label="X[10] <= 1.5977\nmse = 179408.5248\nsamples = 130\nvalue = 1673.1462"] ;
206 -> 254 ;
255 [label="mse = 1605.5556\nsamples = 3\nvalue = 396.3333"] ;
254 -> 255 ;
256 [label="X[25] <= 3.29\nmse = 144189.0474\nsamples = 127\nvalue = 1703.3071"] ;
254 -> 256 ;
257 [label="mse = 13868.8889\nsamples = 6\nvalue = 856.6667"] ;
256 -> 257 ;
258 [label="X[17] <= 1.0284\nmse = 113344.8998\nsamples = 121\nvalue = 1745.2893"] ;
256 -> 258 ;
259 [label="X[13] <= 1.1077\nmse = 171699.9169\nsamples = 19\nvalue = 1415.3684"] ;
258 -> 259 ;
260 [label="mse = 0.0\nsamples = 5\nvalue = 722.0"] ;
259 -> 260 ;
261 [label="mse = 0.0\nsamples = 14\nvalue = 1663.0"] ;
259 -> 261 ;
262 [label="X[11] <= 1.0203\nmse = 78422.4644\nsamples = 102\nvalue = 1806.7451"] ;
258 -> 262 ;
263 [label="X[10] <= 2.3028\nmse = 64861.0489\nsamples = 74\nvalue = 1877.7568"] ;
262 -> 263 ;
264 [label="X[3] <= 0.8383\nmse = 55707.4275\nsamples = 20\nvalue = 1786.85"] ;
263 -> 264 ;
265 [label="mse = 0.0\nsamples = 3\nvalue = 1225.0"] ;
264 -> 265 ;
266 [label="mse = 0.0\nsamples = 17\nvalue = 1886.0"] ;
264 -> 266 ;
267 [label="X[23] <= 4.6773\nmse = 64056.9112\nsamples = 54\nvalue = 1911.4259"] ;
263 -> 267 ;
268 [label="mse = 0.0\nsamples = 16\nvalue = 1978.0"] ;
267 -> 268 ;
269 [label="mse = 88376.3442\nsamples = 38\nvalue = 1883.3947"] ;
267 -> 269 ;
270 [label="X[0] <= 5.8293\nmse = 65714.9235\nsamples = 28\nvalue = 1619.0714"] ;
262 -> 270 ;
271 [label="mse = 0.0\nsamples = 18\nvalue = 1428.0"] ;
270 -> 271 ;
272 [label="mse = 0.0\nsamples = 10\nvalue = 1963.0"] ;
270 -> 272 ;
273 [label="X[24] <= 1.0464\nmse = 10673.4556\nsamples = 13\nvalue = 344.9231"] ;
205 -> 273 ;
274 [label="X[8] <= 1.14\nmse = 2090.9877\nsamples = 9\nvalue = 280.8889"] ;
273 -> 274 ;
275 [label="mse = 0.0\nsamples = 5\nvalue = 241.0"] ;
274 -> 275 ;
276 [label="mse = 229.6875\nsamples = 4\nvalue = 330.75"] ;
274 -> 276 ;
277 [label="mse = 0.0\nsamples = 4\nvalue = 489.0"] ;
273 -> 277 ;
278 [label="X[13] <= 1.0293\nmse = 286995.0612\nsamples = 484\nvalue = 1118.5537"] ;
204 -> 278 ;
279 [label="X[3] <= 0.9317\nmse = 20076.1285\nsamples = 23\nvalue = 232.9565"] ;
278 -> 279 ;
280 [label="X[2] <= 1.5295\nmse = 3749.7279\nsamples = 21\nvalue = 213.2857"] ;
279 -> 280 ;
281 [label="X[6] <= 4.9874\nmse = 9397.6\nsamples = 5\nvalue = 154.0"] ;
280 -> 281 ;
282 [label="mse = 1260.25\nsamples = 2\nvalue = 38.5"] ;
281 -> 282 ;
283 [label="mse = 0.0\nsamples = 3\nvalue = 231.0"] ;
281 -> 283 ;
284 [label="X[0] <= 1.1519\nmse = 543.1523\nsamples = 16\nvalue = 231.8125"] ;
280 -> 284 ;
285 [label="mse = 0.0\nsamples = 4\nvalue = 193.0"] ;
284 -> 285 ;
286 [label="X[1] <= 1.0379\nmse = 54.6875\nsamples = 12\nvalue = 244.75"] ;
284 -> 286 ;
287 [label="mse = 0.0\nsamples = 5\nvalue = 236.0"] ;
286 -> 287 ;
288 [label="mse = 0.0\nsamples = 7\nvalue = 251.0"] ;
286 -> 288 ;
289 [label="mse = 144780.25\nsamples = 2\nvalue = 439.5"] ;
279 -> 289 ;
290 [label="X[17] <= 1.0274\nmse = 259230.7923\nsamples = 461\nvalue = 1162.7375"] ;
278 -> 290 ;
291 [label="X[3] <= 0.9444\nmse = 273302.6989\nsamples = 240\nvalue = 1001.4667"] ;
290 -> 291 ;
292 [label="X[9] <= 2.8385\nmse = 243447.9868\nsamples = 149\nvalue = 820.5906"] ;
291 -> 292 ;
293 [label="X[21] <= 107.077\nmse = 10193.04\nsamples = 15\nvalue = 289.4"] ;
292 -> 293 ;
294 [label="mse = 0.0\nsamples = 13\nvalue = 329.0"] ;
293 -> 294 ;
295 [label="mse = 0.0\nsamples = 2\nvalue = 32.0"] ;
293 -> 295 ;
296 [label="X[23] <= 3.5646\nmse = 234437.4674\nsamples = 134\nvalue = 880.0522"] ;
292 -> 296 ;
297 [label="X[14] <= 0.8411\nmse = 53962.25\nsamples = 18\nvalue = 416.5"] ;
296 -> 297 ;
298 [label="mse = 0.0\nsamples = 6\nvalue = 712.0"] ;
297 -> 298 ;
299 [label="X[25] <= 3.29\nmse = 15453.1875\nsamples = 12\nvalue = 268.75"] ;
297 -> 299 ;
300 [label="X[22] <= 0.9676\nmse = 713.8889\nsamples = 6\nvalue = 161.6667"] ;
299 -> 300 ;
301 [label="mse = 430.2222\nsamples = 3\nvalue = 139.3333"] ;
300 -> 301 ;
302 [label="mse = 0.0\nsamples = 3\nvalue = 184.0"] ;
300 -> 302 ;
303 [label="X[22] <= 0.9812\nmse = 7258.8056\nsamples = 6\nvalue = 375.8333"] ;
299 -> 303 ;
304 [label="mse = 10.8889\nsamples = 3\nvalue = 290.6667"] ;
303 -> 304 ;
305 [label="mse = 0.0\nsamples = 3\nvalue = 461.0"] ;
303 -> 305 ;
306 [label="X[8] <= 1.14\nmse = 223924.6894\nsamples = 116\nvalue = 951.9828"] ;
296 -> 306 ;
307 [label="X[5] <= 1.0969\nmse = 412998.2042\nsamples = 34\nvalue = 1171.1765"] ;
306 -> 307 ;
308 [label="X[1] <= 1.1364\nmse = 274310.812\nsamples = 22\nvalue = 812.7727"] ;
307 -> 308 ;
309 [label="X[4] <= 2.83\nmse = 354820.5898\nsamples = 16\nvalue = 734.6875"] ;
308 -> 309 ;
310 [label="mse = 0.0\nsamples = 2\nvalue = 421.0"] ;
309 -> 310 ;
311 [label="mse = 389443.9643\nsamples = 14\nvalue = 779.5"] ;
309 -> 311 ;
312 [label="mse = 0.0\nsamples = 6\nvalue = 1021.0"] ;
308 -> 312 ;
313 [label="X[21] <= 113.6581\nmse = 15.1875\nsamples = 12\nvalue = 1828.25"] ;
307 -> 313 ;
314 [label="mse = 0.0\nsamples = 9\nvalue = 1826.0"] ;
313 -> 314 ;
315 [label="mse = 0.0\nsamples = 3\nvalue = 1835.0"] ;
313 -> 315 ;
316 [label="X[2] <= 1.6558\nmse = 117346.771\nsamples = 82\nvalue = 861.0976"] ;
306 -> 316 ;
317 [label="X[6] <= 3.6135\nmse = 132213.661\nsamples = 62\nvalue = 787.9839"] ;
316 -> 317 ;
318 [label="mse = 167047.8367\nsamples = 21\nvalue = 1080.1429"] ;
317 -> 318 ;
319 [label="X[20] <= 1.0\nmse = 48259.5419\nsamples = 41\nvalue = 638.3415"] ;
317 -> 319 ;
320 [label="mse = 0.0\nsamples = 19\nvalue = 402.0"] ;
319 -> 320 ;
321 [label="X[18] <= 8.8125\nmse = 35.7025\nsamples = 22\nvalue = 842.4545"] ;
319 -> 321 ;
322 [label="mse = 0.0\nsamples = 10\nvalue = 849.0"] ;
321 -> 322 ;
323 [label="mse = 0.0\nsamples = 12\nvalue = 837.0"] ;
321 -> 323 ;
324 [label="X[18] <= 4.3152\nmse = 3316.6875\nsamples = 20\nvalue = 1087.75"] ;
316 -> 324 ;
325 [label="mse = 0.0\nsamples = 5\nvalue = 988.0"] ;
324 -> 325 ;
326 [label="mse = 0.0\nsamples = 15\nvalue = 1121.0"] ;
324 -> 326 ;
327 [label="X[21] <= 106.6535\nmse = 180906.9153\nsamples = 91\nvalue = 1297.6264"] ;
291 -> 327 ;
328 [label="X[22] <= 1.0198\nmse = 126305.0739\nsamples = 72\nvalue = 1176.8472"] ;
327 -> 328 ;
329 [label="X[1] <= 1.0747\nmse = 78860.7906\nsamples = 69\nvalue = 1223.8116"] ;
328 -> 329 ;
330 [label="X[19] <= 0.9789\nmse = 62326.24\nsamples = 65\nvalue = 1188.6"] ;
329 -> 330 ;
331 [label="mse = 0.0\nsamples = 6\nvalue = 493.0"] ;
330 -> 331 ;
332 [label="X[10] <= 2.0437\nmse = 14454.4614\nsamples = 59\nvalue = 1259.339"] ;
330 -> 332 ;
333 [label="X[2] <= 1.5678\nmse = 9421.358\nsamples = 27\nvalue = 1177.4444"] ;
332 -> 333 ;
334 [label="mse = 0.0\nsamples = 17\nvalue = 1103.0"] ;
333 -> 334 ;
335 [label="mse = 0.0\nsamples = 10\nvalue = 1304.0"] ;
333 -> 335 ;
336 [label="X[18] <= 8.6091\nmse = 8267.7461\nsamples = 32\nvalue = 1328.4375"] ;
332 -> 336 ;
337 [label="X[26] <= 1.0\nmse = 81.5577\nsamples = 29\nvalue = 1357.5517"] ;
336 -> 337 ;
338 [label="mse = 0.0\nsamples = 10\nvalue = 1370.0"] ;
337 -> 338 ;
339 [label="mse = 0.0\nsamples = 19\nvalue = 1351.0"] ;
337 -> 339 ;
340 [label="mse = 0.0\nsamples = 3\nvalue = 1047.0"] ;
336 -> 340 ;
341 [label="mse = 0.0\nsamples = 4\nvalue = 1796.0"] ;
329 -> 341 ;
342 [label="mse = 3.5556\nsamples = 3\nvalue = 96.6667"] ;
328 -> 342 ;
343 [label="mse = 123060.2161\nsamples = 19\nvalue = 1755.3158"] ;
327 -> 343 ;
344 [label="X[12] <= 3.04\nmse = 185032.2464\nsamples = 221\nvalue = 1337.8733"] ;
290 -> 344 ;
345 [label="X[5] <= 1.0629\nmse = 130580.8333\nsamples = 206\nvalue = 1404.8932"] ;
344 -> 345 ;
346 [label="X[16] <= 1.0\nmse = 121357.5284\nsamples = 81\nvalue = 1209.0494"] ;
345 -> 346 ;
347 [label="mse = 0.0\nsamples = 10\nvalue = 517.0"] ;
346 -> 347 ;
348 [label="X[2] <= 1.5628\nmse = 61494.1369\nsamples = 71\nvalue = 1306.5211"] ;
346 -> 348 ;
349 [label="X[10] <= 2.1841\nmse = 5958.4806\nsamples = 46\nvalue = 1480.6739"] ;
348 -> 349 ;
350 [label="X[3] <= 0.8558\nmse = 2560.25\nsamples = 30\nvalue = 1528.5"] ;
349 -> 350 ;
351 [label="mse = 0.0\nsamples = 11\nvalue = 1462.0"] ;
350 -> 351 ;
352 [label="mse = 0.0\nsamples = 19\nvalue = 1567.0"] ;
350 -> 352 ;
353 [label="mse = 0.0\nsamples = 16\nvalue = 1391.0"] ;
349 -> 353 ;
354 [label="X[0] <= 3.9773\nmse = 5191.5136\nsamples = 25\nvalue = 986.08"] ;
348 -> 354 ;
355 [label="X[0] <= 3.5644\nmse = 1898.3594\nsamples = 16\nvalue = 1033.375"] ;
354 -> 355 ;
356 [label="mse = 0.0\nsamples = 11\nvalue = 1004.0"] ;
355 -> 356 ;
357 [label="mse = 0.0\nsamples = 5\nvalue = 1098.0"] ;
355 -> 357 ;
358 [label="mse = 0.0\nsamples = 9\nvalue = 902.0"] ;
354 -> 358 ;
359 [label="X[7] <= 1.26\nmse = 95598.288\nsamples = 125\nvalue = 1531.8"] ;
345 -> 359 ;
360 [label="X[10] <= 2.23\nmse = 31950.7657\nsamples = 81\nvalue = 1630.2716"] ;
359 -> 360 ;
361 [label="X[21] <= 88.1466\nmse = 438.7375\nsamples = 42\nvalue = 1719.6905"] ;
360 -> 361 ;
362 [label="mse = 0.0\nsamples = 11\nvalue = 1745.0"] ;
361 -> 362 ;
363 [label="X[12] <= 3.04\nmse = 286.4641\nsamples = 31\nvalue = 1710.7097"] ;
361 -> 363 ;
364 [label="X[18] <= 4.6985\nmse = 101.25\nsamples = 24\nvalue = 1718.5"] ;
363 -> 364 ;
365 [label="mse = 0.0\nsamples = 20\nvalue = 1714.0"] ;
364 -> 365 ;
366 [label="mse = 0.0\nsamples = 4\nvalue = 1741.0"] ;
364 -> 366 ;
367 [label="mse = 0.0\nsamples = 7\nvalue = 1684.0"] ;
363 -> 367 ;
368 [label="X[13] <= 1.0503\nmse = 48002.8455\nsamples = 39\nvalue = 1533.9744"] ;
360 -> 368 ;
369 [label="mse = 0.0\nsamples = 19\nvalue = 1617.0"] ;
368 -> 369 ;
370 [label="X[11] <= 0.9885\nmse = 80835.79\nsamples = 20\nvalue = 1455.1"] ;
368 -> 370 ;
371 [label="mse = 0.0\nsamples = 16\nvalue = 1502.0"] ;
370 -> 371 ;
372 [label="mse = 360186.75\nsamples = 4\nvalue = 1267.5"] ;
370 -> 372 ;
373 [label="X[15] <= 1.0\nmse = 162055.4768\nsamples = 44\nvalue = 1350.5227"] ;
359 -> 373 ;
374 [label="mse = 29043.5556\nsamples = 18\nvalue = 885.6667"] ;
373 -> 374 ;
375 [label="X[17] <= 1.0387\nmse = 968.7648\nsamples = 26\nvalue = 1672.3462"] ;
373 -> 375 ;
376 [label="mse = 0.0\nsamples = 15\nvalue = 1699.0"] ;
375 -> 376 ;
377 [label="mse = 0.0\nsamples = 11\nvalue = 1636.0"] ;
375 -> 377 ;
378 [label="X[5] <= 1.0415\nmse = 23997.7156\nsamples = 15\nvalue = 417.4667"] ;
344 -> 378 ;
379 [label="mse = 0.0\nsamples = 10\nvalue = 527.0"] ;
378 -> 379 ;
380 [label="mse = 7.84\nsamples = 5\nvalue = 198.4"] ;
378 -> 380 ;
381 [label="X[11] <= 1.0842\nmse = 292062.8349\nsamples = 305\nvalue = 950.1049"] ;
203 -> 381 ;
382 [label="X[24] <= 1.0254\nmse = 209282.1958\nsamples = 247\nvalue = 852.5749"] ;
381 -> 382 ;
383 [label="X[12] <= 3.04\nmse = 187174.5423\nsamples = 122\nvalue = 656.3115"] ;
382 -> 383 ;
384 [label="X[3] <= 0.8592\nmse = 156166.2801\nsamples = 66\nvalue = 874.5152"] ;
383 -> 384 ;
385 [label="X[20] <= 1.0\nmse = 3980.4444\nsamples = 9\nvalue = 88.3333"] ;
384 -> 385 ;
386 [label="mse = 338.0\nsamples = 3\nvalue = 17.0"] ;
385 -> 386 ;
387 [label="X[5] <= 0.9656\nmse = 1985.3333\nsamples = 6\nvalue = 124.0"] ;
385 -> 387 ;
388 [label="mse = 0.0\nsamples = 4\nvalue = 148.0"] ;
387 -> 388 ;
389 [label="mse = 2500.0\nsamples = 2\nvalue = 76.0"] ;
387 -> 389 ;
390 [label="X[8] <= 1.14\nmse = 67194.5085\nsamples = 57\nvalue = 998.6491"] ;
384 -> 390 ;
391 [label="X[23] <= 3.0006\nmse = 93768.9475\nsamples = 20\nvalue = 788.55"] ;
390 -> 391 ;
392 [label="X[10] <= 1.7725\nmse = 79679.7191\nsamples = 18\nvalue = 838.0556"] ;
391 -> 392 ;
393 [label="X[19] <= 0.9647\nmse = 1259.1074\nsamples = 11\nvalue = 944.2727"] ;
392 -> 393 ;
394 [label="mse = 0.0\nsamples = 9\nvalue = 961.0"] ;
393 -> 394 ;
395 [label="mse = 0.0\nsamples = 2\nvalue = 869.0"] ;
393 -> 395 ;
396 [label="X[14] <= 0.987\nmse = 157323.2653\nsamples = 7\nvalue = 671.1429"] ;
392 -> 396 ;
397 [label="mse = 0.0\nsamples = 2\nvalue = 44.0"] ;
396 -> 397 ;
398 [label="mse = 0.0\nsamples = 5\nvalue = 922.0"] ;
396 -> 398 ;
399 [label="mse = 0.0\nsamples = 2\nvalue = 343.0"] ;
391 -> 399 ;
400 [label="X[11] <= 0.9243\nmse = 16072.1154\nsamples = 37\nvalue = 1112.2162"] ;
390 -> 400 ;
401 [label="mse = 0.0\nsamples = 7\nvalue = 895.0"] ;
400 -> 401 ;
402 [label="X[0] <= 4.6036\nmse = 6244.09\nsamples = 30\nvalue = 1162.9"] ;
400 -> 402 ;
403 [label="X[23] <= 1.9796\nmse = 1523.321\nsamples = 26\nvalue = 1190.4231"] ;
402 -> 403 ;
404 [label="mse = 0.0\nsamples = 15\nvalue = 1157.0"] ;
403 -> 404 ;
405 [label="mse = 0.0\nsamples = 11\nvalue = 1236.0"] ;
403 -> 405 ;
406 [label="mse = 0.0\nsamples = 4\nvalue = 984.0"] ;
402 -> 406 ;
407 [label="X[23] <= 2.5852\nmse = 101469.1582\nsamples = 56\nvalue = 399.1429"] ;
383 -> 407 ;
408 [label="X[2] <= 1.5721\nmse = 126569.3388\nsamples = 22\nvalue = 647.4545"] ;
407 -> 408 ;
409 [label="X[22] <= 1.0134\nmse = 1800.1875\nsamples = 8\nvalue = 188.75"] ;
408 -> 409 ;
410 [label="mse = 268.8889\nsamples = 6\nvalue = 165.6667"] ;
409 -> 410 ;
411 [label="mse = 0.0\nsamples = 2\nvalue = 258.0"] ;
409 -> 411 ;
412 [label="X[3] <= 0.8611\nmse = 8926.5306\nsamples = 14\nvalue = 909.5714"] ;
408 -> 412 ;
413 [label="mse = 0.0\nsamples = 12\nvalue = 871.0"] ;
412 -> 413 ;
414 [label="mse = 0.0\nsamples = 2\nvalue = 1141.0"] ;
412 -> 414 ;
415 [label="X[0] <= 3.4267\nmse = 19515.4844\nsamples = 34\nvalue = 238.4706"] ;
407 -> 415 ;
416 [label="X[23] <= 3.6834\nmse = 1739.01\nsamples = 20\nvalue = 350.7"] ;
415 -> 416 ;
417 [label="mse = 0.0\nsamples = 14\nvalue = 378.0"] ;
416 -> 417 ;
418 [label="mse = 0.0\nsamples = 6\nvalue = 287.0"] ;
416 -> 418 ;
419 [label="X[19] <= 0.9837\nmse = 1211.9796\nsamples = 14\nvalue = 78.1429"] ;
415 -> 419 ;
420 [label="mse = 234.8889\nsamples = 3\nvalue = 23.6667"] ;
419 -> 420 ;
421 [label="X[5] <= 1.0631\nmse = 448.3636\nsamples = 11\nvalue = 93.0"] ;
419 -> 421 ;
422 [label="X[21] <= 84.271\nmse = 87.75\nsamples = 8\nvalue = 81.0"] ;
421 -> 422 ;
423 [label="mse = 0.0\nsamples = 3\nvalue = 69.0"] ;
422 -> 423 ;
424 [label="X[5] <= 1.0504\nmse = 2.16\nsamples = 5\nvalue = 88.2"] ;
422 -> 424 ;
425 [label="mse = 0.0\nsamples = 2\nvalue = 90.0"] ;
424 -> 425 ;
426 [label="mse = 0.0\nsamples = 3\nvalue = 87.0"] ;
424 -> 426 ;
427 [label="mse = 2.0\nsamples = 3\nvalue = 125.0"] ;
421 -> 427 ;
428 [label="X[2] <= 1.6266\nmse = 156571.8076\nsamples = 125\nvalue = 1044.128"] ;
382 -> 428 ;
429 [label="X[24] <= 1.0382\nmse = 142433.8869\nsamples = 115\nvalue = 997.0087"] ;
428 -> 429 ;
430 [label="X[9] <= 2.418\nmse = 624.75\nsamples = 20\nvalue = 1328.5"] ;
429 -> 430 ;
431 [label="mse = 0.0\nsamples = 3\nvalue = 1388.0"] ;
430 -> 431 ;
432 [label="mse = 0.0\nsamples = 17\nvalue = 1318.0"] ;
430 -> 432 ;
433 [label="X[2] <= 1.5236\nmse = 144284.1301\nsamples = 95\nvalue = 927.2211"] ;
429 -> 433 ;
434 [label="mse = 229.6875\nsamples = 4\nvalue = 133.25"] ;
433 -> 434 ;
435 [label="X[16] <= 1.0\nmse = 121688.7436\nsamples = 91\nvalue = 962.1209"] ;
433 -> 435 ;
436 [label="X[21] <= 118.4418\nmse = 77007.4411\nsamples = 57\nvalue = 1059.4561"] ;
435 -> 436 ;
437 [label="mse = 0.0\nsamples = 12\nvalue = 791.0"] ;
436 -> 437 ;
438 [label="X[22] <= 0.9208\nmse = 73199.5536\nsamples = 45\nvalue = 1131.0444"] ;
436 -> 438 ;
439 [label="mse = 0.0\nsamples = 10\nvalue = 859.0"] ;
438 -> 439 ;
440 [label="X[26] <= 1.0\nmse = 66927.0335\nsamples = 35\nvalue = 1208.7714"] ;
438 -> 440 ;
441 [label="X[18] <= 6.3412\nmse = 23426.76\nsamples = 20\nvalue = 1042.8"] ;
440 -> 441 ;
442 [label="mse = 0.0\nsamples = 6\nvalue = 809.0"] ;
441 -> 442 ;
443 [label="mse = 0.0\nsamples = 14\nvalue = 1143.0"] ;
441 -> 443 ;
444 [label="mse = 39227.1289\nsamples = 15\nvalue = 1430.0667"] ;
440 -> 444 ;
445 [label="X[13] <= 1.0759\nmse = 154084.8789\nsamples = 34\nvalue = 798.9412"] ;
435 -> 445 ;
446 [label="X[1] <= 1.1143\nmse = 3.9184\nsamples = 7\nvalue = 114.2857"] ;
445 -> 446 ;
447 [label="mse = 0.0\nsamples = 4\nvalue = 116.0"] ;
446 -> 447 ;
448 [label="mse = 0.0\nsamples = 3\nvalue = 112.0"] ;
446 -> 448 ;
449 [label="X[3] <= 0.839\nmse = 40995.8025\nsamples = 27\nvalue = 976.4444"] ;
445 -> 449 ;
450 [label="mse = 0.0\nsamples = 2\nvalue = 262.0"] ;
449 -> 450 ;
451 [label="X[23] <= 2.9372\nmse = 174.24\nsamples = 25\nvalue = 1033.6"] ;
449 -> 451 ;
452 [label="mse = 0.0\nsamples = 5\nvalue = 1060.0"] ;
451 -> 452 ;
453 [label="mse = 0.0\nsamples = 20\nvalue = 1027.0"] ;
451 -> 453 ;
454 [label="mse = 0.0\nsamples = 10\nvalue = 1586.0"] ;
428 -> 454 ;
455 [label="X[25] <= 3.29\nmse = 431575.6266\nsamples = 58\nvalue = 1365.4483"] ;
381 -> 455 ;
456 [label="mse = 0.0\nsamples = 12\nvalue = 345.0"] ;
455 -> 456 ;
457 [label="X[4] <= 2.83\nmse = 201648.7486\nsamples = 46\nvalue = 1631.6522"] ;
455 -> 457 ;
458 [label="X[21] <= 103.3832\nmse = 3672.0\nsamples = 23\nvalue = 1892.0"] ;
457 -> 458 ;
459 [label="mse = 0.0\nsamples = 6\nvalue = 1994.0"] ;
458 -> 459 ;
460 [label="mse = 0.0\nsamples = 17\nvalue = 1856.0"] ;
458 -> 460 ;
461 [label="X[19] <= 0.9599\nmse = 264063.5161\nsamples = 23\nvalue = 1371.3043"] ;
457 -> 461 ;
462 [label="mse = 0.0\nsamples = 3\nvalue = 60.0"] ;
461 -> 462 ;
463 [label="X[13] <= 1.0734\nmse = 7056.0\nsamples = 20\nvalue = 1568.0"] ;
461 -> 463 ;
464 [label="mse = 0.0\nsamples = 2\nvalue = 1316.0"] ;
463 -> 464 ;
465 [label="mse = 0.0\nsamples = 18\nvalue = 1596.0"] ;
463 -> 465 ;
466 [label="X[14] <= 0.8082\nmse = 188339.302\nsamples = 123\nvalue = 563.7317"] ;
98 -> 466 ;
467 [label="X[9] <= 2.895\nmse = 7911.358\nsamples = 18\nvalue = 1327.4444"] ;
466 -> 467 ;
468 [label="mse = 0.0\nsamples = 8\nvalue = 1228.0"] ;
467 -> 468 ;
469 [label="mse = 0.0\nsamples = 10\nvalue = 1407.0"] ;
467 -> 469 ;
470 [label="X[10] <= 2.8897\nmse = 102142.2494\nsamples = 105\nvalue = 432.8095"] ;
466 -> 470 ;
471 [label="X[12] <= 3.04\nmse = 81556.4898\nsamples = 56\nvalue = 644.2143"] ;
470 -> 471 ;
472 [label="X[0] <= 3.8025\nmse = 26749.8347\nsamples = 11\nvalue = 218.2727"] ;
471 -> 472 ;
473 [label="mse = 133.4722\nsamples = 6\nvalue = 367.1667"] ;
472 -> 473 ;
474 [label="X[8] <= 1.14\nmse = 162.24\nsamples = 5\nvalue = 39.6"] ;
472 -> 474 ;
475 [label="mse = 0.0\nsamples = 3\nvalue = 50.0"] ;
474 -> 475 ;
476 [label="mse = 0.0\nsamples = 2\nvalue = 24.0"] ;
474 -> 476 ;
477 [label="X[8] <= 1.14\nmse = 39764.2667\nsamples = 45\nvalue = 748.3333"] ;
471 -> 477 ;
478 [label="X[9] <= 3.3251\nmse = 8725.2071\nsamples = 13\nvalue = 1017.8462"] ;
477 -> 478 ;
479 [label="mse = 0.0\nsamples = 5\nvalue = 1136.0"] ;
478 -> 479 ;
480 [label="mse = 0.0\nsamples = 8\nvalue = 944.0"] ;
478 -> 480 ;
481 [label="X[19] <= 0.9731\nmse = 10877.0693\nsamples = 32\nvalue = 638.8438"] ;
477 -> 481 ;
482 [label="X[12] <= 3.04\nmse = 1802.24\nsamples = 15\nvalue = 703.6"] ;
481 -> 482 ;
483 [label="mse = 0.0\nsamples = 11\nvalue = 678.0"] ;
482 -> 483 ;
484 [label="mse = 0.0\nsamples = 4\nvalue = 774.0"] ;
482 -> 484 ;
485 [label="mse = 11919.5017\nsamples = 17\nvalue = 581.7059"] ;
481 -> 485 ;
486 [label="X[1] <= 1.0399\nmse = 16219.1012\nsamples = 49\nvalue = 191.2041"] ;
470 -> 486 ;
487 [label="X[13] <= 1.0486\nmse = 11597.2431\nsamples = 12\nvalue = 354.0833"] ;
486 -> 487 ;
488 [label="mse = 0.0\nsamples = 4\nvalue = 485.0"] ;
487 -> 488 ;
489 [label="X[22] <= 0.8906\nmse = 4541.4844\nsamples = 8\nvalue = 288.625"] ;
487 -> 489 ;
490 [label="mse = 0.0\nsamples = 3\nvalue = 205.0"] ;
489 -> 490 ;
491 [label="X[4] <= 2.83\nmse = 552.96\nsamples = 5\nvalue = 338.8"] ;
489 -> 491 ;
492 [label="mse = 0.0\nsamples = 2\nvalue = 310.0"] ;
491 -> 492 ;
493 [label="mse = 0.0\nsamples = 3\nvalue = 358.0"] ;
491 -> 493 ;
494 [label="X[13] <= 1.0489\nmse = 6323.3163\nsamples = 37\nvalue = 138.3784"] ;
486 -> 494 ;
495 [label="X[25] <= 3.29\nmse = 376.2041\nsamples = 7\nvalue = 36.2857"] ;
494 -> 495 ;
496 [label="mse = 0.0\nsamples = 3\nvalue = 15.0"] ;
495 -> 496 ;
497 [label="X[20] <= 1.0\nmse = 63.6875\nsamples = 4\nvalue = 52.25"] ;
495 -> 497 ;
498 [label="mse = 0.0\nsamples = 2\nvalue = 47.0"] ;
497 -> 498 ;
499 [label="mse = 72.25\nsamples = 2\nvalue = 57.5"] ;
497 -> 499 ;
500 [label="X[7] <= 1.26\nmse = 4711.4933\nsamples = 30\nvalue = 162.2"] ;
494 -> 500 ;
501 [label="X[9] <= 2.9203\nmse = 2051.6543\nsamples = 27\nvalue = 145.5556"] ;
500 -> 501 ;
502 [label="X[11] <= 0.9968\nmse = 737.1903\nsamples = 17\nvalue = 175.5294"] ;
501 -> 502 ;
503 [label="mse = 288.0\nsamples = 9\nvalue = 156.0"] ;
502 -> 503 ;
504 [label="X[3] <= 0.8997\nmse = 330.75\nsamples = 8\nvalue = 197.5"] ;
502 -> 504 ;
505 [label="mse = 0.0\nsamples = 2\nvalue = 229.0"] ;
504 -> 505 ;
506 [label="mse = 0.0\nsamples = 6\nvalue = 187.0"] ;
504 -> 506 ;
507 [label="X[1] <= 1.0855\nmse = 162.44\nsamples = 10\nvalue = 94.6"] ;
501 -> 507 ;
508 [label="mse = 0.16\nsamples = 5\nvalue = 82.8"] ;
507 -> 508 ;
509 [label="mse = 46.24\nsamples = 5\nvalue = 106.4"] ;
507 -> 509 ;
510 [label="mse = 3716.6667\nsamples = 3\nvalue = 312.0"] ;
500 -> 510 ;
}